8.883152726087696349e-01 4.872141796905254396e-01 -1.924546822616416131e-01 -8.738682243354667367e-01 1.502628827472565876e+00 -1.423833385757019343e+00 1.265105359643711458e-01 -9.954147780906862364e-01 1.374965616748465402e+00 -1.072963198940462437e+00 -8.870383990690298981e-02 -3.282967913283355021e-01 5.886092785757677248e-01 -9.556527681435672550e-02 5.124480090572159918e-01 -5.833336231595906973e-01 -5.246385887866542724e-02 1.703645988565357094e-01 1.243325991721792700e+00 4.594677360349055384e-01 9.754637662705097911e-01 1.258623510687969550e-02 -1.537071910263934638e-01 4.726947878832857275e-01 1.751542990865651683e+00 -6.644585960536465719e-02 -4.721066951875247386e-01 2.601678543877175009e+00 -1.727723748185834962e+00 -5.014371079077360000e-04
3.291707121435197281e-01 8.500570329086746257e-01 -5.741538991832912942e-01 3.065443627809189553e-01 -1.274271978647661507e+00 2.141738097667074570e+00 -5.707967796406572258e-01 -1.426193644386365866e+00 1.316970657707085213e+00 -1.704932767207301358e+00 -8.457813681066612688e-01 -7.804260695055591501e-01 -9.361134766065812851e-01 4.154216460452500037e-01 -1.507522054300669101e+00 -2.188200320154305434e+00 -2.227181633194296406e+00 1.957071130493668987e+00 1.302781717672620854e-01 -2.775031425469137170e-01 1.570780117873639359e+00 -4.603622153413458040e-01 -5.661485530529799526e-01 5.614239320410162326e-02 -8.042200350641154349e-01 8.570873538870976693e-02 6.481348148023844402e-01 1.060061474031458228e+00 1.838857369856806978e-01 -1.624873799287628096e+00
-7.391610908894492571e-01 1.222594538609750980e+00 -9.820838497955330926e-01 -1.098698296570167265e+00 -2.102600538696796084e-01 4.413971796223628563e-01 -2.214593680877315410e-02 -5.822375268559736375e-03 9.002684221010388566e-01 -1.383096497949968917e+00 4.301746837276252400e-01 -1.511131762413089885e-01 3.861495554336687452e-01 3.044993166379108107e+00 -3.006226954422719713e-02 1.025423865177737426e+00 -6.211173426468034053e-01 -3.037167428181475337e-01 -3.901825610226698493e-01 -3.325527786983922596e+00 6.079018804224882722e-01 7.602197211613244132e-01 -1.461351521383637275e-01 -8.128230706039173414e-01 7.158107934012861717e-01 -1.475052371774975724e+00 -1.011274366727105356e+00 -8.034875704078373593e-01 -3.812627743906274458e-01 -7.127993811259419887e-01
1.159362433155014971e+00 -8.543773588598999602e-01 -2.893146971883818086e+00 -1.076645064627906656e+00 3.133643162914095393e-01 -6.813081130786186046e-01 5.066656980971945279e-01 -1.315239519414516667e-01 -3.722637332887163142e-01 -9.704908452985669953e-01 1.024649784333095504e+00 -3.054453387273060594e-01 -3.386463836957426254e-01 -5.748144013004274910e-01 -1.877088432337565171e+00 7.221730493728162337e-02 2.958250130546372647e-01 9.919782522758544552e-01 1.577013548690879174e+00 -9.644911189765851267e-01 4.276553247473661168e-01 -9.729384123217664770e-01 1.304813710192530340e+00 2.765518332122479661e-01 2.207070550671254683e+00 -1.763119033235829303e+00 3.038082669997728691e-01 8.042940948960111136e-01 5.420188197518671647e-01 -3.069928049111308455e-01
1.757944010026648018e-01 -7.036657703473813141e-01 1.944036034871497176e-01 1.921351494544067728e+00 -7.843619211697745452e-01 1.142724815446721554e+00 -6.509254031452550437e-01 -1.254659286929551643e+00 -1.008979247412648689e-01 -8.810155047984895571e-01 -1.707769501380999921e+00 1.160151309456933372e-01 1.049767704454545925e+00 -4.065006180322000007e-01 4.405271984417546971e-01 1.955825741539529150e-01 9.172476244929856914e-01 9.416158749377224746e-01 1.020515452522661667e-02 -8.777697962853450719e-02 1.496720043437167247e+00 -5.674947344483374095e-02 -4.331339913208193115e-01 -4.567028655468150650e-02 -3.822768818472829233e-01 -7.036308825596099270e-01 -1.991917657078470683e+00 -5.287367130853047881e-01 -9.518163478803711719e-01 5.101738792695995617e-01
3.903454015500633367e-02 -4.536765591666438446e-01 -2.425857633729668617e-01 -1.904039942129021945e+00 5.800237124905074371e-01 -9.147795816837720473e-01 1.402793919443543702e+00 -3.982538094537968476e-01 4.145304378396035272e-01 9.433944653848080897e-01 -5.752267482371210550e-01 -3.370607209125642822e-01 1.248460487394794649e+00 -6.598201456191596925e-01 -2.655813074286696163e-02 -1.104831482385675079e+00 -1.023117229406511841e+00 -5.089031612228421542e-02 1.914904645878217071e+00 -1.017523892561789323e+00 9.432934578523912705e-01 -3.044892229801615668e-01 5.936266643196092896e-04 1.529088864606744869e+00 -9.478101396016469504e-01 -3.110147648219596106e-01 -1.632766330991749781e-01 -1.154465267807890605e+00 4.035114474988508726e-01 8.010027627470186484e-01
-2.335424849205772535e+00 1.714992099217658161e+00 -4.057748020430546748e-02 4.172360523016463429e-01 -6.599512347519492783e-01 -2.847987012091937609e-01 1.078693675903438232e+00 -1.019459691707664373e+00 1.569828577381573220e+00 -1.709387911529468562e+00 -5.155093931124758028e-02 2.360059945917162838e-01 -3.103106472539549632e-01 1.459089712532988026e+00 2.592632255574366607e+00 -4.950340390127087598e-01 2.994413075637931687e-01 6.159342098308332458e-01 7.583436925459329236e-01 1.422710934551543405e+00 1.053969447389851322e+00 2.677943238438332263e-01 2.272478374439388937e-01 -1.402640296661175623e-01 -1.235376458346937323e+00 3.764727113766816458e-01 -1.628287589331481211e+00 1.458075446792645113e+00 -6.922560654652869516e-01 -1.497020935804759700e+00
1.111403268985230453e+00 -3.606040664371903404e-01 1.489458317631282336e+00 -6.834923949710774993e-01 6.858611201399118507e-01 9.452896341598281404e-01 -1.560171347465382441e+00 -2.566139401699831235e-01 1.265916973722337913e+00 -2.600658054986336509e+00 1.352251363615019075e+00 -6.712182016790244621e-01 -1.627318735467133015e+00 -3.198288026974910880e-01 -1.063319830163634405e+00 3.584755059202682226e-01 1.157746062725484748e+00 -1.319246739682957414e-01 6.998917980671005845e-02 6.125333833327621935e-01 1.302212856147440201e+00 -1.605512740801673388e+00 5.981791004839515785e-02 -1.698781284533572800e+00 -6.284378077820340636e-01 -3.232812747802896874e-02 -1.002103174635808891e+00 -1.361082099596780726e+00 1.558107462061645299e+00 1.015156571772013905e+00
6.750047838780495191e-01 -2.618739216010055326e-01 4.580133023049294816e-01 1.578589230987896386e+00 -1.426184103092047906e+00 7.681016937301390346e-01 5.311531315716725432e-01 -7.281323781375498294e-01 -3.628412336284044248e-01 -1.550303716413536703e+00 -7.026563962907366179e-01 -1.268961760726900145e+00 -8.059125525377863752e-01 -7.521297275874537780e-01 1.426798294431329828e-01 -1.084997989211562874e+00 -1.499706570124864857e+00 -1.531358501631151281e+00 -6.946104036831588502e-01 -4.105412975522537145e-01 -3.446032651857444118e-01 5.938539178194003343e-01 -2.325949644769925995e-01 -1.974670156830386492e-01 8.161329410737724332e-01 -1.006392604193743212e-01 7.327381161602454229e-01 -3.638439488115308151e-01 -3.504197846102014569e-01 5.070919313740282486e-02
-6.971651965810886642e-01 -6.288243587760301567e-01 -1.218363875848847755e+00 -4.690672405663480482e-02 -4.233710415530336779e-01 -6.248054872831779738e-01 4.111235312537765418e-01 4.182404023334487242e-01 -2.868141880102055286e-01 1.194815414305256951e+00 -7.855170164334386307e-01 2.311432660649671789e+00 2.016546248180005607e-01 -3.246074351452495343e-01 -1.469775565121954175e+00 -8.403070203398333993e-01 -6.743628753291034394e-01 -1.205105729475241860e+00 8.283589675249022344e-01 -2.718018316798130884e-01 -1.143804955352304198e+00 -3.318951252889838777e-02 -6.037387951266008912e-01 1.491180614543093919e-01 -1.333683400941581221e+00 6.576505788884923209e-01 -7.934576399077677422e-01 3.897051641233163499e-01 3.170544580574081173e-01 5.230760857705841760e-01
1.031245370278556922e-01 1.017144174391976019e+00 3.557674358642681223e-01 -5.668092513359688223e-01 -7.014711622826825810e-01 1.252501764297149656e+00 6.173560341456638678e-01 -6.962649227820298936e-01 3.407603971952679056e-01 1.993326954124364780e-01 -8.476267557211923653e-02 4.843066234260023362e-01 8.054683397924070620e-01 -4.498146717573561770e-01 5.665212300841390158e-01 -5.009615898299570047e-02 -9.144855125120248118e-01 1.300613512158093954e+00 -4.626074779189808250e-01 9.808315520330043169e-01 1.454826249829842266e-01 -1.886459409074693783e+00 9.956901720505294540e-01 -1.178569311358367955e+00 -2.495563947667261306e+00 2.049734501259128372e+00 -3.300854291348119529e-02 -6.778147500236114675e-01 1.920145887866444800e+00 6.913563801619232452e-01
-1.559984339179159851e-01 -3.593029101793057678e-01 7.675050796663460684e-01 -2.806884793114607923e+00 -2.223777172932643875e-01 -8.333362370756836057e-01 -2.032223094363950988e+00 -4.783166941363608538e-01 -1.658051650212350792e+00 1.856437711035112959e-01 3.377601729147582388e-01 3.616256639818519331e-02 2.820740768436514334e-01 1.696111105421474807e+00 -5.030268332621010835e-02 1.079644722574149229e+00 5.841529118970339995e-01 6.118385405105105646e-01 5.705551675156786962e-01 -1.610252515551479524e+00 -1.340948063175075866e-01 3.162833261113203731e-01 3.981652526002745218e-01 1.072064492251874945e+00 9.363046531963536978e-01 5.301863960710648943e-02 4.513298169898275480e-01 1.578328054191567853e-01 -1.034112529324514362e+00 -6.690401224543146563e-02
-2.375010221701792101e-01 4.790218585656946249e-01 -3.582654589987008253e-01 -1.895961830728082331e-01 3.802267463676256010e-01 -1.402778075786826451e+00 1.068162206527355496e-01 6.268433680600223878e-01 1.239936332843639910e+00 9.077832209991189005e-01 2.465779616153411791e-01 2.372674735695291526e-01 8.782902923909413628e-02 -6.494433811950862945e-02 2.473511901396673096e+00 1.250001836591735582e+00 -8.064071486135020450e-01 1.717338224093025945e+00 -7.857714383716067896e-01 -8.074030344752817223e-01 -2.848978582560762196e-01 3.654900930047356999e-02 1.337567981828773067e-01 2.105065401446145401e+00 8.889321042534292783e-02 -7.548242456955789326e-01 -2.123814978442537249e-01 1.752295255263577323e+00 2.464457713718369303e-01 -1.279569552778130337e-01
3.723672327726298970e-01 -4.295765424026120466e-02 1.086762176199570051e+00 -1.126657724499165347e+00 3.000993842063265915e-01 6.001201716320787583e-01 2.663601506795351126e-01 -4.656626086267877662e-01 9.875018346503731115e-01 1.719792580455673306e-02 -2.286849006529310557e+00 3.064011502125292274e-01 2.656319442084366655e-01 1.798552812690310532e+00 -1.435626623307596716e+00 -6.399655938915763675e-01 5.424875221959405414e-01 8.374041280742781090e-01 1.702527391521718503e+00 2.928550956822948415e-01 -1.445822254434920184e+00 -1.399094954339965113e+00 2.601910938197473655e-01 1.591718043389121415e-02 -6.242868980146335511e-01 2.016279315477440992e+00 8.690155038448947600e-02 1.109038451618719723e+00 5.248422771276165522e-01 4.620697576813354024e-02
-8.992192640650193969e-01 -6.077042637420525528e-01 2.130221108939307051e+00 -5.225638780295248642e-01 -6.209303482958713344e-02 1.376615525057933498e+00 -1.131098418056724508e+00 -3.294569054002642328e-01 1.064617722562712476e+00 3.411632274961460265e-01 -4.029544103058227966e-01 5.664691648602276919e-01 2.294988703006576980e+00 -5.706517315011623293e-01 -2.408740780175439578e-01 -8.115861540238272775e-01 1.358695512966999086e+00 5.635410129255947753e-01 7.013137648285852066e-01 -1.698712058643383482e+00 7.249747197732929749e-01 9.716855953195787654e-01 -4.357436983145540066e-01 3.489681387711662253e-01 -7.792402146130334994e-01 -1.490380801045907422e+00 4.849659564884102603e-02 1.267423826337091830e+00 -6.136822611195180688e-01 1.655773049315022727e-01
4.011860416560582565e-01 7.074824864928571655e-01 -7.976267004567123564e-01 2.298799502359155866e+00 5.819462662514504059e-01 8.598493877033394073e-01 5.223899402865102015e-01 1.524694336044784437e+00 8.057525736751884882e-01 -1.348398730287515113e+00 8.934172118269692042e-01 -4.771630244154856371e-01 5.628462514799932315e-01 1.133616805138802919e+00 -7.956430185492080476e-02 -1.239823294209656313e+00 1.899656176902048688e-01 -5.540062572688446707e-01 1.290020226930132186e+00 5.968051637149409672e-01 -5.228268859963487447e-01 7.974903214652112604e-01 -2.336418544786887375e-01 1.470084871889133504e+00 -8.198711137308107855e-01 -8.128008980265826189e-01 -2.297860317933307639e-01 4.009091729029168882e-01 4.736061122633333786e-01 2.385424240435709553e-01
2.222425089170702306e-01 -1.045102519982734346e-01 -5.651186994929974228e-01 8.734213740672161497e-02 -3.790559353708441992e-01 2.064217830705519230e+00 8.734405702085240586e-01 -1.305029677430009361e-01 7.099378990220081009e-01 -2.929833885048770958e-01 -3.063745054592702521e-01 3.246601682099025110e-01 1.588598436804941283e+00 3.192431349346607217e-01 1.123247214493616086e+00 -1.282444856888942830e+00 4.549351238512895912e-01 -9.794901959965880422e-01 -7.578846846929924164e-01 2.594185171140726553e-01 -3.327976473743509689e-01 5.917081374178619901e-01 7.639451286054516066e-01 8.719624606746914086e-01 -1.200313534913497460e+00 -2.452011376025926559e+00 -3.735066933295529412e-01 -1.245774627635978238e+00 4.201044322924856189e-01 1.219383565353095555e+00
-9.072621861709929680e-01 -8.812226194082164454e-01 6.233677560588879452e-01 1.257204023941136117e-01 -5.339314320441839179e-01 -1.290909183948506289e+00 -3.243619078069087669e-01 1.492423318114733721e+00 -2.182285817455484056e-01 2.578129242184079017e-01 2.891317754413270880e+00 1.363352927555532279e+00 -3.347525115141400942e-01 3.700588240698636788e-01 4.758038287563221003e-01 -7.912847968437426438e-01 1.737524266115529903e+00 -2.676195779662763896e-01 -7.778173982545570631e-02 -9.082129475025307874e-01 -1.033034238292150464e+00 8.795805164654112440e-01 -1.863005780616345808e+00 3.088239844373542042e-01 -1.226904923597931241e+00 3.555662556888673498e-01 1.039957473894644657e+00 1.555969290196750121e+00 1.147422081552680051e-01 -9.683480488735153324e-01
1.526499107448142933e-01 -3.693670050840752034e-02 6.825747112078759393e-01 3.596692847551660188e-01 -1.567360312182653370e+00 -2.135335072842143578e-01 2.862424939145208902e-01 3.205912472629186549e-01 1.560264961135013062e-01 -3.575513782753349246e-02 8.253144578383199148e-01 -1.779605184531319884e-01 -7.282962612831581639e-01 -2.677386937575615966e-01 4.845051338156668858e-02 5.517420315495037697e-02 -3.321906667029900229e-01 2.295769909957469768e+00 -7.184817884162018053e-01 1.451695471784627101e+00 4.452350673640335099e-01 -5.737380146509053480e-01 -1.286724104810655245e+00 9.393317595575460810e-02 4.935826184650460857e-01 5.647307189967903929e-01 -2.325387225275820313e+00 1.332150332385018343e+00 -6.019130771188108131e-01 -4.515790846554701976e-01
-4.016379656611909765e-01 -2.614696173746960950e-01 -4.716830087824606110e-01 3.346858243671707034e-01 -1.603257904346742535e+00 -9.795839287254647365e-01 8.259899405873504241e-01 1.359695776945055057e+00 -1.611358037506112284e+00 6.809349881360027279e-01 -4.395456987121313941e-01 -2.422296502986588607e+00 6.347624542499288314e-01 -6.932452703727309817e-01 1.963432836842695872e+00 8.862624530604767958e-01 4.082846020364745976e-01 -8.131085660262424297e-02 -1.736249351828155651e+00 4.746700940113852130e-01 -4.167578232781067871e-01 -3.027577900416173140e+00 1.197467902480497060e+00 4.249181907559720361e-01 1.864953141940048353e-01 -8.390656168987604691e-01 -9.131695985791282721e-01 1.334900928312764690e-01 7.792887830333480870e-02 -4.360363258924512819e-01
-1.414943974345017397e+00 1.426421356711796484e+00 -8.996603285956017437e-01 -1.514390993494250548e+00 1.666174791731170668e+00 1.055724982174761406e+00 1.134845211686809963e+00 4.115271492473467907e-01 -4.849930628689123613e-01 1.780995124983080879e+00 1.798364429015444577e+00 -5.908277338374879895e-01 7.483379852079352634e-01 7.088805543668650344e-01 8.311716572599457953e-01 4.756493128565515982e-01 4.575238479968193328e-01 5.491615148880739650e-01 1.882759012412714428e-01 -1.649264233867263618e+00 1.148024887790454612e-01 -6.393549231918884690e-01 -6.780846057283281825e-01 -2.641228899552608422e-01 1.655409281342798522e+00 -9.330808839664109788e-01 -3.683738756364977607e-01 6.818803649724061167e-01 7.774119145177107448e-01 -3.945621269003269371e-01
-1.272872249753912000e+00 5.319815433296800622e-01 2.456901844178142613e-01 -3.995565874241744919e-01 -1.147363578524039918e-01 -4.514261139878102957e-01 2.815172230316203894e+00 9.756156929975773329e-01 2.121597574121017349e+00 6.561546376928145685e-01 9.890237500868162002e-01 -1.656223434368234992e-01 -2.794177774022374994e-01 7.973767920292353928e-01 6.213588765612828579e-01 7.714634219006614169e-01 1.270760535107138045e+00 2.834451810765025837e+00 -5.956274255473068546e-01 -1.463456696492641651e+00 -7.402671054501087644e-01 -4.339833504356349070e-01 -7.384416731231512321e-01 -7.904562427438804884e-01 4.523989670525985773e-01 1.094164027976330278e+00 1.188472816800505427e+00 -7.250672897790008120e-01 -2.397431145054421953e-01 5.602482485096027531e-02
-1.071503224936700249e+00 1.336835578481709197e+00 -6.107920471609417090e-01 1.729781879657016352e-01 -1.245796157099288148e+00 1.554241190923707494e+00 1.591566938410301946e+00 9.870309107851482633e-01 7.679292559312044242e-01 -2.982946554385698112e-01 -1.622403241266311968e-01 7.806783015234580736e-02 1.529589552678266851e-01 6.357929718949287823e-01 9.341641640757551990e-01 4.381801444351836605e-01 -7.398584739410379862e-02 -9.651417216276663158e-01 5.333710711127105375e-01 6.199841284341144343e-01 -1.919442369871766418e+00 -2.302811195535740263e-01 -1.276104279785492901e+00 -8.299691221663509921e-01 3.747345051853319120e-01 8.484829982985089281e-01 -8.926369394014569414e-01 1.470867285080185383e+00 3.289145115483787851e+00 -1.732281221316324437e-03
3.993973490615319588e-01 5.967877845132848469e-01 -1.017346157202385859e+00 7.737444846748212646e-01 6.747540083967396018e-01 7.524386965344316280e-01 -7.221279734396645056e-01 4.626853315071666750e-01 -1.015372793738564372e+00 -6.004767980358169943e-01 2.657476160378307473e+00 1.217266132743143103e+00 -3.928876838607187616e-01 -7.079156169949182287e-01 -7.398676105503812495e-02 -7.488434173623402801e-01 -2.274059868108310456e-01 -1.785350487630866567e+00 -9.168443470537146478e-01 -2.277653845139115507e+00 7.017472957302024750e-02 -7.434119335697981779e-01 4.515259690011156346e-01 -6.069956249437025164e-01 -6.221783810867101971e-01 1.188293155078010921e+00 -2.141249018725716879e-01 8.867938151977025063e-01 1.853286485570189712e-01 -1.899050829808324181e+00
1.175282804427019712e-01 6.620728221437146566e-01 4.754605223808234388e-02 -1.650650760327630806e+00 -1.039865653164566028e+00 -2.524464523811209116e+00 6.987761691519724927e-01 -5.499884052425895176e-01 5.022194986830407215e-01 -6.777968187462661831e-01 -1.456683850621088627e+00 -5.473990876122382110e-01 -6.349333580104414843e-01 2.415382692133378334e-02 2.077918802865358128e+00 -2.917419062510671068e-01 8.430716164302485272e-01 5.028668499462016772e-01 -1.079283294045936675e-01 -1.347884330387945973e+00 -2.193728531003944937e+00 -1.442360568656799957e+00 8.299977827926334761e-01 1.334149724454786277e-03 9.069428140612462164e-02 3.861214737746517245e-01 2.701397564942752960e-01 -2.020932249731910782e-02 4.563583790057227918e-01 -5.027088880430895523e-01
1.718629647633828972e+00 -3.464412899959706249e-01 9.131687564693592718e-02 -4.379389988737992789e-01 -6.410916224696756593e-01 -5.715034407346848422e-01 3.710979947881207774e-01 -3.842758698803863116e-01 1.890681065757483792e-01 7.827709994595470899e-01 -7.573222928769032802e-02 -3.345397801250863945e-01 3.746420310628588157e-01 4.006991843181362811e-01 9.335934914065961987e-01 -2.545487006830355892e-01 -2.026697273383999409e+00 -1.425931413829576888e+00 -1.014179752531792211e-01 2.140449298374619835e-01 -3.062899059829973791e-01 -9.858474185556528879e-02 -3.950511222876919581e-01 -3.748120708564645076e-01 -2.191305125336388659e+00 -1.034660092973272327e+00 4.082048619472792295e-01 8.176854039780595551e-01 -2.752317344497233531e+00 1.824176354059643845e+00
-1.005405243719595110e-01 4.241620065939983864e-01 -1.237410073886227480e+00 -2.801652913992866423e-01 -4.144627815528953985e-01 -2.712297365139834104e-01 -8.735139982766739752e-01 -1.125462050284861792e+00 2.691596053035477110e-01 -3.386510765347853225e-01 1.390781621138007740e+00 -4.242431570022909826e-01 5.191012610195613330e-01 2.563791672558379253e-01 2.774136630635092082e+00 -9.062427886805483057e-01 -7.641403460684667026e-01 -1.303681019216225812e+00 1.053888172253752087e+00 2.156526324526710225e-01 1.598224370561846852e+00 -4.219463286497228682e-01 -1.060744601045065932e-01 2.150512392077029433e-01 -9.929427870349574192e-01 5.699809955434571168e-02 -1.357120868786240608e+00 9.023832599300226631e-01 1.993857739165223186e-01 -1.433246349338098413e-01
-4.148251974381742535e-01 -2.348669856066777292e-02 -9.002328618792116988e-01 2.952449305154334791e+00 6.136817663701966685e-01 -2.299060878233215588e-01 -8.635317293728936860e-01 2.856846655066827556e-01 1.568633997866679897e+00 2.074258006620521400e+00 3.390576318042135551e-01 -8.510423438099631310e-01 -1.195241090090689351e+00 5.364212830071182214e-01 -4.430564188625284450e-01 -4.596607742779810213e-01 8.633898728996726168e-01 7.019003540248849315e-01 -3.979637858338243572e-01 -1.604421625335987978e+00 4.672634894001404526e-01 -1.179341360851815512e+00 2.754969947605273028e-01 2.218810359856938863e+00 -1.699616654306483676e+00 8.092788735919639320e-01 -8.465204537310661026e-01 1.938669288255718270e-01 -4.064809838104946338e-01 -8.518858896332148767e-01
-4.078105058380139258e-01 -1.293082484428165868e+00 -1.590022855000119639e+00 -1.192646710552808464e+00 1.381431421302572016e+00 4.163393629058619871e-01 -1.712283851356003916e+00 3.443785933304074898e-01 1.950256527599672607e+00 9.777178616597195226e-01 4.212006346257697320e-01 1.022802387189075457e+00 -1.257998387176084698e+00 6.720913985891954212e-01 -6.290866882955023498e-02 1.122424997144042980e+00 9.594666989826484693e-01 -1.465235006080921387e+00 1.478182161125986216e+00 -1.946098612227863844e+00 -1.154660738642869333e+00 4.742824365653364183e-01 5.148136739094031356e-01 -6.508807144066771633e-01 -8.693734263373278370e-01 2.005467688943701532e+00 1.498128387412486773e-01 1.886180058654429281e+00 -2.280809727581554758e-01 -1.845143905241272975e-01
-2.161395317534173244e-01 -9.140091073524304610e-01 4.347614700824974365e-01 1.054998617494200097e+00 1.104661808867409167e+00 -6.383736275184092035e-01 3.404454410097385031e-01 4.472745555688950603e-02 -1.815922586241647818e-01 -1.975624064788779610e-01 3.367749906278262317e-01 3.026758922683833175e-01 1.034877903477411820e+00 -2.132805492246319864e-02 -9.089708231135024130e-01 -3.583712793639189931e-01 9.002034390352133819e-01 1.565006618485458023e-01 -5.276168527654248042e-01 1.632097934786103099e+00 -1.212435573185724591e+00 -1.768297154007993477e+00 -4.412803196704360720e-01 1.013489213246184378e-01 1.326778578703713851e+00 9.714543342759180966e-01 8.875797521184992656e-01 1.990083437324519089e+00 3.795508375241525290e-01 -6.265490578654052678e-01
-1.967647751175100046e-01 -7.252167038421231116e-01 -1.360867927171556802e-01 -2.964517530450929694e-01 -1.243355011912245844e+00 -8.890968650879524371e-02 1.685706389430973173e-01 2.158415517006060824e+00 7.654925391337172869e-01 7.141258601049415011e-01 -1.056156649749595999e+00 2.545057079803431321e+00 -1.700309752403762031e+00 -7.251654493827730530e-01 1.062397751749025315e-01 1.438256906677076064e+00 -1.242752467204216282e+00 -3.747274619861848399e-01 -6.285149773063448686e-01 -1.985361266966040317e-01 -1.862255426691846738e-01 -8.523677471131023697e-01 -9.745192080360924880e-01 2.630079642410298568e+00 -2.056991776727935817e-01 -1.607656917176517153e+00 -3.860327398401220966e-01 1.007206410689437837e+00 5.508106865934546403e-02 -1.563647461335028466e-01
5.099297290693244680e-03 -2.954208204570283811e-02 -1.420637898248547248e+00 1.757696333668554989e-01 1.659973100500243548e-01 1.114905057142684841e+00 -1.471380441304566411e-01 -7.346340365572957554e-01 -7.119825315302071855e-01 5.152093549990639509e-01 -1.583704664276983420e+00 -4.192754636468219998e-01 2.368935733997249715e-01 -2.450065854747079108e-01 -1.488272890411614091e-01 1.355286679595884836e-01 4.563649770330337474e-01 -6.312046087130129823e-01 1.254358998430462835e+00 -1.416942395352457584e+00 1.516069547796734751e+00 -3.727452487302608253e-01 -1.086830959930219942e+00 -1.089947978817043417e+00 -2.209328197985271358e-01 9.183057138992321011e-01 7.831680639410170119e-01 -1.290283827977953157e+00 9.340087793189296717e-01 1.326825366329024147e+00
-8.423623343458048751e-01 5.728421634604329293e-01 6.581358732659491062e-03 -2.032566049934181676e-02 1.609740795019376947e+00 -6.268211732807092706e-02 7.621392815701006906e-01 1.025070707746483345e+00 8.148241599921359768e-01 -1.063605060518331813e+00 9.349780582868151280e-01 -3.209889115883932803e-02 6.840270362979757879e-01 -1.442747511421015538e+00 -1.587660038872501733e+00 -9.256227952936897374e-01 1.336993090572806020e+00 -6.722825576100900646e-02 -5.889586641450178517e-01 4.251090914541705290e-01 2.994809582352124799e-01 -9.564283961418390545e-01 8.186522938092642976e-01 3.152781092798913609e-01 -4.101761412316048960e-01 -1.621600243394182295e-01 9.990095216666450284e-01 -5.825928207662338654e-01 1.367458604086487117e+00 2.344520285131994175e+00
2.005533458775586197e+00 1.063421068198968866e+00 -1.235859002895805636e+00 -7.472367508382347090e-01 1.391551198631051089e-01 1.161640922066098147e+00 -1.280836194057835276e-01 2.784444097015075781e-01 1.621055484878309416e+00 -7.256464937802149517e-01 -2.764876823866563305e-01 -7.897433524586316977e-01 -1.210297145424491738e+00 2.076875686588259828e+00 8.681192786195889022e-02 4.600020907317494134e-01 1.253658417634468725e+00 -8.248651596829149613e-01 2.233780076034857842e+00 1.328515567448140811e-01 1.000432571985347963e+00 -3.463840480589217008e-01 -2.111212766869023094e-01 1.824446585776424296e-02 3.574457681888049687e-01 6.848115877865403878e-01 6.103120996124636877e-01 2.876366991256336658e-01 -1.025407446654862609e+00 -5.034481835311769293e-01
-5.698150453118020486e-01 -6.446057895080157252e-01 7.603290286448475266e-01 -6.546383864795515262e-01 5.427793159280238644e-01 1.225237151617946330e+00 -2.187754582467814901e-01 -5.288888275467213962e-01 -1.061995384491124482e-02 -1.903194325639635809e-01 -1.426876596877699299e+00 7.319002281865574222e-01 1.748558906567126314e+00 -8.158128852478643278e-01 -6.338320959578613856e-01 -1.735683234133333919e+00 -8.104690072885151197e-01 -4.754081861653815244e-02 2.368919171025827553e-01 3.257455290394143527e-02 -8.497550252714249908e-01 8.361322889822826454e-01 2.918045672581264793e-01 3.050596831126465291e-01 5.195344106194447198e-01 -1.054650149327503339e+00 -1.725370354641206250e+00 8.429828409575482739e-01 -5.874771038544477492e-02 1.214277118682283607e+00
-2.542890704680201286e-01 -1.118164375501680130e+00 -1.664077588902874733e-03 1.337855711553154858e+00 1.455132986145846852e+00 -6.940362207513701698e-01 3.694806916579844724e-01 -1.183985977859716598e+00 -1.299331828530826183e+00 -1.415209105868409312e+00 -9.962598455285993637e-01 -1.491588482327318443e-01 8.756082094156206752e-01 -3.369729733433093899e-01 1.492204711911715997e-01 -3.670075185284178421e-01 -1.043726467738686825e+00 -1.562911641797657181e+00 -1.105942000892669919e+00 2.344804731172381029e-01 1.108075887808825710e+00 4.765511483807145510e-01 -1.048860686777866258e+00 5.003056562761520887e-01 8.248824395179547020e-01 1.588605580346315882e-01 1.430918186848257223e+00 8.274186064794004647e-01 9.640919320437082995e-02 -2.033574293212979889e+00
1.165062651826914042e+00 1.874410729348425786e-01 1.466582394886624341e+00 1.395946425285997661e+00 5.270456808518124703e-01 -7.162022053744750982e-01 -1.574677469662014495e+00 -6.631490046191914622e-01 -9.989935440954510470e-01 2.333250131339438815e-01 6.402246728290700295e-02 -4.361022973798827501e-02 6.126696760356047378e-01 1.290490226851660260e+00 3.111805186167654336e-01 -6.468811174726019075e-01 -8.486406428270260038e-01 -8.818686111486266910e-01 -1.323045133643921289e+00 -1.712252887168377757e+00 -9.758585670378676635e-01 -1.989579648190356043e+00 6.308082229246843031e-01 1.072135298050985286e+00 -1.594547234851519502e+00 -8.154566542593485456e-01 8.752889385921631682e-01 -1.224699988737278478e+00 -9.855162454763759516e-01 1.028712397398160450e+00
8.630280578128975977e-01 -8.827175702922405165e-01 1.758107897168874389e+00 1.696048577336865204e+00 -1.251426617867279933e+00 5.599211947803888201e-01 8.188474999562218581e-01 4.311189219428494535e-01 1.054136064741674206e+00 4.631787411075947158e-01 -6.946183677485338048e-01 -8.921551221907703111e-01 2.797657511377324102e+00 1.930075423082588670e-01 -1.629184190143002198e+00 -1.573326990618458598e+00 -1.474610246190664054e+00 -1.729225651634256344e+00 -1.568260920094227462e+00 -1.759165649935248377e+00 -1.251292840704486764e+00 1.199105372541874770e+00 -1.046927078112976917e+00 6.854926966740840788e-01 2.237349211833277174e+00 -9.926388974507005525e-02 -9.034352511715004752e-02 -2.239629654012555704e-01 -3.332178576215142352e-01 7.261799577157168617e-01
4.959348371068344474e-01 -1.084964611964333248e+00 2.055281207323685244e+00 1.396035897135471160e+00 -2.644547996642757859e+00 -3.227007076768322325e-01 1.141458528403004546e+00 -3.776505663624332154e-01 2.199912476004579176e+00 1.345154189321207783e+00 8.006506655209467693e-01 8.075387284659372167e-01 1.668073225240740198e+00 -6.237921849803930163e-01 2.053428161986841971e+00 -1.490193335874115732e+00 -5.887901404371926883e-01 5.091164824246328102e-01 -1.374827759122154713e-01 3.820892058882835451e-01 -9.882192255212787213e-01 -1.096661922564465597e+00 1.986766887507253943e+00 -1.524459937490608263e+00 -1.274937180807399262e+00 1.221244780456449963e-01 6.443537261555001838e-02 8.898359571465123130e-01 9.940193925014716436e-01 1.895355956545063725e+00
-1.787865553564451648e-01 -1.565857060447023219e+00 -3.529816109298382631e-01 1.038000058556262317e+00 -1.001804993582933179e+00 -3.071511103923136865e-01 4.828414632396686446e-01 1.545870645282517719e+00 1.654185746961918557e+00 9.515204269180176366e-01 -1.218425308862660428e+00 3.923390138073296063e-01 7.551347236469078128e-01 1.298669473965621934e+00 -3.701756999545039450e-01 -4.117650578294791974e-01 6.758558068136936159e-01 4.669444819047859907e-01 1.763363598658452158e+00 -8.650872763290542444e-01 -7.970673841698413531e-01 1.527121896786976796e-01 -7.694091341038770127e-01 -3.535222568685452149e-01 -1.488675353204609975e+00 -7.732077549016395102e-01 1.695409285579684955e+00 6.890067772823385006e-01 -2.073392004194747784e+00 -1.216250036562452203e-01
-2.088411858720257808e+00 1.177215466639771613e+00 -8.267676106621276721e-01 1.195975662435000197e+00 8.037801941071691381e-02 5.172682616594389549e-01 -2.175795598607862313e+00 -1.274725185425434615e-01 3.120591400807748439e-01 9.631969251321405023e-01 -6.920337322774645639e-01 1.041497992688912300e+00 -4.238722514331983993e-01 1.929861055311119067e+00 5.114894119717835475e-01 -3.594304866369721352e-01 -5.530254654857121865e-01 -3.045001945220492945e-01 3.321524921275797460e-01 1.023041563002465182e+00 -4.781525906840549678e-01 3.898441481869271419e-01 -3.687179571341773210e-01 2.099290061726478474e+00 7.666392314065169078e-01 9.915551420811113958e-01 -2.887037919746779924e-01 -8.880470807684860413e-01 6.212218092293085858e-01 -1.077724970674179605e+00
-3.229234892130997125e-01 -1.347814906382729605e+00 1.542952509541811956e+00 -1.667336483629204169e+00 5.389707435776902589e-01 -1.069134115213868919e+00 8.708373751717483069e-01 -1.404232786085396256e+00 7.906851658363485136e-01 -7.464277983783867976e-01 -1.653406498957099013e-01 9.816223137346780092e-01 -9.455946767385372542e-01 7.356042403281976005e-01 1.710540788529566480e+00 -4.976939074152397224e-01 -3.428109287264804756e-03 -1.289870961078887879e+00 3.245697001761354561e-01 1.146934108131278496e+00 1.204286318599155026e+00 9.964391702378394555e-02 -1.751318223121562268e+00 -1.269505806275481374e+00 -1.355107095127242811e+00 -1.300123367430893628e+00 -7.904584051214630369e-01 -2.588881795752639436e-01 2.265613214887043647e-01 -2.193476969483507677e+00
-5.229011315411954408e-01 -2.907911426118285347e-01 -1.532008200652115182e+00 -1.257558660547877460e+00 -1.001179405499654784e+00 1.176820431896098418e+00 -3.017863753083638301e-01 -5.591545623229625672e-01 -3.294736925259642013e-01 6.326248882977612009e-01 5.111357564879974724e-01 1.371190278920569189e-02 1.662969310397026668e+00 -1.418477000832596868e+00 2.301210107384172865e-01 -8.726490469783847459e-01 5.598777820388349813e-01 1.303958538744474538e+00 1.017536509264233446e+00 1.068609435728863355e-01 -1.015669457785639773e+00 2.026190111998805721e-01 -1.451244415958483858e+00 -1.984364120051764324e+00 -4.109809845814081375e-01 1.140888676460758422e+00 -5.979318649438425393e-01 7.630737885040154989e-02 -8.697863906507508069e-02 -8.274691398039678569e-01
-1.785271950489994985e-01 7.979659779158304600e-01 5.238066257560700795e-02 -1.302971672451822549e+00 -6.962844704254381734e-01 1.276274992788497750e-02 8.968685860474997495e-01 -2.338252523628646884e+00 7.660442873693799060e-01 -2.283841907829489426e-01 7.710161793099577776e-02 -4.003621997888278106e-01 -4.178104492937291248e-01 2.776098296589883385e-01 -1.028197695034612336e+00 1.956625135645815861e-01 -9.009718665155661554e-01 -9.899890679743591493e-01 -9.534558891366659017e-01 -7.907825001777787355e-01 1.122054652159856669e+00 -4.260208574906217960e-01 -7.346442582931534959e-01 -2.364798429597588514e-01 -1.446168770888980104e+00 -1.492670804004602614e+00 6.631336997750765239e-01 -6.060113846759438427e-01 2.194743665863384763e+00 5.557539130556510276e-01
-4.943122151021225180e-02 4.484933121926695798e-01 2.144481707111418167e+00 -1.128482065473118690e+00 1.693803341712563637e-01 7.836272464256412995e-01 1.263706282805060199e-01 1.190454022154032065e+00 9.616993561793412137e-01 3.501038720630114676e-01 7.749256707529864618e-01 -1.036839755864795709e+00 -2.167735824267037259e+00 6.882511023663487881e-01 1.771004736380885625e+00 9.248648316391288038e-01 -1.976426300932375077e-02 1.933172061438499234e-01 4.148694357679457156e-01 -5.241798890435123148e-01 -7.869350399558805442e-02 -7.745974785823214748e-02 -6.179343404865716982e-01 1.220561883238284517e+00 -7.448786900193814509e-01 -1.933582532085680983e+00 -7.413994948342862434e-01 -1.000797809146356521e+00 6.505460621945962085e-01 -4.037333182859519920e-01
1.946661353110950010e-01 -1.173625580607472019e+00 -8.357936367894678309e-01 -7.973884039964582726e-01 1.065256365850574503e-02 4.251284253097608046e-01 5.160928622144415057e-01 -1.903875364192673780e+00 1.562381713676937123e+00 3.093118175289991667e-01 -5.400302301967137009e-01 -1.081367763246165126e+00 -1.812260330005566633e+00 -1.947298550646796578e-01 -4.490986463640523896e-01 -2.988033430203906882e-01 -1.293534665401207429e+00 2.493172825684784322e-01 -5.991850766514761339e-01 -8.221192642325829691e-01 2.643471376985642718e-01 -5.791908930204368033e-01 -1.152368227146436830e+00 1.606537164299576270e+00 1.180086962853444804e-01 1.407489015181589698e-01 1.325601289163943930e+00 1.227016249091631012e-01 9.458373569224298727e-01 -1.409356139780574557e-01
-4.431115535549930984e-01 4.777701846898055882e-01 -2.922471536894848815e-02 -6.663650937121327056e-01 -2.996265213891423015e-02 -1.007330541486593622e+00 -7.001406641011762022e-02 -1.897799172268235690e+00 6.529322040610199829e-02 -3.286637120598817075e-01 -6.819308529124477880e-02 2.180706612018382118e-01 5.042449835744473585e-01 9.596923319867212143e-01 -4.095293449887515980e-01 -7.126280870365554465e-01 1.978135152318893253e+00 2.488312241163165572e-01 -4.217016176959468288e-01 -1.024786158092395733e-01 6.092054372480764091e-01 -2.003729702723200834e+00 -1.028005255242416593e+00 2.287674940214182717e-01 1.879781826659698618e+00 6.205090073705823439e-01 4.487107982132195749e-01 -1.500744051119782485e+00 1.360429355767713566e-01 1.738531298731980534e+00
5.770932150133499805e-01 -5.961259457994617650e-01 -1.106544745527580087e+00 6.019176453124824855e-01 2.565428171163590232e+00 6.964476092399827234e-01 -1.415550765829179658e-01 -3.847094438344850764e-01 5.322823351903710476e-01 2.345540960209808734e+00 -3.025579807765000906e-01 -2.560652883127402024e+00 4.387891373319345867e-01 -4.101514423465210668e-01 1.383693548144102614e+00 2.198178086760108896e-01 9.431626133075859952e-01 3.246769245968016970e-01 -3.148006577486573976e-01 1.918581072086908756e+00 -6.202550449415989986e-01 3.812285862881621967e-01 7.930411161014716548e-01 1.421080345137834877e+00 3.407079859909941111e-01 3.615049101858615610e-01 -1.072316539464365004e+00 7.703377910138734519e-01 -8.467470168974324807e-01 8.461529924335406960e-01
6.871888426971125563e-01 -3.759092923050839918e-02 -5.941620380221886849e-02 8.194379421923138063e-01 1.127103585167056055e-01 3.863906715080751564e-01 2.890222825790636496e-01 -1.159933527429948708e+00 -1.181065124131879251e+00 -3.389271242102839254e-01 8.191598022152569714e-01 -6.597755666866677027e-01 2.742850339728884812e+00 -1.072118257738040148e+00 -1.653744029526347525e-01 1.164340789051426572e+00 -7.359253768033497956e-01 1.003220960712921883e+00 -2.031421722194587609e+00 -1.883038891720361929e-01 1.900956784216393247e-01 5.127464602220912493e-01 -7.220838417552497557e-01 7.076991709175116663e-01 -6.398567610140227790e-01 1.995817346513014401e-01 7.022674861514770495e-01 2.192430122659511371e-01 2.320654019252174072e-01 -1.123283527638694768e+00
-5.297646984426689354e-01 3.700210278118944429e-01 -8.347116813276660441e-01 9.714111599045694989e-01 1.231342019193995219e+00 -6.669925691367166731e-01 -2.946695864999637204e-01 1.920324041748609156e+00 -3.359233856659802897e-01 -1.798466281908131181e+00 1.694051192334490030e-01 -7.263324148894438892e-01 1.999944843429462216e+00 -7.309558171724629405e-01 -8.662608019310142904e-01 2.076011178368789289e-01 -1.801393985860113567e-01 -6.350680503976409430e-02 1.799187334100423308e-01 1.716108014860122655e+00 -2.418205006957022452e+00 -1.459220357311773020e+00 -3.908744866498065629e-01 -3.950354586507113797e-01 8.693229173201633131e-01 -5.098975952089362940e-01 -1.189100443063376034e+00 1.243434099110547697e+00 -2.473057326595775596e+00 1.384523003809877473e+00
-2.403880136794974420e-01 -1.376233520346991535e+00 1.225662589749099585e+00 -1.085993983216270165e+00 7.858992543013570975e-01 2.782046043073918007e-01 -6.200633668510981966e-01 8.306540721729922527e-01 2.526512206910057068e-01 1.928590126926160164e-01 5.095800838034031388e-01 8.353706848316670985e-01 -1.436387304183690539e+00 -1.289049998310188405e+00 9.960905519030309740e-01 8.692854200005881715e-01 3.851352318068635983e-01 -1.101894305816637276e+00 -4.595855750511235738e-01 -2.273816968939927907e+00 7.265845573513457500e-02 9.615448037292642081e-01 -3.098508942195176696e-01 -1.103835175722807982e+00 -1.422516177519659308e+00 -2.145789611246534445e+00 -1.111274686794441191e+00 7.357971990028050469e-02 6.415960188327235469e-01 -2.498604674478715482e-01
5.106643168187330328e-01 5.631986179098970036e-01 6.312982031158076435e-02 -1.075586425280268932e+00 -1.695001394665439365e-01 -4.445598750682290268e-01 9.883934874958965056e-01 1.781989396161995698e+00 -3.770372460355885802e-01 1.533822891179315029e+00 1.627981022702434388e-01 5.985138449922388082e-01 3.360103517269552587e-01 -1.887161058879017972e+00 1.092071319439934074e+00 7.246015697034914327e-01 1.800497982453816315e+00 1.510841304656381112e+00 -1.117594149526705549e-01 -1.494473896803979240e+00 -9.438737454950666406e-01 -4.512896277486828644e-01 8.089050389558181120e-01 1.302891707262485044e+00 2.113520823923631387e+00 2.119007098521143995e+00 1.121247311342102870e+00 1.003403917825342440e+00 1.094727704179405542e-01 -8.021803652547466745e-01
7.294855425069591837e-01 -1.098504569238524464e+00 -2.077021487762365837e+00 1.744193749692453110e+00 7.238435554572704156e-01 9.786057628682719445e-01 -1.460643018799270942e+00 -1.192831376221194395e+00 -6.352898347617402797e-01 2.145937242882555829e+00 -6.719504929659917414e-01 -4.960980560470664713e-01 2.677351501615126583e+00 -1.387832771533705767e+00 5.348903823601619534e-01 2.045304647505021833e+00 -2.165573377030683422e-01 -7.480454842194182996e-01 2.631753738201669246e-01 2.759232319434395397e-01 -1.484032008865107999e+00 -2.790844136590113767e-01 4.948675546631372546e-01 1.411547580852116068e+00 7.211767056186266234e-02 -6.278459729936625155e-01 4.346083022560789932e-01 4.900070977759395929e-01 -1.214597972954659100e-01 -4.303791105178439991e-01
1.164951737192134074e+00 -2.481997233514868506e-01 -2.886603042843022965e-02 -1.537252576711500840e+00 -1.855663975901741813e-02 1.281371166006423090e+00 2.308140879256591893e-01 -1.593975661052283277e+00 -1.271444901194316579e-01 7.904796921105917695e-01 -1.887306437173453255e-01 -1.119092042829352707e+00 8.735473722964871568e-01 5.132347002541252090e-01 2.409875447206874188e+00 9.420930827897749937e-01 -1.222293831440031342e+00 -2.164478767438557938e+00 2.815392955711389367e-01 1.111913570713807253e+00 5.552610628114996727e-01 -5.370898265398143384e-02 5.923846667788329468e-01 -1.801907407446076137e+00 1.656765813825405165e-01 4.696416742171412584e-01 1.079408798425610216e+00 -2.816479230966135172e-01 5.741335853552438362e-01 7.809069993964530276e-01
-5.388418270566022739e-02 5.234605625070441054e-02 -1.040991229106291716e+00 -1.639686826113118390e-01 9.744972396494504530e-01 -1.319322564644178630e+00 -1.791418313276772756e-01 2.292624557566048382e-01 -2.263567163136745164e-01 9.236449921071449021e-01 -2.042749081765358465e-01 -1.449777109749141424e+00 2.937768626872880318e-01 -1.236032577113864050e+00 9.214530139514237606e-01 -1.791463672673987081e-02 -1.316680429887890358e-01 -3.588850147423849335e-01 3.578410715656074603e-01 -6.882070681489514952e-01 -5.298068057489102589e-01 -1.233667770013400888e+00 -1.868900209319614147e-01 -1.867565397175721342e+00 1.680262472910587501e-02 1.332625191305763623e+00 1.164452831722522896e+00 -4.524216587166069448e-01 1.211465949528555797e+00 5.976644899205558747e-01
-7.502214076432142109e-01 -4.267996562132739258e-01 -6.786834556570194854e-01 -1.541994681195726802e+00 1.422491667751880073e-01 7.074626634450438545e-02 2.796269237100023619e-01 4.439969573835862993e-01 2.218889131088410682e-01 -4.386671389793103670e-01 6.707023967880308690e-02 1.088290475195272222e+00 7.365642208346888653e-01 -7.559630689964237371e-01 1.332997283937941813e+00 -4.276098134182089172e-01 -1.248369091457326663e+00 3.793671593342267112e-01 1.329625869448524567e+00 -2.460696696075749534e-01 2.210678050888496227e+00 -3.274130829791544461e-01 -6.825818915539920706e-01 6.985477221742687481e-01 6.664838362350887779e-01 2.074919945102432772e-01 -1.340751154041415649e+00 4.088026437497153248e-02 -3.643576419950529388e-01 -6.747654811830336996e-01
1.711385144936842240e-01 1.615974550815143240e-01 1.367225884831816840e+00 4.690323955910056797e-01 8.019000615768233642e-01 -1.996319016861234363e-01 -9.149103597257161047e-01 -2.983345496797477070e-01 -7.679680276448734855e-01 1.135445871016665054e+00 3.926190179331527919e-01 -2.180646872303225958e+00 2.230584994067656424e-01 -6.550965811269442440e-01 2.115144672695109251e-01 -2.069338645136689636e-01 -7.437840113628650940e-01 -1.405059352584637322e+00 1.835913735313348560e+00 -5.808433316643361044e-01 6.039986943005405395e-01 -2.497387489986953868e-01 6.002964252893266961e-01 -3.845317826104744374e-01 -6.959852309043956797e-01 8.248970981529919755e-02 2.051179504006059418e+00 1.884428134159450208e+00 -1.248362535212177438e+00 -1.231327068614795461e+00
6.745090222096418175e-01 1.003965034745269103e+00 2.841094028958666584e+00 -5.061885298633706648e-02 -9.058730355426993786e-01 -2.022696537236206293e-01 -1.098061488586025591e+00 1.740686316277802181e-01 -1.163995327456575302e+00 7.373024114269066676e-01 8.459124419346603085e-01 -4.344553631714051511e-01 -1.353580942401918730e+00 1.715499893754501154e-02 -1.379184026790354789e+00 -5.628711413860609802e-01 -1.053796936321196309e+00 -1.480616333951941366e+00 -1.514131513388012884e+00 8.131676525813817946e-01 -8.612398145290628415e-01 -2.711863865155088593e-01 -5.470431749102360186e-01 1.227633364731085086e+00 3.747442410747552355e-01 9.502676661461705310e-01 -1.402894593335568627e-03 1.136013268926446551e-01 -2.706270988031657665e-01 -5.959010448781484337e-01
-1.211688246964551574e+00 6.806133466006022426e-01 -1.293945474561305931e+00 -1.201054816905817724e+00 2.038836743863962631e-01 -1.063822246743517219e+00 3.615725845261492100e-01 9.558290501212898249e-01 1.937551626830824603e-01 -5.209150226359383629e-01 9.057376981615933298e-01 -2.570885821289819757e-03 1.769796242510895512e+00 -8.845450324107895224e-01 1.850674134090381395e+00 1.307511475256811773e+00 4.050232476554894157e-01 -1.309402020672659539e+00 -1.451181602086511813e+00 1.511724867224767843e+00 -1.565594172403202533e+00 1.587122673493500447e+00 4.643353235231755666e-02 1.044745980613754011e+00 1.806339924399352204e-01 3.525076228602107564e-01 1.526278432093347792e+00 -1.932640319134882601e-01 4.933925778644816518e-01 2.608832939028189024e+00
-3.236545134862024997e-01 1.565548208649776951e+00 -8.304033958461295439e-01 3.663188847796671199e-01 -5.608677305036103844e-01 -4.448681262426880667e-01 -1.323456676592820624e+00 1.702055985999508247e-01 1.060839974672560970e+00 -1.513901669016794349e+00 7.583024218456452248e-01 1.613996954142755458e+00 2.334268342678438857e-01 -7.779284511925385059e-01 -2.873503135049079171e-01 -4.635354443757377374e-01 1.665264835409523414e+00 7.755138413279449860e-01 5.714079378223934080e-01 8.763608563162835763e-01 -1.176032821395343486e+00 -1.264544794506194947e+00 6.562842057182824429e-02 1.880716287724340408e+00 -2.976359110307078004e-01 1.616462032570110008e+00 -1.302009244833058077e-01 -9.727968852494548457e-01 2.242416596867565781e-01 4.506870122537452450e-01
1.977315726790136674e+00 5.773952983466040800e-01 -2.116992651896698163e+00 3.334622041473500054e-01 6.048918211199898476e-01 1.258827058653392061e+00 -6.840074439880425294e-02 -6.636035975191988401e-01 3.143829410907597044e-01 1.114872952332536915e+00 1.682811324059699576e+00 -2.350672786041995144e-01 -1.136123191815680888e+00 -9.697573075381140661e-01 -6.384195916863498743e-01 -4.955375674217087911e-01 -4.352871215530955684e-01 -2.177485809560875563e+00 5.811409678272465573e-01 -1.350731735197607142e+00 2.198492927304961597e+00 -4.204047009342169461e-01 1.121080480577505145e-01 2.124730246847202242e+00 -5.230810933059540924e-01 6.289419173270294205e-01 -9.833888843567043514e-01 1.016509960328766171e+00 -5.763548113574104015e-01 -1.641474112428925047e-01
1.115550846095118009e+00 1.062857636255579163e-01 -7.017875315645027978e-01 -9.619753339170691309e-01 -1.112833452198932482e+00 5.248849333878082835e-01 -2.032839204086302753e-01 2.013725274269844920e-02 3.937943202348815341e-01 4.989016225191294507e-01 1.648087639689268968e+00 -1.736775030506217732e+00 2.074393170455812729e+00 3.682403201240016383e-02 -2.276741428597671771e-02 1.643102826765419078e-01 -6.819244377909250421e-01 4.071440569690788491e-01 -1.091022211435046074e+00 1.839148014371794870e+00 2.487092420591055231e-01 -3.807869382675976855e-02 -2.533494786599070347e-01 -3.529372200839277496e-01 -2.374247804611727408e-02 1.638129358814986114e+00 -3.661331602429057641e-01 6.981762117250935873e-01 3.562680576469456351e-01 1.225126825361839922e+00
2.692288197670012484e-01 -8.566197688130978705e-01 3.046632079521076619e-01 -6.325739215347975231e-01 -5.765172984714542759e-01 1.097263565433250321e+00 3.732917684716045015e-01 1.801437269939434094e+00 -1.335078734365239939e+00 -9.772158794624261624e-01 1.550172065659572551e+00 -3.365559961192254868e+00 2.813865609937085122e-01 -6.118378615344546301e-01 3.776467474165028371e-01 -4.524808904690663658e-01 2.030467731001024401e-01 -5.930313429602587089e-02 1.244594008524617795e-01 -5.449681455976636002e-01 3.314173663132361503e-01 -7.737738013363382183e-01 3.242507076865170368e-01 -1.490594590925224727e+00 -1.293914740813143283e+00 3.424542284396877578e-01 1.109450206819299900e-01 1.993598502820561127e-02 9.053117888958215342e-01 -1.372278777108530690e-01
-8.546324026933533879e-01 2.916452056634297185e-01 -3.841049796384585768e-01 8.465983631962116229e-01 -7.223639515364557728e-02 1.371538295693293330e+00 3.900738726820021651e-01 9.887868667900303610e-01 -1.221720048669774128e+00 -2.543848402075740700e-01 5.025444325801706746e-01 8.943666908167050567e-01 -1.523844004991513901e-01 -8.427291110616812186e-02 1.199688525425486318e+00 7.357269069720685506e-01 -6.095744488565756347e-01 -5.532180652633446050e-01 7.774666175077118990e-02 -2.070494623092473396e-01 -6.364567971949633418e-02 9.656847867751348902e-02 1.011054912783952542e+00 5.570343989128034856e-01 6.406505244590348681e-03 -1.283514474395719640e+00 -4.899658784874057482e-01 4.541790435145776628e-01 9.291801261954989455e-01 -4.776863305463674991e-01
1.751572158732336515e+00 -8.964781356754898400e-01 -2.569789656568814418e-01 -6.125893043315170372e-01 -7.076275956342992224e-01 9.914206461768351186e-01 1.737034081770941485e-01 -1.269572541353096939e+00 1.081096842793731527e+00 -2.513917541760594121e-01 1.479020927375263916e+00 9.671152580598048332e-02 3.618581362797799184e-01 -1.687914668503416897e-03 -2.840759264992881450e-01 5.599780202192887746e-01 -6.375578130697020507e-01 6.647521754054958043e-01 6.772002219618568075e-01 7.683122729855902389e-01 1.205387301416798396e+00 1.178833150736391167e+00 -1.305800548121158311e+00 -4.602186002077645055e-01 1.073313798547731901e+00 7.944447765982501908e-01 7.120923804638561450e-01 9.388714000589330755e-02 1.288348900565707611e+00 -6.578599421028500371e-01
-2.237976734729771877e-01 -2.209675078487255973e-01 -1.592332208541815675e+00 8.800697678961325598e-01 3.317398134248807362e-01 2.220582944110614798e-01 6.985309117875462270e-01 6.971333559955541492e-01 3.780742181617025577e-01 -1.259877331691096725e+00 8.963488433020789792e-01 1.544169421143647636e+00 1.070553083240557868e+00 -1.275691442775087614e+00 -5.946963866157320977e-01 1.060777758323837805e+00 -6.337265778475278388e-01 1.978933811195232817e+00 -5.810396366404936286e-01 -1.379001385905934018e+00 1.397742489312825409e+00 5.370757674045769647e-01 -3.952753443808663669e-01 -1.144577548352497143e+00 1.004056991173179147e+00 1.025263984329782385e+00 7.129688574542641932e-01 -8.274450380351008327e-01 -1.356276239274473827e+00 -9.483683215093735575e-01
6.734909292191633146e-01 -1.088761322659952402e+00 -1.025941600027541201e+00 -3.967469223599052186e-01 2.484522786762269619e-01 8.405341668842900571e-01 2.775982544990158285e+00 9.712174089499809870e-01 -6.037405356492898667e-01 -2.983152555806863893e-01 4.359046808028451681e-01 -7.029258695054351191e-01 -4.330909422096894668e-01 -1.649920524570031910e+00 -9.079443830593952880e-01 5.019903362032503841e-03 -9.672616884152245298e-01 1.298534793396070475e+00 6.071009881494759952e-01 1.058560618452214080e-01 -3.070775278390547314e-01 1.088474248148109780e+00 -8.309483088094684611e-01 -7.803619275770690145e-01 -5.212325297746300823e-01 -8.951379981876126379e-01 1.584803599994272005e+00 4.156160127315449149e-01 5.556893331156717020e-01 4.336722000485009332e-01
-1.755509413711064504e+00 1.604715451458355313e-01 7.110835532306886142e-01 -5.861467816793635155e-01 -1.570330408923108489e+00 -9.006608309808245005e-01 7.991400142547925300e-01 8.851823882634161089e-01 -1.254394958537122517e-01 -1.500006714285670117e+00 -4.650544600645848403e-01 -9.298667185771172794e-02 -1.374928109099258444e+00 3.568560584477972752e-01 -8.774784808106065315e-01 9.174655002285427852e-01 1.208804411648791488e+00 -1.543607237147862632e+00 -1.441254887459802791e+00 -7.930485077359279433e-01 -1.641062196817775695e-02 -7.864326177061320422e-01 2.125275915882820943e+00 -5.872381841058369467e-01 1.485172124792750958e+00 -2.245139244837464632e-01 -3.494332731773744372e-01 -4.229858168578427002e-01 1.284207929888392385e+00 -4.473290139743743010e-01
-1.299594978231519926e+00 1.005403097283908531e+00 -8.641049957261592862e-01 8.918457446162585400e-01 -2.243183725619760871e+00 1.344292394204438801e-01 2.087916713769513988e-01 -1.729120238936605602e-01 -4.193979770789236783e-01 -6.407305078661627018e-01 2.162710385160491466e-01 1.176260101199356756e+00 -3.771322696055293133e-01 4.117685517699941067e-01 -1.496147569019177448e+00 -1.098353858134482053e+00 -8.350720218629226199e-01 8.240222925675608767e-01 2.587783145030421728e-01 -8.543480271784328339e-01 -7.709185477695910116e-01 1.558984892274052625e-01 8.394153613947673565e-01 2.770261250706164691e-01 1.061775565956851963e+00 -6.309547836019691047e-01 7.556635342288289259e-01 4.821352459183350092e-01 -1.246107640760632851e+00 1.670059224704398382e+00
-6.640280992577593522e-02 -1.857162850702419599e-01 -9.972494387832354645e-01 -2.728882259090019247e+00 -3.304803625087104901e+00 -3.981230376882684552e-01 7.086979184097931261e-01 4.069435020376322987e-01 9.848854079369590009e-01 -4.896747794203233917e-01 8.564122405529538407e-01 1.059469707208168243e+00 3.347078051869008947e-02 -8.781469998245748920e-01 -1.057197746680855199e-01 2.950243536372634812e-01 5.922521810657191965e-01 -1.210370233423246483e-01 -1.152873338089049460e+00 -6.182724499896717907e-01 1.272150173742753188e+00 4.437548209758508944e-01 -3.406817036679024580e-01 -2.091824039045767428e-02 1.393486980468174874e+00 -8.975876114314445750e-04 -5.391365627413667871e-01 3.096327203206960532e-01 -2.876606640557095029e-01 -5.262221731277947345e-01
-1.541755466286091891e-02 1.436133300727477691e+00 -7.658105688866377880e-01 -1.588167824701495201e+00 1.090441805472062375e+00 -4.213421704638197762e-01 -2.481360104656550603e-01 -2.733501432767474482e-01 -1.227454845714048615e+00 -1.483323858271164530e+00 1.377654451634047650e+00 -5.371678039111048575e-01 2.327083642096103855e+00 5.986761965107441075e-01 -6.698907684950395902e-01 -6.607679279633683622e-01 -8.686053847599145561e-01 5.228456146130636695e-01 -1.511596518906346942e+00 -1.563122586396220037e-01 -2.599279855673070294e+00 -1.531709025237709243e+00 -1.673213198539420299e+00 1.714519399583378068e+00 8.294607898185676897e-02 -1.834533665224467036e+00 5.163359929665434223e-01 -1.022799968225095002e+00 -7.933308439159277858e-01 3.776594010210555519e-01
8.255207770687982283e-01 -2.175306623979996259e-02 -5.623764402868606238e-01 -7.965889552990528255e-01 -2.162921648020846632e+00 -2.047490623205785454e+00 5.470933621716331796e-01 1.296272981510166344e+00 1.326259464905369612e+00 -6.976577855301021591e-01 1.070581249324858319e+00 -2.188558384548694224e+00 -2.054201404021971378e-01 -1.347931234352278962e-01 8.924738141014088022e-01 -2.857711544524260683e-01 -1.140129548577808682e+00 3.589517680523026666e-01 -3.984274717130247834e-01 1.560880021422693442e+00 -4.760099340299857040e-01 -5.922601507180328406e-01 3.018599780123748522e-01 -2.514291283811942446e-01 -1.144818741360405623e+00 8.927329629906054498e-01 9.532940633078922366e-01 1.066216795302265430e+00 3.353709836084637352e-01 2.051591239807983719e-02
2.253413742874528225e-01 -4.481358235903902254e-01 -2.319328476210796630e+00 -2.880882594655201356e-01 -1.604119023427163393e+00 -1.350992172694575277e+00 -6.568693565835695969e-01 9.502929352632644155e-01 1.058165284910948634e+00 1.328457047350699860e-01 -7.546762745155800589e-01 2.387853006177019122e+00 -2.033947247407278947e-01 -1.114732535331049101e+00 4.580801057716575309e-01 2.056117596823469618e-01 5.183129106312338585e-01 -2.122496698709455398e-01 -1.307426489645800161e-01 -1.399443003191362389e-01 -3.007323989599390845e-01 -7.710166758262038122e-02 -1.820347323682393492e+00 1.652872873240289309e+00 -2.745524682154230067e+00 9.126448923538404978e-01 -1.362662477749973844e+00 -7.844380490561539063e-03 1.117635943209967841e+00 -1.201919409869659949e+00
-1.643175779793107028e+00 -2.050263928504759414e-01 -3.518444170133257387e+00 -2.472029847396211566e-01 3.053909088201275934e-01 1.118139007654983669e-01 7.445322653863580831e-01 3.557656031878877329e-02 -1.287447165853471853e+00 -2.837215889749775677e-01 5.837148335136659316e-01 7.004310125367499973e-01 -4.914532919095609409e-01 -2.255939739697017388e-01 -1.205375757140731086e+00 5.852202756501220238e-01 -9.877725624077782207e-01 -2.351107206172904640e-01 3.198921361515857376e-01 1.980952914312549495e+00 -7.258979816719444145e-01 8.010893110086947377e-01 -1.254357566979769079e+00 -3.303391779666562944e-01 -6.655138391494784811e-01 7.126905373082773609e-01 -6.153354420296212879e-02 1.647451152557569243e+00 -1.322463403940253190e+00 4.300737807439899418e-01
9.574730397231306922e-01 1.766826735225554224e+00 -1.128170715437215310e-01 -3.091690936169527726e-01 -1.012024305047152906e+00 4.407691049074646261e-01 6.475070604753846437e-01 -1.014011277343323525e-01 2.247814293262342389e-01 7.999925606758743202e-01 -6.212068814312364795e-01 4.768831764191667211e-01 -4.584131036594749631e-01 1.367790324704103222e+00 -1.490734791993692521e-01 3.391276090893993733e-01 -1.507723811458813845e+00 -4.883620895247844373e-01 3.600699008676659374e-01 -7.389437209389699834e-01 -6.604415976196479354e-01 2.308886201751806679e-03 5.270547776612598545e-01 -7.003323608386000654e-01 -9.774124412225748681e-01 -4.258766996051649434e-01 -5.471108905127158861e-01 -3.988716065726159998e-01 -1.341441331160552419e+00 -1.691530843341413348e+00
1.722331039701952282e-01 5.011287852245790431e-01 1.026467873607871256e-01 -8.506825568515397062e-01 -1.183890753707324217e+00 1.532328736120343482e+00 4.166315073125965163e-01 1.534217201427194199e+00 6.901438976446581108e-01 -3.957867495159893001e-01 -1.306642449739164658e+00 9.533075309750655979e-01 3.061001203826710926e-01 3.529641620632624766e-01 2.010478844078241956e+00 -3.092782622561008332e-01 -9.326234489197551270e-01 -9.476973057254869937e-02 1.306804383591534391e+00 -6.481131268711136650e-01 -7.317206331120610363e-01 -1.764726054102802255e+00 1.410857702631757249e+00 9.530001926536608714e-01 -4.752478263511677459e-01 -5.142028939876301941e-01 -2.985529994626584527e-01 -3.485078928938120102e-01 1.846628675920196916e-01 4.387158880181875609e-01
1.356770366721773646e+00 9.279358874417309444e-01 -6.349434141553907951e-01 4.465601749613435367e-01 -1.590101550938153752e+00 2.420711619343994592e+00 1.180130268010932681e+00 5.115098514108762373e-01 1.265264999426813919e+00 -8.101028516776623833e-01 1.267162359329584431e+00 6.962938246183767443e-01 8.880480347320595103e-01 1.676626209004871804e+00 -1.213814850625147962e-01 -1.340434098992210887e-01 -4.661618292923221940e-01 1.571538494277293918e-01 1.034311080187163334e+00 2.393372395914007411e-01 7.835365454690581544e-01 6.543704286779866708e-01 1.317628229089050640e+00 -1.123221298707995253e+00 3.949264514348470034e-01 -8.276033815697639850e-01 1.134915755187139830e+00 1.244636974695200404e+00 2.458495238301720287e-01 1.235770598021795896e+00
-8.641337538669278118e-01 9.836856907325123300e-01 -1.805735359698696696e+00 8.578375259066006731e-02 1.537727579055097271e+00 3.045341520313316064e-01 1.741669988583861350e+00 7.007470271824138841e-01 -1.360795918891392620e-01 1.405342755151916645e+00 -2.050677419034534932e+00 4.727722677657150707e-01 5.561991119317710730e-01 1.587799550200610088e-01 1.509955521287144053e+00 -1.356341042604029434e+00 -7.311836240483405858e-01 3.091786421691474218e-01 -4.534748445518714255e-01 -2.718165466980845268e-01 4.999824552907830011e-01 -1.103172379516371426e-01 1.573820665729532386e+00 -4.565476796156979489e-02 8.613029274903727384e-01 -6.902816274146650333e-01 -1.242917260920947120e+00 1.981476730138661768e+00 4.121291432740266658e-01 7.047013532523747070e-01
5.931521559188923653e-01 1.251583402858055027e+00 2.349288741958311277e+00 -1.622030539006978911e+00 2.405337277599956192e+00 1.483933406715137515e+00 1.091903465176703669e+00 -1.966343745592079861e-01 -5.416415437128746513e-01 -6.334213658411175230e-01 -2.561822015179338052e-01 -3.422414170680352918e-01 -8.174200659300830119e-02 5.914616839536230852e-01 -5.544611338422799074e-01 5.671340794863596324e-01 9.790723153910533272e-01 1.365838521164268293e+00 -1.343593063373547669e-01 -3.585564770310472604e-01 -5.987925031261190911e-01 -1.593367550100087238e+00 -6.525159320886080305e-01 9.870299671731688415e-03 -1.747042105361224396e+00 8.845078650751053706e-01 -9.490535876238277435e-01 -9.061706864941938555e-01 -2.632885387210455730e-01 2.913245563567112284e-01
1.225570990435934426e+00 1.063514044899043220e+00 1.640157706598925902e+00 -8.718210513008801676e-01 2.635144987143125395e-01 -6.734524444657408182e-01 -3.787479017135247927e-01 -2.725571776839103011e-01 -1.582353720110825313e+00 8.107558621928830922e-01 -7.808883320798467587e-01 -1.054660945081336454e+00 -1.165962276306471201e+00 1.331070853191340442e+00 -6.805566369328752696e-01 -1.646214384673072129e+00 1.321031683953208802e+00 1.473509258670008537e-01 1.995386106659537528e+00 -7.172146407704341753e-01 2.681898960615092697e+00 -5.056857336665802061e-01 1.897533580583083412e-01 -9.486803305372486506e-01 1.074953155435067198e-01 -8.960716827636903137e-01 9.574448574449794247e-01 -1.511290152721167790e-01 2.058658921303015976e-01 -5.308591008726409877e-01
-8.749940177483336301e-01 8.297410345221604144e-01 3.130496162875257005e-01 -8.693688185495237475e-01 6.504198889225961677e-01 -4.145419781500635503e-01 2.599228990755568347e+00 2.366259925444282874e+00 2.058961992997694335e-01 1.406028323048909012e+00 -3.004347777280347853e-01 -1.025147391641301059e-01 -1.199575023240256333e-01 -1.098269435709831932e+00 -1.190492403098626806e+00 1.381438101782916261e+00 -2.198804878836285726e-01 5.976396919654862749e-01 1.353787102038410461e+00 1.217599904018779489e+00 1.056896248502156910e+00 6.656269251105622065e-01 3.871103104748958024e-01 -1.176568694421656236e+00 -3.553473149200032100e-01 -3.050040182889115492e-01 1.103992424681659035e+00 -6.438891993388837776e-01 1.140110430807824038e+00 5.451940045073335739e-01
1.240522960669091734e+00 -1.457923205754564355e-01 -9.004905922802491913e-01 8.346087547342693203e-01 2.073728811761917257e+00 7.108058080755744745e-01 -1.445801045109446736e+00 6.893584945196954417e-01 2.187963174318327542e-01 -1.077470868246295232e+00 -2.826703959651622466e-01 -7.152357320181075562e-02 2.854208228184202875e-02 -2.227052100925772216e+00 -3.215997921731496567e-01 7.913892069868700974e-01 -1.297922394753021624e+00 1.884901684342319639e+00 2.075928160031287106e+00 -2.440374628556591485e+00 -6.725200167683157426e-01 1.058347945551239455e+00 -7.496568680212469804e-01 -9.415884667669882635e-01 -4.833500372800039746e-01 -9.394941307801599750e-01 -1.052548157084818747e+00 9.898901127256296562e-01 8.602136809825552399e-01 7.236413144225743999e-01
-1.753720110642741359e+00 1.513218103374317058e+00 4.406573925340705467e-01 8.843127908721315489e-02 -9.758135163474824791e-01 -1.520465432242469106e+00 -4.669757957986402364e-01 3.713616526243299076e-01 9.151521774167239998e-02 1.085630866749721868e+00 -1.725832278608726844e-01 1.373419617333822007e+00 -3.337157650555666599e-01 4.184469893460042722e-01 -4.302732325660148516e-01 6.043085026127845705e-01 6.735142373887151868e-01 -1.222698045132010414e+00 1.777917556042520331e-01 -4.785935173305392448e-02 -1.479255198135657423e+00 -4.953660617539957234e-01 -3.329462478260466485e-01 -3.530979450975634260e-01 -1.953083708547576736e+00 -2.865407346512018338e-01 -1.093392289075873602e+00 1.479613055867718963e+00 -4.855423563511675478e-01 5.801907644345307702e-01
7.976068385694807805e-01 -5.022698267303301600e-01 -1.252094343108663743e+00 -8.083809908927996890e-01 -1.254722381353474137e-01 1.874016743828877507e+00 -2.183679559645858581e-01 -1.149486909927631695e+00 -4.519437612196408605e-01 2.319735975801827887e+00 -1.031450419834616106e-01 -3.131362604709917452e-01 2.659265471399631722e-02 -8.019674204578502996e-01 8.950476927048017783e-01 5.984463047027877014e-03 -1.057058214806777752e+00 -3.160386565500982736e-01 -4.114496722271893669e-01 -7.176034804945112811e-01 1.220084351640888354e+00 6.162485487870926759e-01 2.939149164613735987e+00 9.356031683826663281e-01 1.094929411151547738e+00 5.881804644993997577e-01 -9.858015908450084019e-01 -7.352851268162322596e-01 -5.146498349618200407e-01 1.538982690985216450e+00
1.073691163917087188e+00 -6.962264918951163173e-01 -7.930235062285734271e-01 1.133614203504607509e+00 -2.183595145911924884e-01 -1.158000569617475994e+00 -1.532231475833930601e+00 -5.480008985333013616e-01 -7.540606251371470004e-01 6.089945593100528631e-01 -1.186138677494269711e+00 -9.211726621785459868e-01 2.006377131646609746e-01 -1.204872439697304065e+00 8.310984730174105772e-01 -3.860476247528503158e-01 -1.718333312230823307e+00 -7.326727178929919315e-01 1.752295818303524488e-01 -7.520470018157510150e-01 -8.133715032805287626e-01 1.020620519085778888e+00 1.169569527828507871e+00 1.360607165262190943e+00 -8.070084473842666917e-01 -1.710835246383694663e+00 2.461769667169654285e-01 -2.714000054360910519e-01 8.548753097084198505e-01 -6.354480572477063660e-01
-4.523631911167337594e-02 5.446134934449459175e-01 2.065775120643602580e+00 9.240497115240481341e-01 -9.101561865593624789e-01 -1.137734552056181153e-01 -2.508405137249842820e-01 5.019125010448439728e-01 1.019063422722936929e+00 1.263500791103873810e+00 4.150099699672603615e-01 7.594265779988634835e-01 2.213304693652829724e-01 -1.510634213420489091e+00 3.456518790210817982e-01 -9.484134234923335960e-01 -7.922835722496308630e-01 6.138703367247504428e-01 9.586521839696982017e-01 1.921875906018981839e+00 2.279480846486503509e+00 -1.219340313675092213e+00 -1.732110883467796181e-01 1.421683885317290397e+00 1.160905353719512006e-01 -2.381714565318602705e+00 1.457934640412213677e-02 1.629083420502038526e-01 -2.123149473836428491e+00 -5.327670750675832928e-02
-9.651369333744550527e-01 -1.107060400827555746e+00 4.331064455819545467e-01 -6.199274273194392837e-01 3.478864932081485728e-01 -1.875684012981072124e+00 -1.240408991134651917e-01 -1.744950964632530910e-01 4.415629735241657361e-01 9.474382414457290791e-01 6.952762578596592968e-01 4.319503730441651146e-01 -8.058583405999054650e-01 -8.902015937944648405e-01 5.450756662734150826e-01 1.149320506891595428e-01 -1.184577131549057194e+00 -2.624411625234823742e-01 -3.266610283029331430e-01 -6.670521131502991086e-01 -6.230170939653981721e-01 1.758213258897578513e-01 7.144803836806637998e-01 -6.357567797245267105e-01 -1.448097650542612191e+00 -6.325026888298446170e-01 1.855766637924647577e+00 7.334929626104056410e-01 1.207482889827971168e-01 5.350578238529412056e-01
-4.968060325404388133e-01 2.312757982459142880e+00 -7.651980766942907408e-01 -1.279031830647007206e-01 5.217591755215411631e-01 1.886388273967830320e-02 -1.075552414639904031e+00 1.269514353197674916e+00 -1.571970737370182114e+00 -9.373399404339604057e-01 -7.175982813476748934e-01 -2.271170411316505988e-01 2.061389732941985298e-01 1.215726100171495627e+00 -1.344145805017091355e+00 -6.658791754929510587e-01 -1.202162962618254172e+00 1.260160763126743078e-01 2.209586636992024941e-02 1.022103132073175769e-01 -4.177087387612617997e-01 -5.065837191504638515e-01 2.739866319057221999e-01 7.106846724284081318e-02 1.017711219353495677e-01 -6.171771370049508043e-01 2.284379605535829805e-01 5.138434398227990085e-01 1.031698331405974667e+00 -1.460110136819486870e+00
4.465141008562073521e-01 1.012848449716495791e+00 -7.209050182724497935e-01 -7.750116435649186952e-01 5.573201359064298144e-01 -1.957752072522704445e+00 -3.271641360836123891e-01 1.153492488598969246e+00 1.870943799495826676e-01 3.939373652373325818e-01 1.142568910148081374e+00 3.115526047717973035e-01 1.718224391107358473e+00 -1.270388892320775676e-01 2.079389506452193004e+00 -9.112497463705790945e-01 -2.373973245667826137e-01 1.692834200846493387e+00 1.045531787153697101e+00 1.134167241638092793e+00 -1.053385733559729864e+00 -7.284969328428976265e-01 -3.066874424858814785e-01 7.111744908338320237e-02 -1.017722423007557886e+00 3.044518756870010501e-01 -2.124441232569488913e-01 3.707451889828249914e-01 6.819688727327883893e-01 8.987761986528031155e-01
-8.890737114440042665e-01 -5.214714163319900120e-01 -1.847417822595293302e+00 -4.742789758645328257e-01 1.334740926155082885e+00 -2.811897013074380336e-01 1.341470793519647708e+00 1.833000201406065899e-01 -1.600013859836698915e-01 3.417041896687019187e-01 -6.123528606908890115e-01 -5.106054425257027657e-02 -1.109682549747672553e+00 -2.661277132640456955e+00 9.296474628641698823e-02 1.030350215403098346e+00 9.672921134401383236e-01 3.575475799746012373e-01 -7.316491260137171493e-02 -1.346044626171053915e+00 5.368432076057667590e-01 -1.613812134278056254e+00 -5.987705143620181136e-01 -4.068414185854044018e-01 1.617439203085005328e+00 -7.914232371781676489e-02 -3.315508457909076556e-01 -1.161266734728811034e+00 1.142399671073974776e+00 -2.270961250326755942e-01
-7.240733436406476820e-01 -9.976577662335310848e-01 -4.891065492007041771e-01 2.953911421340159604e-01 8.186961853231121689e-01 -4.491989095963323519e-01 -1.249298484314339319e+00 -8.876921448610677334e-01 1.958464093626227642e+00 2.749696440593581981e-01 4.309802257735448339e-01 4.632089390729326323e-02 -1.436127696491250161e+00 -1.687331528935919478e-01 2.435843893741591160e+00 -1.277846342874525976e-01 -1.260439200220427658e+00 -5.154850210799664101e-01 1.205831141522735739e-01 -1.140891841074120450e+00 1.594958992061694225e+00 -1.050005821614940604e+00 1.392050300086505599e-01 2.156256964242251328e+00 -2.586929521249032859e-01 5.501459550072823612e-01 1.214732884107982080e+00 -2.311588856423115457e-01 -1.482229138399288937e+00 -3.768817509668926508e-02
9.331791496405493769e-01 -1.175977937142072410e-01 -2.578731917025806619e-01 -9.837558239696688744e-01 -9.865731768451946326e-01 -7.831847578399278031e-01 1.484127247026958640e+00 1.095234074833209448e+00 4.881166482284833297e-01 -5.181027302966413339e-01 6.349077395190695361e-01 3.184598996168675478e-01 1.952338150518070359e-01 -3.124595877564705360e-01 -1.126082343424060106e+00 3.345782453049314320e+00 3.483019975195728035e-01 -5.522619114044376998e-01 -5.696914970543156542e-01 9.257171368744384621e-01 -9.209983260592142784e-01 -1.068204694108023656e-01 1.235371362828105335e+00 1.173622772408910331e+00 -8.303773426435790972e-01 -9.357963201217330829e-01 1.852135024122530949e+00 7.039891118156234029e-01 2.256934466410789597e-01 -1.468433218976606280e+00
1.595849440222971261e+00 6.561322507933562420e-01 -1.381953395887284830e-01 -1.257973486195099015e-02 -4.056333179797032562e-01 -6.483008583038878392e-01 5.336955089416985931e-01 -5.131231020193959269e-01 -5.109136604914470414e-01 -9.349860976961856807e-01 8.510410250557861600e-01 -3.773582811607725795e-01 5.521274775325801798e-01 -9.792481201865923524e-01 -1.536837627656201910e+00 -1.133535510590182538e+00 -2.095314040456689675e+00 8.671888647734464772e-01 7.106296009031568550e-01 -7.329310261639201407e-01 1.704768430851343330e-01 -6.683808447377970197e-01 -7.945808215382375028e-01 6.229574978344769587e-01 1.296198578435759696e+00 3.164780322685367686e-01 -1.528683216202098905e+00 -7.008278038195707715e-01 1.118713902116472703e-01 3.575069039292017581e-01
-7.232122060059928970e-01 -3.690089496060065866e+00 3.047328764621540120e+00 -1.179024876307615655e+00 -1.286109896681578046e+00 -3.543593854066379167e-02 -1.102179028788029980e+00 -8.096465293069795566e-01 -5.291613609176112343e-01 -3.828135963323717195e-01 -1.644217285100881346e-02 -6.711401991134847700e-01 -5.269107665089717285e-02 -5.084054407715761226e-01 -7.067683373290668536e-01 7.044308773401108947e-01 -1.547901540907686613e+00 8.632979510722611494e-01 6.230039976412863334e-01 2.520837627354465260e-01 1.497547463499204312e+00 4.358726059176603607e-01 -1.547146956804921168e-02 -7.703422118399124718e-01 -1.617426635183973893e+00 1.645770260471949076e+00 -4.247364425275208522e-01 -3.656612822613470870e-01 -5.426458017921171884e-01 1.249885645802261275e-01
-1.267901851393585577e+00 7.834721776461174569e-02 1.985098716002987040e-01 -7.353313048310898825e-01 1.177743934190071284e+00 -1.553932603802737678e+00 -3.584911547160155587e-01 2.118836020209167656e-02 -1.101264199642899344e+00 2.931444532348204679e-01 -5.255595052231145647e-01 7.600036853651087609e-01 7.729836920642526588e-01 1.801777990127999274e-01 -5.081687896691996498e-01 5.620672000666396828e-01 -6.132373027841021562e-01 1.308722211104070832e-01 2.300699403589887282e-01 8.905880408792500313e-01 -2.062371346160684737e+00 9.452043172681139360e-01 -4.185150635939000052e-01 -3.847718260797777790e-01 1.412047204341688178e-01 1.412009892149401535e+00 1.209727466090260384e+00 -6.129412870737031005e-01 2.230828938193249567e+00 9.995422438498511308e-01
-1.380650980847003328e+00 -4.176965613776602027e-01 -1.087768073460796403e-01 1.266274296753238549e+00 -2.775751752741862699e+00 -8.804111036437042292e-01 6.205341401339272700e-01 2.006314170887865331e-02 -3.900746439674366295e-01 -5.544456028008715870e-02 -2.273829722357151029e-01 2.536142020935660213e+00 3.728819574612070586e-01 -4.932003026083268682e-01 2.009650301198183442e+00 3.549585304246597461e-01 9.013569427803960199e-01 2.204192174320914965e+00 1.686452113465195302e+00 -1.115592465087550833e+00 -1.586056292144591540e+00 -8.930904068139676744e-01 1.568500796484788573e+00 3.117136123700595007e+00 -4.053338337983584116e-01 5.438261363546083027e-01 -7.140896790073069100e-01 -7.423657320952090632e-01 1.106100857308506713e+00 3.219798387701236497e-01
-1.785653065449621879e+00 -1.514386487819910920e-01 -7.172326467691363117e-02 1.553369469788987045e+00 -2.000628585864405729e+00 -1.623804775746663154e+00 7.859936161616879469e-01 -2.601391890360839731e+00 -8.237289647391916603e-01 -4.065778633608107540e-01 -1.064253041120537535e+00 1.030889429481166297e-01 2.567947002129312151e-01 1.591611343624131647e-01 4.468853993293011029e-01 7.714359420727630035e-01 -4.280821517927822506e-01 2.548296023158529877e+00 1.852751421897731010e+00 -4.857108435837472205e-01 -1.607886836346813508e-01 9.440607237537843588e-01 5.384646809821700408e-01 1.540211521691801311e+00 1.646529203825771948e+00 -2.152282490169120877e+00 -7.890808661597942253e-01 3.264726913276424503e-01 -8.442889955199688323e-01 1.171857722431017601e+00
-1.211075593327032962e+00 1.599634640462024526e+00 1.658006089509318715e+00 -7.250644162267799731e-01 -1.334802433303314162e+00 -2.364926980782044108e+00 6.538899888199206645e-01 -8.735973348394778792e-01 -1.487749050404341800e+00 -4.778926760292149245e-01 3.294625359822461741e-01 1.376964454553330386e+00 3.375278499448938763e-01 3.226843379210481366e+00 -1.004044567681501576e-01 -9.552852675891447820e-01 1.392200385067620561e+00 1.788830022776989548e+00 -9.654207346300487380e-01 2.871537917670656248e-01 5.010189505109374775e-01 -3.609878821250984693e-01 1.454414786481456889e-01 1.209662567165477043e+00 -8.629554770856202595e-01 6.323990184243388768e-01 -7.949191640353139299e-01 -1.193894931752973898e+00 5.691630041156856556e-01 -1.031960685546834400e+00
-9.577902395870667718e-01 -1.759382217717226027e+00 -2.016118857616092885e+00 5.965911152954010005e-02 -2.808512151290412096e+00 -2.369848923384495265e+00 -1.073436574931151480e-02 7.188692818883671842e-01 -3.426721777046000117e+00 -2.713322889062038001e+00 9.839098341286679483e-01 -6.866312808585656180e-01 -6.993536620490292677e-01 6.154982151025257808e-01 -3.017942431954252491e-01 -1.671348466540783714e-02 -1.468795402249033710e+00 -2.007088983168115348e+00 -2.364182343534741160e-01 -9.475695154711478718e-01 1.063661497554349911e+00 -1.670675239478308371e-01 -3.538965344205760588e-01 -7.225987914032712123e-01 -8.872175692120475299e-01 -9.565995474083394123e-01 7.994811591266908213e-01 -8.362902940582543909e-01 1.599819123133889409e+00 -1.788406016357844130e-01
-1.371853317258965310e+00 -5.045121852713662092e-01 -2.168411918504300484e+00 -9.630890076718880977e-01 -3.524548231725491032e+00 -2.042733822028339752e+00 -4.064030190534099335e-02 1.647307272741756590e+00 -4.295546269898334657e+00 -1.724786943816769114e+00 -1.355979794685699291e+00 5.435531348388978889e-01 -2.738887870246750067e-01 -4.203205185198795324e-02 -2.519832053742859790e-01 -1.203858059441003547e+00 -6.492676168920435975e-01 4.008241818401118151e-01 2.437432492906085324e-01 4.322401793038008894e-02 1.210570269992402359e+00 -1.005142553038008701e+00 -1.008042969389381982e+00 -3.248526263299106320e-01 6.811133100647240313e-02 -1.378360559228586357e+00 -8.591250934553187335e-01 -2.574831370027438893e-01 1.350975331150358949e+00 -5.956864449987984145e-01
-1.890642278613176019e+00 -2.409942241063542934e+00 -6.408682972110522069e-01 2.997892536465120439e-01 -1.180713193397655569e+00 -2.092369167734626334e+00 1.082550418896869759e+00 2.030473641832896137e-01 -1.670942157675155082e+00 1.763899977334335123e+00 5.476061862402262781e-01 -3.811030588632566274e-01 7.000162697449870131e-02 1.118980510321191391e+00 -7.415215742226423101e-01 -2.335494432750939264e+00 -1.417492765844558411e+00 -5.541007909279920263e-01 8.061294880450327049e-01 -2.061159699206427387e-01 1.194415523335986329e+00 -1.176911979851404666e-01 -1.844167503167153610e+00 -9.314706776223795615e-01 1.112004181221993182e+00 3.932988858977131685e-01 1.105592604489473496e+00 -1.196841779347316725e+00 -4.851196518300677218e-01 6.024118630425154830e-01
-6.986699152485202902e-01 9.515779807209298058e-01 3.652979734895380748e-01 -2.093644044142141947e-01 -7.445883173522492848e-01 -3.528860796894853769e-01 1.429592870537906180e+00 -7.123984233377861353e-01 -2.894878975498314411e+00 -1.373841795489640250e+00 8.393091626390615234e-01 -1.877796172281192277e-01 2.222066041919192048e-01 -3.297067402781871603e+00 1.683311932546034173e+00 -1.496221970227785913e+00 1.296412970419089872e+00 8.807516252545062319e-01 6.019933736079465803e-01 1.267375051678006015e+00 1.926365378476114554e+00 -2.783210593509855557e-01 1.561043631051971081e+00 1.855613783984527698e-01 5.251124126310789952e-01 1.909065688964366680e+00 2.103126219808142405e+00 -9.265060925560508753e-02 8.978559377741902603e-01 1.307961640210513865e+00
-1.058149879240607438e+00 -1.152971571625616143e+00 -2.526287940641767982e+00 2.409603921088359968e+00 -2.220187425416874749e+00 -2.032743644667240057e-01 2.432453090467400436e+00 -1.039078493886089083e+00 -2.072136890237563200e+00 -1.422216285762020416e+00 1.248786409309989409e+00 1.344039611604016971e+00 3.796492460645233269e-01 2.049558424869088569e+00 -1.148713840276210041e+00 -2.688228989936027435e+00 2.455459751858970752e-01 1.739121076559762669e+00 6.526285700196069461e-01 4.601359740663912290e-01 2.423112054110666269e-01 -1.497595173245211519e+00 -8.364362374715794690e-01 5.481082950921243313e-01 -4.354309825884508101e-01 -9.198005367009314259e-01 -7.970147302580794513e-01 -1.351697105434525925e+00 5.039613899637649386e-01 1.273812091381706590e+00
-6.524624200457673773e-01 -1.183302305517466069e+00 -1.385773872589258104e+00 -8.861761510504556627e-01 -1.089776244020530749e+00 -2.949248318147120962e+00 1.434787306485911129e+00 1.076877907339438278e-01 -1.933337819324748574e+00 -3.762786362709560906e-01 1.379106882754474350e+00 -2.024841299798375793e+00 8.619207375093727030e-01 -6.774101621014291252e-01 -2.279754546249257718e-01 -5.317974510441184632e-01 -3.522102011961288914e-01 -1.198714896249466255e+00 -2.309141112506429838e+00 7.181503200793210029e-01 7.200351822536388280e-01 -2.250456243125721623e-01 -1.073908699990419491e+00 -7.218503101963430479e-01 -4.645153627605944635e-01 -1.619319152784816751e+00 -6.063010291475623426e-01 1.200454763449688267e+00 1.124969377113897773e+00 2.091370750851826887e+00
-2.464189542962441415e+00 -2.160077415118339506e+00 -1.032595507138423852e+00 -1.047725365802617548e+00 2.842116477941844188e+00 -7.063848867615447891e-02 1.952670151954257083e+00 -8.053855322976208875e-01 8.188107795119463350e-02 1.121538845657522598e+00 9.601751568052332986e-02 -9.922258428873375058e-01 2.215703418505621691e+00 1.387043742616610231e+00 -9.906573510639544722e-01 1.361195053820773104e+00 -3.120776764838799622e-01 -2.319906485163645837e-01 8.039608077155737664e-01 3.556049984591806434e-01 -5.623606903435963283e-02 -7.287760839911019417e-01 3.545677273743960689e-01 2.379626926252740748e+00 1.291717326473231120e+00 7.092510784105690025e-01 8.872295436915809130e-01 -1.444876491010804731e-01 1.789476434208579769e-01 2.562273068073045446e-01
-6.841856914590648264e-01 3.756200628870869362e-01 -7.996644140699754599e-01 -1.318786840480673961e+00 -3.554252158160961517e-01 -9.519160816222252963e-01 1.259044886437216570e+00 1.776770689740067688e+00 -1.506034992250403770e-01 2.117659619056310727e-01 1.473980357321757584e+00 -1.478318945418047647e+00 -1.182829274874636294e+00 5.421753898895981250e-01 -3.264041080037750397e+00 -5.391174283396062972e-01 6.680864248865096000e-01 4.971223611780121732e-01 -1.612822820271140878e-01 9.234866781249995160e-01 -2.314325442745427952e-01 5.898399178110828034e-01 -9.225103433523226260e-01 4.576497428958270497e-01 2.324872560481004713e-01 2.349885382380177690e-02 1.707618228342323019e-01 -1.360704206180213538e-01 2.228976498854309540e-01 1.184519854470549527e+00
5.814972414329205863e-01 -1.125903048252992547e-02 -9.928547304319689237e-01 4.873783800111403108e-01 -1.548463702840383815e+00 1.473941152077364647e+00 2.190786614127223420e+00 1.404398348996345858e+00 -1.446949022490652492e+00 -4.892055494907187052e-01 4.645614809615632446e-01 5.387739676101976904e-02 -8.152662736910903929e-01 1.300258164996876131e-01 -1.068429351470220778e+00 6.467874026837334700e-01 3.977383143791491937e-01 2.005433297617698507e+00 1.265783612856817175e+00 -1.250691122669238764e+00 9.514943948243019811e-01 -1.534134074332001552e+00 -1.124021187676138123e+00 -3.860334985084320492e-01 2.302570529314242442e+00 5.666081491243188939e-01 -4.924883492928826545e-01 4.106358804444305011e-01 8.916379070549750319e-01 2.341847268160034967e-01
-1.346135994644411527e-01 3.524148636934589796e-01 6.443813247217128337e-01 1.916852732326995434e-01 -9.822378915576751579e-01 7.643282499272079367e-01 1.018788790979972214e+00 5.721804620193550461e-02 1.761850614198564868e-01 9.387113404008458062e-01 1.817820634188619167e+00 -3.374790072566892229e-01 5.235197794949448813e-01 3.138439404681158673e-01 2.289122424053069704e-01 -1.659518130527723123e+00 -1.458530355893059127e+00 -1.981865728658633863e-01 1.636471042392987574e+00 -2.180117301233980509e+00 9.899259464102169170e-01 9.411330204165644364e-01 6.898439129556315219e-01 -1.387535941553032171e+00 -9.586436661532965475e-01 -1.799658164417085926e+00 7.768427516577915970e-01 -2.072525814821274057e-02 -1.453546193108849582e+00 4.763858946494102797e-01
-1.256432610375612269e+00 1.250487771205973098e-01 -1.513205806236936013e+00 -4.827486768949422191e-01 1.713260335459652728e+00 -1.059453561881739336e+00 1.294331008209637091e+00 -4.828534202377436357e-01 -4.431633457201540338e-01 -2.665366580293366816e-01 1.143762746572439148e+00 7.354314900279269596e-01 -7.311154427095371833e-02 -1.095594199617522690e+00 -7.261374268314849667e-01 2.057195292768620565e+00 -8.135030815546170357e-01 3.074659568312432811e-01 -2.537879850865742970e-01 -1.054413777418659270e+00 7.513956114036043910e-02 1.071368940776598500e+00 -9.605223372990707720e-01 6.845408315581429370e-01 -4.490960798619964695e-02 -1.149017064490746920e+00 1.335221609649473118e+00 -9.589178232091916110e-01 2.083588671197365155e-02 -1.216168655834108492e+00
-7.473807313660838503e-01 2.164874616229651938e+00 -3.275437483429398666e-01 1.900871193014737726e+00 -9.388659711612045156e-01 -1.340965998750814903e-01 -9.157795241715566137e-01 1.222087641236338090e-01 -9.865841539863708098e-02 4.742917702791673573e-01 3.262824546056948272e-01 6.580976933348110514e-01 -8.198667837138933212e-01 1.349136259944539118e+00 -3.404542198763362282e-01 -5.725790270449685471e-01 -6.115828827475673635e-02 1.654722350100609862e+00 9.476814261099564263e-01 -1.730353837173712606e+00 -1.779107965381685696e+00 5.122747611756623964e-01 -1.532365945012841069e+00 1.264348084449719245e+00 -2.199345632909531556e+00 8.172599571458474266e-01 4.418723122390963431e-01 -1.426139540675092077e+00 -7.266572934414710083e-01 5.484817676916947660e-01
-1.689235347449004498e+00 -1.501557599868752479e+00 -2.942792294946950937e-01 -8.218952927117889606e-01 6.389857916310893726e-01 -8.142707695561388626e-01 8.177662669235918891e-01 3.211807067652353798e+00 2.307410370501658536e-01 -1.351844056759858193e+00 8.730331004684791507e-01 7.748306230524080185e-01 -1.046823243190885044e+00 -8.000189579192541478e-01 -2.937259810093918819e-03 1.627684931146351710e+00 -9.757070874294059282e-01 -1.063012628543534621e+00 -4.955212390225540164e-01 1.167083284211839933e+00 -4.789053875724660347e-01 5.569793070434793103e-01 1.581176404443489725e+00 -2.426928464718014933e+00 -5.430647279149287687e-01 -2.018930551223656611e+00 1.601300690372285729e+00 1.215843874420259541e+00 1.654806910333438186e+00 -8.698668002822596002e-01
1.857654099665427827e-01 7.217736366208000742e-01 -9.479083010045248336e-01 -4.595123623526178314e-01 -5.210879010229813035e-01 7.692158718488892877e-01 -1.341280587609199770e+00 -1.503121376451061364e+00 -8.960882912126338917e-01 -9.525769331181433985e-01 -9.004245393907205075e-02 -1.339102278952680573e-02 1.941639178020553969e+00 8.744964049258439065e-01 2.648940914998428320e-01 2.780371293340740735e+00 -3.167998299274468188e-01 7.523715345597951076e-01 1.833511651647647400e-01 -1.425728354361212258e+00 -4.993815416921351114e-01 -1.316285777623327213e-01 1.428602692430509302e+00 1.838159106829415412e+00 -2.705375477037949561e-01 7.103382677079543850e-01 2.072910409793861763e+00 4.733068500190492633e-01 -4.360066430647276114e-02 7.311479051988135636e-01
-5.400923711672916960e-01 1.127810455225914943e+00 8.132514589589086018e-01 7.403111120202148232e-01 6.897409650969499317e-01 -4.350437439072382118e-01 -6.967708053542692737e-01 -1.587393785369226387e-02 -4.788414730094925909e-01 5.582074262315034341e-01 -8.027067463011110515e-01 -6.339364459753361603e-01 -4.331544308620105532e-01 -1.684667528741509823e+00 1.869843068944692099e-01 2.376959989328346508e-04 7.078361756844637753e-01 8.885364501191697073e-01 1.363356830065416636e+00 -6.676097006236768605e-01 9.387607354951470473e-01 -1.431324767980377555e+00 -8.533841712024545778e-01 1.134827994416135022e+00 -5.028613740785427277e-02 1.789730603396037178e+00 -2.788260101186312845e-01 -8.639978781413332198e-01 -9.340349525355118310e-01 -4.595934264825711213e-01
1.681663437733234012e+00 -3.079061145863787874e-01 1.428198624052968935e+00 4.947216639098204194e-01 3.052291070769716619e+00 -2.102156730541691054e+00 1.387615708500663514e+00 1.138878761657340366e+00 -9.823986683142958976e-01 -1.212338480555872205e-01 -2.893688171558828515e+00 -1.883309034991558217e-01 5.983414474073662781e-01 5.654198635492818648e-02 -1.597447016229060379e+00 -1.287298158556987593e+00 -2.250280553465781597e-01 9.707664731440158734e-01 1.450244128675568511e-01 1.536218380023320451e+00 -1.221077907208557717e-01 1.343156642400838319e+00 1.495988150855162901e+00 -6.321721175500540912e-01 7.719387750225499278e-01 4.014067204718798632e-01 -1.588931445582529411e+00 2.051180356734103594e+00 3.416833282494325941e-01 5.281972757777900762e-01
-2.687228106389555560e+00 -3.598423475944315802e-02 9.508784558834765255e-01 -1.925630078068379381e-01 1.456916330463628562e+00 4.778152811437729186e-01 5.295341732141154445e-01 1.180624668449160586e+00 5.042441018519342455e-01 2.866630588290076942e-02 -2.222984984319736346e-01 1.637319105318153500e+00 1.789377302747252152e+00 -8.637791415737288148e-01 1.849015517196873848e+00 5.741911455320279911e-01 -1.594652190689018534e+00 -3.089280475851403085e-01 -4.553200609573043733e-01 1.215122475542764979e+00 2.774737978657139670e-01 -1.435580867076420575e-01 -6.235106094581096547e-01 -4.178481100947382121e-01 -8.591532029400871240e-01 -6.825165364482608243e-01 -1.402638598715706397e+00 -1.256477466583948710e-01 -1.513279924841673507e+00 -9.437660534552033686e-02
-1.477954773356779494e+00 2.375250964760512673e+00 1.759458507429351615e+00 2.291771705952169030e-02 2.637769644471439356e-01 1.317100154705464821e+00 2.693681731101835730e-01 -1.312958000250570967e+00 1.353451358368395585e+00 8.416222930839952765e-01 2.996111445693700470e-01 -1.272513649665480695e-01 -1.018952931013680008e+00 1.546490708561709948e-01 5.812934858545811823e-01 -9.949927133461916595e-02 2.954157081534464768e-01 1.653815683096236056e+00 9.971717873364627227e-01 3.376787762256701075e-01 2.198795294596542493e-01 -9.617581246275646034e-01 1.421093487844368619e+00 5.561987704409639133e-02 1.292706909925161129e+00 -1.103829403920303376e+00 -6.422557814884098659e-02 -1.432906374693385887e+00 1.302845483982387087e+00 6.307272023464316479e-01
-1.016406149736972075e+00 2.333706008201316684e-01 -3.586310532666944217e-01 -1.499293376724215809e+00 9.423844054959106264e-01 -1.192397500259478604e-01 4.538296552234538095e-01 4.963148461959499547e-01 6.181338976944883434e-01 1.240554044803706901e+00 5.517464425147867307e-02 8.729327797797716004e-02 -2.843644694980448140e+00 -3.204988184647365457e-01 -3.848863166885895803e-01 3.165606846565834909e-01 8.965101595414201596e-02 2.568665577178086412e-01 1.182862454998055535e+00 2.120117280316841935e-01 1.974793440672766964e+00 -7.544128428813746678e-01 -1.418230932140588818e+00 -1.473117428698555109e+00 6.674430168504399408e-01 -2.319876007720588440e+00 1.575569456804761237e-01 -9.122332906245692596e-01 6.333986564679592313e-01 -2.371274792446300683e+00
-3.185883232784298968e-01 4.763087677488913596e-01 1.671865742579518921e+00 -2.480925530479191898e-01 3.987336325618158761e-01 1.138825693740574074e+00 -1.202185680662874456e-01 1.020460159877790290e-01 -1.276712222010298881e+00 5.003297424955878148e-01 1.698287181066875151e+00 -6.307290570432615429e-01 1.187218764108181057e+00 -1.294837881558813963e+00 -7.198592558370208172e-01 -1.930909969522121572e-01 6.304627743614393820e-02 1.174157791517506766e+00 -9.513308168510659080e-02 -2.121126327120570199e-01 9.043400914028486282e-02 5.012178882662671198e-01 -1.662522349902564756e+00 -3.544060228399598111e-01 -5.602521105632605192e-01 1.388736670841955512e+00 -2.001986051589803139e+00 -5.802168883291477508e-01 1.139902328731084852e-01 -1.164002481145664181e+00
3.381295354736246761e-01 -1.636806353062875696e-01 -1.635311216296234660e-01 -1.056378855302430253e+00 -2.237896130763309177e+00 1.121128533979928843e+00 -9.742877624347044963e-01 -1.590193724896063143e+00 1.024334990103054288e+00 5.495800753959623197e-02 -4.419652242322235081e-01 8.059871229235765488e-01 3.821887795553906009e-01 7.497487415696311996e-02 -8.402683485962200161e-01 2.755768872736902297e-01 1.286924192878198536e-01 -6.042090034479400407e-01 -7.145756224140891177e-01 -1.021075001928889003e+00 1.981969893790511250e+00 -1.523997956278820620e+00 -6.945222390019475389e-01 4.759961151427079540e-01 9.827923845307172668e-01 -6.349359714861390058e-01 2.027902993603566406e-01 -6.147852891575317225e-02 1.334429510342382441e+00 -1.330508277857654909e+00
-5.219469115793303748e-01 1.642560806197143342e-01 1.358338415064795690e+00 -7.547958892578047196e-01 1.347247175797542162e+00 -5.210854259638622032e-01 -3.491318460962435921e-01 -2.003278957646617453e+00 -2.566700173166705512e-01 -1.841970458583837678e+00 1.144846974128038569e-01 2.696988508025653375e-01 2.346772878704015963e-01 -4.869961170310740384e-01 -7.855793952919408740e-01 7.540592888371095981e-01 4.246999392753851854e-01 -2.153477052803632052e-01 1.632386206976910170e+00 1.750016748232132713e-01 -1.092657894791128514e+00 7.881442171493290294e-01 5.304345756675048484e-01 -4.752430268571594119e-01 -8.092377303287608126e-02 -4.848146064568656932e-01 -1.578130275627314116e-01 7.169227852273657442e-02 1.601588328178335185e+00 1.037767375665029190e+00
2.398697369081269848e+00 -1.647731740999242023e+00 -1.706514529745599418e-01 2.397727933244380161e+00 -2.513594439957921534e+00 -8.492194053976530599e-01 -5.474155773071691655e-01 1.573026510195354444e+00 6.798993760740628112e-01 -7.232237937941903005e-02 7.231217517801984407e-01 6.268700414192771020e-02 1.263194039318482176e+00 -1.335564124358581128e-01 -5.311097404063109401e-02 -3.300988041140980878e-01 1.714086052566725082e-01 -3.901822696769607357e-01 -2.512598680049427796e-02 1.266746874018128466e+00 -3.504125780097622905e-02 6.997242705506654392e-01 1.474395065807113880e+00 2.093567805985862007e-01 2.041466330326848211e-01 6.278196978571601861e-01 4.993566135167498143e-01 1.154977506580315005e-01 8.480923645223351626e-01 4.611248183058438421e-01
-8.964772413405127649e-01 1.162414820003895066e+00 1.980792535957084377e+00 1.455821317336773557e+00 -1.614710196209489856e+00 -2.841735304949964735e+00 2.823523063882190653e-01 1.683519820287552982e+00 -1.882819263921270636e+00 1.111243198733231186e+00 -3.764484012990072792e-02 8.429775761520883481e-01 1.871371985809797911e+00 9.107163212150674036e-01 -8.909669987936389424e-01 -1.420963832306352259e+00 -4.773981780168329303e-01 -1.039684155802413468e+00 -8.129634231568693137e-01 1.165855673919058866e+00 7.264560591854180016e-01 2.919887789496693475e-01 1.177595899925114376e+00 2.217640141583094859e+00 8.697659486611837298e-01 -3.023296319191228210e-01 -5.638218822900903371e-01 -1.213175935049757431e-01 -6.330141638135702298e-01 -4.116508084206944584e-01
-4.756067919572169456e-01 -1.067380437589294795e-01 2.866600154020513713e+00 4.623704158564451716e-01 -1.115461352303169562e+00 -1.006871850206055852e+00 -7.484001153353868618e-01 -4.318330663960757709e-01 -2.016896388368214055e+00 -4.414398589252296334e-01 1.611989613513598263e+00 -2.250209131929867379e+00 1.530798787817283291e+00 -2.898896148427234642e-01 1.783179894993077996e-01 6.875073983043888948e-01 8.170895810688678651e-01 3.230466128580851692e-01 -5.364472807575768609e-01 8.592166294174929941e-01 -3.310091229850727901e-01 1.768462943136961951e-01 1.214283296552846947e+00 4.805633010114891412e-01 6.138168973900135494e-01 9.415395226754467994e-02 -2.434204749233107312e-01 5.420083850745278653e-01 -1.199037219122439879e+00 6.934503674514065352e-01
-1.519242851886063894e+00 -9.522373401989335517e-02 1.589166387726494323e+00 1.280015031467428344e+00 -1.453105279532061367e+00 -1.909492057360041128e+00 -8.248429632410076984e-01 -5.238323853541524550e-02 -8.298555015031336968e-01 -9.513076875471954130e-01 -1.276183701753047739e+00 8.010052628518300744e-02 6.804829469116190355e-01 -7.337697939928531365e-01 1.253799729129051688e+00 -3.580428275968683960e-01 1.180089969608021594e+00 2.015874136516233317e-01 7.089276604069576493e-01 -6.649883799976454846e-01 -3.266536262497818366e-01 -4.028023162399060331e-01 6.586697970621533393e-01 -1.919003699483170788e-01 2.180071935688171259e+00 -1.497402217794211898e+00 -1.937288623798159470e+00 -1.910748680214756634e+00 2.321381165507899080e+00 2.050464095653403984e-01
-1.144283455655544568e+00 1.701994497825531916e-01 -2.470598391808602745e-01 2.612098710571190141e-01 -1.722723478725612489e+00 -3.307066235296405310e+00 -2.663670520246817830e+00 -2.353908686183610932e+00 -5.748914643696994453e+00 4.654387914787896374e-01 3.439861678866101835e-01 3.343767353215729710e-01 -5.207565175994045559e-01 2.897202220489547564e-01 1.681940994956108437e-01 -2.822533799083421613e+00 -1.064328211212548947e+00 -3.956854204070746339e-02 -1.209362075591578822e+00 -7.078738283174299539e-01 3.152424980105404395e-01 7.872037296495634218e-01 -1.777587485679611889e+00 -1.911383829644254795e-01 -8.970474605194987960e-01 4.019418516088494320e-01 -7.747713477552611305e-01 -8.176574775182787747e-01 -1.617213238053002655e+00 -5.314656036162662689e-01
-6.193999444375125618e-01 -7.861407453268256518e-01 -6.990325399888814850e-01 3.067335625572913949e-01 -4.203677940021298909e+00 -2.744983178249268629e+00 -4.464229129151120468e-01 -1.187303147878240983e+00 -3.824698715487633738e+00 -2.281655982645040215e+00 -5.814551645722062512e-01 2.993721216623212444e-01 1.847974715716665106e-01 1.138053989962799051e+00 -7.094585096314954820e-01 1.976718374191324568e+00 -1.165190941793820434e+00 6.839850855787107387e-01 1.415690504778288061e-01 -1.451440633350066234e+00 -2.145037656631056944e+00 -1.701363560717016332e+00 -1.493874246032781627e+00 -1.233432107798409394e+00 -4.528181166353965614e-01 -2.036028233046971003e+00 1.304654594538703083e-01 -1.934692245244341802e+00 1.575324474973765154e+00 1.697900151540265579e-01
-1.886289460301252996e+00 8.513923694083126437e-01 -1.059193416993736925e+00 1.067909522429886682e+00 -4.542849038915105275e+00 -2.628497968649987193e+00 -8.223858573419291496e-01 -1.837911014945158739e+00 -3.426251870723220350e+00 -3.426819629906807663e+00 4.569597599157497192e-01 2.224883448962919008e+00 8.437918292933855868e-01 -1.532142813800081438e+00 9.608374634443591633e-01 -1.012496218575231754e+00 6.648043910096649300e-01 6.968891324917351193e-01 4.707563775155250707e-01 3.069962213236197557e-01 -6.524787894243931907e-01 4.749678851170223148e-01 1.601059690376741840e-01 -8.456011201124714882e-02 -1.601776813927970888e-01 -8.288788187154365328e-02 -5.400839382502380381e-01 1.860153516644214022e-01 -1.857501790045677781e-01 -6.843639527983566562e-02
-1.659016122754539468e+00 8.047009639590135821e-01 -3.888547294466029869e-01 7.059422884949521915e-02 -1.340828159535706998e+00 -1.643292039693237117e+00 -1.803629760312920993e+00 -1.849829524099148914e+00 -3.163665544121771589e+00 -3.781611358965547787e+00 2.936878440076781116e-01 3.948677960318688340e-01 1.040402102422944397e+00 -2.232480173302632820e-01 -5.047011910308418087e-02 -1.043274944459867543e-01 -8.589277282686479387e-01 -1.162353811967279160e+00 2.287533824263974225e-01 -1.438178011054105143e+00 1.567426895360024275e-01 -1.047308978330761198e+00 -7.969395052076616581e-01 -1.153540399193009325e+00 1.494356042020747566e+00 3.694974289231104936e-01 1.330969008528619435e+00 5.357071612946610051e-01 -1.245533743141909566e+00 3.826028249822802096e-02
4.896701529832887534e-01 -6.616532797999976623e-01 -2.072096519101319090e-01 1.339439770375115413e-01 -3.920142248217123870e-01 -9.583255275445224930e-01 1.556023716625241915e-01 5.239322151562374463e-01 -2.263118042118892781e+00 -1.202343412239201381e+00 1.046648817325663838e+00 1.628371023857131838e+00 -2.744472100093350853e-01 -1.444636630315213388e+00 -1.952977037271091953e-01 -4.118930186477272049e-01 -2.482705709423915497e-01 6.382663422059694502e-01 -1.861451482550296355e+00 -6.114415069092744570e-01 -8.953833514288697670e-02 -7.963952138831345007e-01 -1.264481572949289534e+00 -4.734172764358388630e-01 1.773812925936287144e+00 -1.262385219239270939e-01 1.988023197553189236e-01 4.254440864136734834e-01 1.178511889911013188e+00 -7.484220104298577869e-01
-2.034030897422137052e+00 7.057690915524957032e-02 -5.648064678493808222e-01 -1.241159807529766734e+00 1.059848448976726809e-01 9.433608698402741188e-01 8.288684853338075254e-01 -2.402074287609619940e+00 -2.903694328607237640e+00 -3.112688850643086091e+00 -9.325949168347220652e-01 -4.681813218522734021e-01 -5.558242885012213419e-01 -1.977285009733931398e+00 4.402949990683958648e-01 6.793816923246874806e-01 -1.276518551996717044e+00 7.076058063051423597e-01 -6.692915654373730039e-01 -7.989022993978381892e-01 2.860762427582258169e-02 -5.501302946475569167e-01 5.012520712750104801e-01 9.842116484441525148e-02 -6.017615500286144226e-01 -2.529100575033012444e+00 4.178570698726830734e+00 1.157079292251254055e+00 1.079393805655211924e+00 3.576348524494329384e-01
