1.128016170271551183e-01 -5.177759972842885805e-01 3.816120773879668193e-01 7.837972246813045274e-01 3.096593214141794004e-01 -1.032608113645169023e+00 -8.020325553166040011e-01 1.515736610326359202e+00 -1.103760772895719056e+00 1.434877396342827405e+00 -2.036601164103860329e-01 -4.009587316567295168e-01 3.579629930252412606e-01 -6.662903741399357482e-01 -1.516644677296220545e+00 -2.251238289153022709e+00 -4.621252144892193381e-01 2.212629260047866975e+00 8.569505300163803296e-01 -2.630074501365609940e+00 5.349777219376595783e-01 -7.661522446160415889e-01 -5.655376318805266367e-01 2.256015630586325926e+00 -1.144987128518162312e+00 5.995111762134868183e-01 -2.929999325159068913e-01 -1.189940730894356147e+00 2.571664431402694295e-01 -6.978573791175010088e-01
-1.002155330393947441e+00 1.457256475207046487e+00 -1.685019114185551670e-01 -9.340404489540361788e-02 1.875083828361083560e+00 1.799392163424612168e+00 2.204771035110711264e+00 2.224062677261267051e+00 -6.486471227433867615e-01 -2.385315188668927500e-01 4.053205898177768551e-01 -1.845699244397545291e+00 -1.785284930651165336e+00 2.060741677703867014e-01 6.108994252398405322e-01 -1.421516122145685956e-01 7.216044794050233691e-01 -1.851039717160008369e+00 2.071073946190841921e-03 -2.725893998205174973e-01 8.922796708155745771e-01 4.111983708427232043e-01 -3.641499269742378697e-01 6.990525833022337432e-01 -7.041290221163473140e-01 -5.757898957729764566e-01 -9.228242808831964294e-02 8.877327646404977735e-01 1.779145077321280910e+00 1.326924980650977526e+00
-3.026452521695331965e-01 2.033565646056549880e+00 -3.851895034919960437e-01 -1.219580721376787080e+00 -8.189405196016655286e-02 9.483254414685959865e-01 -4.966783383517643924e-01 -5.633723956392304444e-02 8.147705265993502310e-01 9.142855753378205386e-02 2.161014706307761574e-02 8.377622657527457051e-01 -6.503728884089251538e-01 -3.482872189293040321e-01 3.112932922249240023e-02 2.067311578939762251e-01 -7.585325590143603414e-01 -3.470627661976886658e-01 3.067000215673014174e-01 -4.770409694215898937e-03 -1.092894659741312724e+00 7.810388027474376438e-01 -6.631098668465184032e-01 -1.476134209741686742e+00 1.247301660698697079e+00 -8.727251687790936741e-01 -6.832587872045658983e-01 1.602500455659233936e+00 8.915580875059812005e-01 4.109174963269175973e-01
8.986652416347910011e-01 -9.038503408286272522e-01 -1.683436590902926300e+00 -4.708638759834617438e-01 -2.710054965887310208e-01 5.694867263667179741e-02 1.741703350778207038e-01 -4.476743689826665484e-01 6.699905976307207744e-01 2.195635796578972176e-01 4.563264704849563369e-01 -1.379749945711586509e-03 -1.538965167840960213e-01 1.539858548845805197e+00 2.873413835151981677e-01 -1.779939022227786383e-01 -3.489286287045005874e-01 -2.025112648523124947e-01 -1.397881483116477641e-01 -5.705430023029133269e-01 -2.425144423277897088e-01 6.324921930894861211e-01 -5.519568573193879280e-01 -5.290627830361462891e-01 -2.428837428392705555e-01 -1.140514669062987929e+00 -1.827255102331706293e+00 5.734933659250229278e-03 1.784285610386954213e+00 1.699580362507737252e+00
8.120630723646486970e-01 7.514003964739992547e-01 7.425637900682858783e-01 2.365281445420301387e-01 -2.221555772435616305e+00 5.019977625289585160e-02 -8.197122662337952281e-01 -1.049603127150013249e+00 5.277161015177521675e-01 2.886583317949270588e-01 2.568808351945655807e-02 1.082982322215344517e+00 -3.694071230313101251e-01 -3.292462047890924448e-01 -2.929067402891906147e-01 1.886833497297702167e-01 2.368764092006411803e-02 -1.020086002474899001e+00 8.796186145260380673e-01 -3.701175211346408589e-01 1.813365476289972023e-01 -4.376848095474863420e-01 -2.022258024284803835e+00 9.722448956373704876e-01 -5.990258576963569670e-01 -9.040245232212212878e-01 -8.228741381680731992e-01 -3.329934269500413047e-01 -1.087642214035140942e+00 6.356159175714221066e-01
-1.758521982288335561e+00 -4.864475565241052624e-02 -6.273261236684043451e-01 1.884702151048877505e+00 -1.113192900228788584e+00 7.758986979565517528e-01 2.134503302407606995e+00 -4.334164239364726723e-01 2.987733802768322011e-01 -3.101528190798452655e-03 -3.002918145841095288e-01 6.051791080797953581e-01 2.774982822754427647e-01 -7.081604567059044397e-01 -5.282183438200155345e-01 2.511244072626512835e+00 1.055429653627029341e+00 5.738358054458434498e-01 8.428831256403557237e-01 1.872404704159527533e+00 4.700640182449540849e-01 1.133350608198650411e+00 9.561052283241213701e-01 -8.824217156121677563e-01 -1.980249347785782987e+00 -1.837725134066797050e+00 9.938819345846487963e-01 -8.386770572916444344e-01 8.380180686102977061e-01 2.247498818944489773e+00
3.646527838947591360e-01 -4.343751666014705193e-01 -2.544356919520152527e+00 1.245556675140799374e+00 -1.161209119560505210e+00 -8.730532588513006953e-01 -2.945478603904362891e-01 6.505092131075576045e-01 8.349089970731635724e-01 -1.263517272938226910e+00 1.646844207909123226e+00 -1.371593959510901684e+00 3.612976404809188358e-01 -1.760160353994092708e-01 1.858762434490736082e-01 -8.564689503004346838e-02 -1.226477418700475441e+00 -1.493369659764023361e+00 -1.082675053014627187e+00 6.176142628533086709e-01 1.391028834728494479e+00 1.059448937705944838e+00 -9.760527773627002412e-01 1.290290730851528789e+00 1.468382951956611060e-01 1.161479985147131355e+00 3.886923568100443260e-01 1.054836925474782472e+00 -1.021202547665141847e+00 -1.159344223921749073e+00
-1.253016261092290362e+00 -8.796164830636408194e-01 -1.057609475504415641e+00 -9.808978697029285820e-01 2.198312627878509090e-02 1.014090368950879339e+00 1.007293262701528302e+00 1.415161649535108701e+00 3.784729456337817405e-02 1.467299086453634605e+00 3.720754684885562158e-01 -4.970425089708141453e-01 -5.846119712762198883e-01 1.150389940986828341e+00 1.294116940782380709e+00 2.000763171793113138e+00 -2.087851214148343182e+00 -4.232554107557688905e-01 1.079561438839114373e+00 -1.052205430761956606e-01 -2.037488232918488462e-01 -4.575020581748479032e+00 7.587454415186245527e-01 -1.049484870709455953e+00 7.275883339213305712e-02 1.230337056866935841e+00 -1.537311966563668308e+00 9.289220842549136270e-01 1.524153718122714940e+00 1.441325128560819513e+00
4.353838195149337120e-01 -1.434751799640924697e+00 3.947619594426885481e-01 -1.322531557537933999e-01 -2.883187742624795935e-01 -6.133943298610149419e-01 -2.603531947015051529e+00 3.051394854945029600e+00 2.637309288293905318e-01 1.664098329561330525e+00 1.812509108064082330e-01 1.097056419527059568e+00 8.436329523876670011e-01 1.672667004618792364e+00 5.313374458912613063e-01 -7.785440744041695060e-01 -4.939164858998326135e-01 6.304746217101507844e-01 2.232111942034782914e-01 -7.444746470766671065e-01 1.020773143506589764e-01 1.227168551490870785e+00 1.044740250970194850e+00 -2.435108800442257471e-01 -1.742930386955063027e-01 1.105386424197303930e+00 -4.402297037987246142e-01 7.743487574278925534e-01 2.050541912591790639e-01 -6.023959877409099800e-02
-6.652957745517739108e-01 -8.911173425206166954e-01 -3.029696394864778153e+00 -5.348532546422035683e-02 7.303815470217219774e-01 1.559369941958907102e+00 -6.545571629910911238e-01 4.872245127437891399e-01 6.830281106161885385e-02 4.444981738322113518e-01 6.080777051897492402e-01 5.423474395054074249e-01 1.931001853566956861e+00 -1.087766850478585345e-01 -2.155081830873613935e+00 1.933887390662644146e+00 1.745414754711937730e-02 -5.842234211223660267e-01 -1.478414388776807087e+00 1.531507240447894214e+00 -1.385439614777072004e-01 -6.356858173124613209e-02 1.826058763237255800e+00 1.025768922104360881e+00 -1.350359091308843240e+00 4.211157629540371872e-01 7.804732939273115733e-01 -2.706873799961392879e-01 1.324175446530960532e+00 5.987204271659959387e-01
-3.255280908280549501e-01 -1.030226665853346768e+00 -8.280442638279807976e-01 -2.774215137396458086e+00 -3.409165231990572975e-01 -5.062870071461513799e-01 1.276611551554357737e-01 -2.299236754367740554e-01 -3.646757772862621594e-01 -1.434623941820627024e+00 -1.932596558709280266e-01 8.081274438906189683e-01 1.197287381425957697e+00 1.336983615092560473e+00 1.368100207259249856e+00 -1.905029517398795003e+00 -8.906397127736883634e-01 1.842890126022831143e-01 2.373416404687208325e-01 9.234250123659802911e-01 -4.174529020155856585e-01 3.692376106829043936e-01 -8.058744690951052947e-01 3.587684480898816752e-01 -9.111615042139474818e-01 -6.388262287299793785e-02 -1.034387437501271156e+00 6.823339315084588907e-01 -4.726905774247459058e-01 1.353908457542201960e-01
-7.848094399968941204e-01 1.256122624525210618e+00 -2.448310844473478021e-01 -1.740625746083573455e+00 -3.215319408317152128e-01 -3.361675080633984014e-01 -4.525578695054832123e-01 2.343938808825239140e-01 4.141300942844729216e-02 2.169834284267221580e+00 -6.738742504034553882e-01 1.485030964454291391e+00 -1.293930525743275162e+00 -1.430749846546918412e-02 2.290129346455903325e-01 9.996075556995825950e-01 3.605963381404907186e-02 1.081544852012231939e+00 1.450477149051699610e-01 -1.830930971649720407e+00 4.474256038478938713e-01 -5.294964614370256673e-01 -1.034281656537251876e-01 8.564918380436215006e-02 -2.362030844930927964e-01 1.569237358502893587e+00 -2.303316411714397272e-01 2.952529001883343329e-01 -1.200908539067919500e+00 -1.079119696269190687e+00
-1.596109103079597302e+00 7.383832718826611741e-01 5.446153564071010145e-01 7.130879253431652298e-01 3.712468118648568627e-01 1.980253123130127690e+00 -8.258628967077923100e-02 2.875243059271495594e-01 9.103445925190719601e-01 1.080352442705391491e-01 5.739204446006447302e-01 -1.350570674787306302e+00 -1.561847253780450639e-01 1.127350323850629277e+00 -8.094700432212651453e-01 -4.045359858817491883e-02 -9.044133776865531660e-01 3.656170119353236991e-01 9.422345861670403111e-02 -2.925770877845481621e-01 1.093832317013404332e+00 -1.949170332034658282e+00 -1.092362911003745607e+00 -1.566963635448496150e+00 -8.165960024373968285e-01 1.900061434278389472e-01 -4.533805483606523357e-01 2.418636314533369358e+00 1.004847481955331301e-01 6.302664451459380479e-02
1.922640503729097505e-01 -3.037727000321408660e-02 6.374039686887310596e-01 1.062732203270559728e+00 1.785729192639059049e+00 1.073575336084644949e+00 3.552737493603133623e-01 1.358530241881039435e+00 -1.745754226554376842e+00 -3.246581847164167756e-01 -1.152668120551485043e+00 -1.017126604348874419e-01 -9.639959930759856022e-02 -6.359218864805961102e-01 -2.109030269180723671e+00 -3.491075595267219278e-02 -7.255619917005949882e-01 9.735178777847282028e-01 -5.394446288122213273e-01 1.081781599573022001e+00 5.889074576583412934e-01 8.891808442365516096e-02 -6.416982170964119492e-01 3.897690770061790905e-02 6.092569973260587579e-01 -6.051056624117138183e-01 -2.020718729203156983e+00 -4.079405031153945371e-01 -4.166005023384342643e-01 -1.640619960964117441e+00
1.617798045773658933e+00 1.124088031165975332e+00 -3.339969597577521210e-01 9.807275590547162025e-01 1.096145248401067945e-01 -3.098941177698786853e-01 -1.922682363851983822e-01 -5.309637182251875087e-01 -9.556793974669143266e-01 9.993217767012708974e-02 6.054480918445441784e-01 8.073284789740449163e-01 1.172025067179340851e+00 -7.547253592764827657e-01 -1.111827156901973312e+00 1.902369179209226213e-01 1.521846233905264967e+00 -6.604022298875771545e-03 -8.894925654780124757e-01 5.070386014841440359e-01 -2.106478381106987804e-02 2.000024366692536582e+00 3.927586875490429175e-01 -7.357379721066408251e-01 -1.267271739525482610e-01 -2.079627789561691587e-01 1.760031874694121035e+00 1.296757553420362585e+00 -1.025093757231844815e+00 1.407011960651291804e-01
4.318016661972741699e-01 -6.562711481351755916e-02 1.469390160710438431e-01 -1.222741626013408967e+00 8.649653313133728871e-02 1.367171503190213633e+00 1.289741682035871806e+00 1.229111484022818584e-01 -9.965021292815279264e-01 6.386716085220850436e-01 -1.502729605895563314e-01 -7.616775741121185606e-01 -1.537892610734186594e+00 3.838401145648374091e-01 -2.034119849402697133e-01 -1.500089915943564778e+00 8.570507680675482076e-01 1.066960932535547663e-01 -1.684510968844245005e+00 1.721701821685710065e+00 1.401348947498561870e+00 4.189265548933430727e-01 -4.498205202981206963e-01 9.821866509141023716e-02 -5.259358353362532101e-01 2.074993724848409826e+00 9.980217706957948964e-01 -1.335652983930348814e+00 5.313561524884427012e-01 -8.448942506731148550e-01
-1.637242252235308282e+00 1.255115082424183459e+00 9.233573889994249606e-02 3.640040299086301778e-01 7.570724752483058706e-02 9.727041582313831203e-01 6.735095259474904728e-01 -2.057053027207479678e-01 -2.888623104125063179e-01 5.118463049134860388e-01 1.673829226366036205e-01 -2.133068652172341595e-01 9.846273674424254052e-01 -8.194655176672660524e-01 5.297579654077785305e-01 1.255234548789216920e+00 8.638701609362390340e-04 -1.784458140281167227e+00 -1.412037682826001450e-01 5.191362982520584257e-01 2.176876250698285553e-01 -2.366204087155632241e-01 -4.119423291481925653e-01 -1.802074176623201573e+00 -5.939442731321472602e-01 1.364639579706863559e+00 6.523195490047414280e-01 -1.357829074990641871e+00 6.085268707044448888e-01 3.249798334614227846e-01
1.308186329479386956e+00 1.072645401959743339e+00 -1.118825050074549798e+00 8.124623995453781333e-01 2.138718430989225774e-02 6.780795337520930666e-01 -1.107070941717066770e+00 8.249095702509358086e-01 1.384333360583892336e+00 5.084745541481605624e-01 -6.106368613258289502e-01 -1.667771227055119043e+00 6.667436936913156975e-01 5.099348215321915234e-02 -9.639552562135774716e-01 8.349870737133615606e-01 1.063849567319253703e-01 -1.701110033824036583e+00 -1.913608346422896456e-01 -1.674192037154034418e+00 1.936675359104110816e+00 1.605761623102627267e+00 -5.066122121902427722e-01 1.843452409682825532e+00 -3.988901803632362575e-01 -1.038780361568644617e+00 7.672347893111781669e-01 9.503512815870567287e-01 -2.128207223367415413e+00 -4.586640559835707953e-01
4.043266930554394456e-01 6.507939289846194075e-01 3.734390282178933762e-01 1.702471669188262704e-01 1.070597642460865639e+00 -3.874978861245009232e-01 -1.744813774030023745e-01 -9.458473749454464341e-02 -1.424384335361764453e+00 -6.472521301119608106e-01 5.610893449279698020e-01 1.840059912186149171e+00 4.911384166626698300e-01 -9.123510500831613079e-01 4.280921244178093055e-01 -5.423918663353050063e-01 -9.274385094576305388e-02 -6.991773026209285868e-01 -4.573839668561539562e-01 -2.141256765595252881e-02 -1.011503155561081641e-01 -7.778425972659013254e-01 -4.836059644870910890e-01 -6.396104242354595515e-01 5.725544351316089742e-01 1.224460758860218768e+00 -9.660109669906900010e-01 2.323532067634598297e-01 -5.281531286070328957e-01 -6.021682453680541336e-01
-5.470959699482119687e-01 7.258694249594095371e-01 -7.028654203259829814e-01 -1.698378227183649836e+00 9.711619530022219671e-01 -7.596154519411348893e-01 1.107318082202384119e-01 -1.278991557455330330e+00 5.274925208027457790e-01 1.035220379907240001e-01 -1.776715215320896768e-01 -1.096615809220041315e+00 1.012527545635186543e+00 1.180104435080046477e+00 7.426499618339423847e-01 -1.898055570774699330e+00 -1.699957041280428516e-01 3.450862738049995659e-01 7.166709895833355271e-01 8.611163170679914103e-01 -3.626107880424013774e-01 6.806196448192430859e-01 2.767177551535321411e-01 -3.645543896333774958e-01 -1.904921806470205592e-01 -5.310488845519573120e-01 1.251289561717469079e+00 5.714854640945117303e-01 2.313479204714530280e-01 2.836405859943838537e-01
1.766410386134116828e-01 -1.076782823638566811e+00 5.877805204909107850e-01 -9.223363343164446837e-01 1.190408809065003348e+00 9.160265616261035193e-01 1.278882885441564143e+00 -1.039257496556128757e+00 9.709442027812286158e-01 -5.156297885687137761e-01 1.103317102134822036e-01 -1.514658763449424350e-01 9.584133785999988664e-01 -2.367786585146804956e-01 1.056927250264537710e+00 -8.373080969301572862e-01 -1.237178450836010080e-01 -2.731917571495623975e-01 1.070720305163313624e+00 2.024883647908294615e-01 1.985457570291711271e-01 -1.012868532118542442e+00 1.336370349866009111e+00 -2.726307534104924990e+00 2.827562864438262213e-01 -3.636201264416787371e-01 -6.987153810574234791e-01 -8.156605996305097417e-01 -2.092035242201023326e+00 -9.959408324671632506e-01
1.082736191551225247e+00 -8.747647869578693003e-01 2.700468287592586170e-01 5.373193431187313074e-01 1.135509812980432631e+00 -4.933973067578323324e-01 -1.589202737095861059e-02 2.205926124397482369e+00 1.514758047674796160e+00 1.653778118020203580e+00 1.329749798161055929e-01 1.089994376976651802e+00 -6.002872218108923352e-01 1.249900903824157083e+00 3.392274482631336685e-01 8.954319488169342200e-01 3.230253180124860179e-01 1.499521392854150613e-02 -1.340867722828132380e-01 -4.522889906486405320e-01 -8.650396435907704573e-01 -5.733408854374169028e-01 -1.676439070922175700e+00 -7.591037544222163369e-01 -1.759963171311554608e-01 6.129134354332186341e-01 -2.362252885117750001e+00 -6.238018427958633150e-02 1.888526966051679468e+00 1.514917806190346494e-01
-5.573730303323820578e-01 4.139991339837373330e-01 -1.092119943426221429e+00 -6.718042203397630585e-01 1.172136291451768342e+00 7.546702363673732927e-01 1.744758818448292281e+00 -1.904927928195971676e+00 1.157400062863368051e+00 -3.334918520755895122e-01 -7.051555743489903438e-01 -1.163977075559969432e+00 -5.329433783040925521e-01 -1.039424295294460343e+00 1.215571451914439632e-01 -5.218244364098306720e-01 -2.593516020219115981e-01 8.315642852335746182e-01 -1.168634857528727089e+00 -4.243355228171124538e-01 1.779684792206084554e+00 -1.361928651343398584e-02 3.620636777430300546e-01 -9.211153447511455372e-01 -7.602572166111637442e-01 1.368555488534139553e+00 1.286575455467033613e-01 7.695015864265083438e-01 5.287394540839568391e-01 9.614443631996386630e-01
1.189977940451047989e+00 -1.068648026314723332e+00 -1.107751979657850272e-01 5.498539538054252329e-01 -4.794583932348195909e-01 -3.634642579170588861e-01 8.994628353855783631e-01 6.200166946069131102e-01 -4.759855547375203000e-01 8.835209605794565046e-01 2.953084000345063687e-01 9.639239231988737666e-01 -1.478650263049561486e+00 6.872442420060700385e-01 -1.684432341745642159e+00 -2.436022140541847236e-01 9.427310610130947011e-02 5.148364426597217269e-01 5.462689025164966239e-01 6.348875161993353666e-01 -1.968584969838677479e+00 5.519544966258295160e-01 7.651209009453424637e-01 -8.588131067940735219e-02 -2.213232429248075839e+00 -1.019328652924195833e+00 8.231796685532465352e-01 -5.291740762293486444e-01 4.607976516830476488e-01 -2.421775393233346063e-01
-9.184963433509596431e-02 4.659449499990420684e-01 8.018895974686752748e-01 -1.304104462764152039e+00 -8.953603297398380345e-01 -5.338607989231120010e-01 1.355697137201291813e+00 5.740422087523061601e-01 -1.938681049446956184e+00 9.642867378001394874e-02 -2.458898927600522699e-01 -4.477243511464197578e-02 3.639678081485525629e-01 -1.419939030239067090e+00 -8.274630806001578853e-02 1.563856289821141221e+00 6.570107198815802185e-01 4.822392264521560001e-01 9.557791363558127973e-01 -5.489052526024216228e-01 -3.122595896322344355e-01 8.710783843271703575e-02 -6.961746073972410187e-01 -6.305184184438988870e-01 -5.081865546751330731e-01 1.176456989593645641e+00 -3.016355596829721486e-02 1.182649979753803010e-01 -8.963364344232133130e-02 -1.654073821231434538e+00
-1.195029609177544749e+00 2.299817645136587319e-01 -1.075317135804000568e+00 -4.944653319750753617e-01 1.058477265801704981e+00 1.199563830126550157e-02 -4.646631950569001801e-01 -8.194986634442805173e-02 3.161929102460848684e-01 -1.989023433273539254e+00 -6.191847899070839212e-01 3.892884912504805950e-01 1.781356554688681704e-01 -1.566477135724410275e+00 4.172451333043735722e-01 9.928629245420012017e-01 -6.673794695639598817e-01 8.167729486059534943e-03 -4.458841876451847819e-01 1.000749636603359916e+00 -1.534724791122421772e+00 1.178208889638279189e+00 3.859082865434488863e-01 -2.127862936470330979e+00 -9.809360769401210822e-01 3.675066152820711807e-01 -2.322076458046901104e-01 6.126322044322188853e-01 1.447631411283459180e+00 -1.585100087124254875e-01
3.145188981111662341e-01 -1.174656574501936168e+00 1.311593133273058154e+00 -1.009216776727249298e+00 1.810709863162881378e-02 3.069964103172227343e+00 1.079602953836998891e+00 -5.700767175281040711e-01 -1.853411737819491423e-01 -5.217290443723280324e-01 -1.968928401591754362e-01 -4.729769649055577951e-01 1.242804829182641901e+00 -6.654211257793699597e-01 1.655724843342788910e+00 8.758525965727466112e-01 -6.063883561692184898e-01 -1.149622300618301285e+00 -4.363928538978001370e-01 -5.093841977446983416e-02 -5.817155241460634230e-01 1.238749946030364563e-02 1.122288142065720473e+00 4.900649925790724892e-01 -1.950094760670950000e+00 -2.729233160083410770e-01 -1.232475033060331349e+00 -1.132604279424309635e+00 -1.284671253280420755e+00 -2.283839711100463243e-02
-1.391696994002199261e+00 -5.966776157259531810e-02 4.162969792956124904e-01 3.279368691112052175e-02 3.277626381867221883e-01 -1.335560230524140746e+00 -3.642167989324572586e-02 6.182411296590014649e-01 9.018593356207796896e-01 1.590302213404800158e+00 -1.941564218211221382e+00 1.640476134666645436e+00 9.630277705222371754e-02 -1.088947475587223712e+00 2.618830353433617142e-01 -1.002907328278195731e+00 2.420337758397708705e-01 2.208462029714831409e+00 -5.259738612507578598e-02 1.859528609548719347e+00 5.035947647130721849e-01 -3.654328780036674718e-01 9.537943180113357400e-01 -1.465125372808711690e+00 -5.306248369922320629e-01 2.017442631979783574e+00 -6.749387654064359365e-02 -6.663238920180368785e-01 8.206035257794727089e-01 -1.506166933056757529e+00
-6.818028612700978153e-01 -2.386602879827223744e-01 -1.504187377229806721e-01 -5.155934753564893613e-01 8.905411549528613468e-01 -7.658869688542675469e-01 -8.713496347026965516e-01 8.189901905803173218e-03 1.062972507661686716e+00 6.172893625729317657e-01 6.977641637680069842e-01 -9.378056560986689494e-01 5.523113704367803578e-01 -2.285672957087286905e-01 5.694513945333703475e-01 -1.795451079269269057e-01 -2.202005810528337992e+00 -2.009751494687978202e+00 9.635213319451529923e-01 1.276171166988115502e+00 2.440270150888144696e-01 -1.804400297912716888e-01 3.746139565748575762e-01 -6.556831625497501204e-01 -1.639955059108953339e+00 -7.334456828841401377e-02 -9.745822252321727497e-01 -1.733508166764984759e+00 1.081964588048260456e+00 7.195418016325065835e-01
3.104984682374477556e-01 -5.977774156210940992e-01 4.786718635761834095e-01 -7.991677996202494194e-01 1.571807892250430605e+00 -1.751668522577014830e-01 -1.207108408301004854e+00 1.228102768707622250e+00 4.799880647011881551e-01 -6.290289694277104715e-01 9.759001023655257123e-01 -1.933703883986044592e-02 3.150492701523677219e-01 -5.364555524966296840e-01 3.121879802766217016e-01 -2.242013188989483707e-01 -1.039856529325166729e-01 4.821496577124206317e-01 1.184974485089796969e+00 -3.730948511007549651e-01 -2.516124976517104539e-01 8.006620395249844369e-02 4.342956150099982482e-01 -6.786305452603461630e-01 -5.690108685193151494e-01 1.783462338323764385e-01 -8.360780155304312622e-01 -1.381053837177649957e+00 7.120267772434040188e-01 -3.154632375075779871e-01
-1.517776047593418554e+00 -5.701705158019725328e-01 7.398607062862057049e-01 3.187627212631949369e-01 1.457066124537999552e-01 -1.770847963955342941e+00 1.501056938358845017e+00 1.051316686493971142e+00 6.956297729830592802e-01 9.502061295020511889e-01 1.004078331748536224e+00 -1.952885573087929580e-02 1.053503488068271210e+00 6.081290762340219036e-01 -1.209026185934459763e+00 -9.829513035234601626e-01 -5.908471802104581921e-02 -1.859756125898978374e-01 -1.029966541640833788e-01 1.526966952652741183e+00 5.757290785078943429e-01 1.885030897518441551e+00 -1.140867364814209806e+00 -8.889851821007977994e-01 -7.285520822108376704e-01 3.332096323634343715e-01 1.179585741034681057e+00 -7.521578841694823714e-01 5.165577129125116240e-01 1.497858577801221891e+00
1.512911511360359285e+00 -1.717941384952287542e+00 2.711547600671659897e-01 8.362747440919391373e-01 2.333895998122628601e+00 -1.538586558284484873e-01 -5.648362858847269519e-02 1.079437776296224144e-01 -9.244313650060592691e-01 -5.401000460361263800e-01 -1.545530232657220948e-01 2.201643923923177315e+00 1.010840134957546738e-01 -7.676361423841505660e-01 4.872666822743307868e-01 -2.147634946397062594e-01 3.416488092154187223e-02 -6.502910962032318332e-02 -2.873685977443974915e-01 -1.172595122007962454e+00 4.927442068348892867e-01 4.894287014595488650e-01 -7.775079018217549987e-01 2.821037452361465636e-01 -9.577801134816495976e-01 -1.624144370574386098e+00 2.188970599344023937e-01 -1.973931372982313581e+00 -2.104121473382279395e-01 1.724633269149943526e+00
-4.522754451764050831e-02 2.769069844625650020e-02 2.005298904301580531e+00 -5.691081894837219934e-01 -2.424529706739834811e+00 -2.245826574665733322e+00 5.520434163255144577e-01 1.647985974653488395e+00 -3.818751907969954451e-01 -5.175624981573814232e-01 -2.649892995600351409e+00 1.115281277776735580e+00 -1.997198563933105797e+00 -1.946037990898023873e+00 -1.687702334718331088e+00 -7.102940679563660709e-01 1.840880767834304654e+00 -1.471629439254384941e-02 7.535022714072037164e-01 5.486909617033383091e-01 -5.887471632615811634e-01 1.219729220319228924e+00 2.329992092752752042e-01 -1.854931396031234969e-01 5.341938336831649758e-01 -1.606801556709036571e+00 -2.791516063567493489e-01 -9.919317945256096031e-03 1.872087011971965420e-01 7.187737145071061429e-01
4.621292469320033014e-01 1.575006808648087953e+00 2.210745700282432669e-01 -8.570892235633273959e-01 -8.050153513131197425e-01 1.003898113366725520e+00 -9.709195955265720324e-01 2.933090327818821952e-01 -4.828335480244829725e-01 1.597810221640867390e+00 -4.535053713916590290e-01 -6.276053967373093068e-01 -1.104106348567394091e+00 6.589105417617429072e-01 -9.246286341867463454e-01 1.040495436578871002e+00 1.183098609243874888e+00 1.036365822935592540e+00 -2.649487747845208352e-01 -9.915374934805183393e-01 2.454002938489827645e+00 -5.776370104049685095e-01 2.464866014803534622e+00 1.550661660339443193e+00 -5.990588153280681505e-01 -3.462569061449912167e-01 -7.992059696775705158e-02 -1.544792849188409312e+00 -6.221089117880410635e-01 4.643812953550892630e-01
-5.198704830973156499e-01 -2.351477759438961979e+00 1.999935923561135365e+00 -1.250593005378130673e+00 1.287074605032951125e+00 -2.161646136173994925e+00 3.293739439557165638e-01 -4.018149009829516394e-01 4.577435673412186823e-01 -1.252581130795346720e+00 -1.488491041386164893e-01 -5.016553568806667585e-01 2.343372449408069880e+00 -4.598807522328503539e-01 4.856486385533299033e-01 -1.464022483280484066e-01 -8.232070863516579573e-01 -1.335185496146157613e-01 4.427874667143919529e-01 5.437039290153580229e-01 -9.400177706682322221e-01 -1.555964856333238000e+00 -2.363842820990297078e+00 6.288041660312417847e-01 1.472257766060274031e+00 -6.115963136084610063e-01 1.102276320695428913e+00 7.249495446424368827e-01 1.933266462508320960e-01 6.058090712136769973e-01
8.784582648676705907e-02 3.482720081878890039e-01 3.317304169124873914e-01 -4.244524528981185041e-01 5.918429393849447204e-03 2.349273383688728067e-01 1.442700464143796601e+00 -1.084381418327728941e-01 -7.800654429352709140e-01 1.114979269510965737e-01 -3.550314978189357262e-01 9.967157061762708103e-01 5.613574847650865118e-01 1.177787379459016348e+00 -7.049564870138134987e-02 -1.024289753064542285e+00 8.288725305952631128e-01 6.691999658558982489e-01 7.544788134906507161e-03 -5.796363177066335970e-01 1.630822157016111662e+00 4.343218308377569392e-01 -4.709875650869692065e-01 -1.690255850283062244e-01 -8.915442243264710687e-01 -1.725511057616041788e-01 1.165733721463891204e+00 2.841515887477898072e+00 9.377497291532322921e-01 1.435756171507194257e-01
6.893784874782500349e-01 2.189426043851466552e+00 -2.011369059148175431e+00 3.249202984410139994e-01 -4.788113221629912153e-01 -8.711786562131756950e-01 2.931244486905303787e-02 8.638116683771703830e-01 -7.557516394415999539e-01 6.495066576401801184e-01 3.514507489934340367e-01 1.531052652064267328e+00 -7.461979064218818847e-01 1.176109007359357861e+00 -8.581241149992098194e-01 -1.277478610405682335e+00 -1.901304483558526048e-01 2.833498551337186866e-01 3.978942150495223817e-01 -3.508688149506516973e-01 1.169625390696903189e+00 -2.718243147243024627e-01 -6.372240469766417004e-01 -5.509352781185251624e-01 9.030387291282619966e-01 -3.903914142259428538e-02 1.282687924859394757e+00 1.023154856836073628e-01 -6.807964756403758200e-01 -1.749141513846974805e+00
-3.197300650256901244e-01 -1.339604273947209379e+00 -1.184268701096951926e+00 -6.667236122865209946e-01 1.454466527088670080e+00 1.338231959034249727e-02 -7.153188664507729166e-01 -1.044858433769318973e+00 1.351939694890971433e+00 -1.336010173326089179e+00 -8.290225140252619473e-01 -1.836037911412540524e-01 -8.418435967972349721e-01 8.867451136540610568e-01 3.809545335083038692e-02 -1.484094669061580829e+00 -2.026527230577090388e-01 2.248619667028096958e-01 -8.993043982055826113e-01 3.799363683171352868e-01 -1.937301422203758783e+00 2.195684892435442181e-01 1.824444809271975609e-01 -1.019143778864472383e+00 1.156589671451974555e+00 2.532479050319233149e+00 1.104039022910744849e+00 5.970468758645439827e-02 -3.745036484482516109e-02 8.042979061217667702e-01
1.869584028951706001e-01 1.019153790221305922e+00 -3.919874495007156789e-01 -6.063234734605716936e-01 -2.258844564284439305e-01 8.268303771791052359e-01 -2.972256411313583535e-01 -1.198315928050475154e+00 1.067327765581800730e-01 3.027608942596816677e-01 -8.651590332547570705e-01 -3.449255971880711980e-01 -1.216431600460152751e-01 -1.372430947128285839e+00 6.530702234933138950e-01 -1.170745087932843154e+00 -8.208074368260199760e-01 1.155640206478302456e+00 6.899374887069195106e-01 -1.327258413643103152e+00 4.241559186992488462e-02 -1.963436236363346465e-01 -4.455005412740402349e-03 -2.692830822458785800e+00 1.650319391664340607e+00 -3.024727211515155778e-01 -4.383557917915863467e-01 -1.018414416026321101e+00 -2.189824207227500652e-01 1.150292494440949165e+00
-6.080766168009973383e-01 5.444771790474919188e-03 -1.136384139104448909e+00 1.637921828543833946e+00 6.157326638886025938e-01 -8.345084930587916006e-01 -1.054617079625691067e+00 -9.115350275374085598e-01 7.218885299655521939e-04 -9.330651209568832094e-01 1.168709570440885859e+00 -1.605164378892665944e+00 -6.113182092573516968e-01 -1.098975765718383180e+00 3.709539513937976096e-01 8.997378524144118428e-01 3.708149275534624034e-01 1.907491825326429816e-02 1.901322691548499796e-02 1.140205434616401864e-01 -5.459557653400129995e-01 9.567917371640938251e-02 7.993684091072649212e-01 4.667209600308103723e-01 -8.924433969680209966e-01 4.049746644564918840e-01 -5.412998201547356697e-02 -9.712701638494805056e-01 -3.824205173949709047e-01 3.401798260867036627e-01
-7.004593723786890491e-01 1.078733562551195346e+00 -9.724091543350118494e-01 -2.644947225982968164e-01 3.925900532736683046e-01 7.431069213408573182e-01 -4.945409530851711984e-03 -9.610566696724314184e-01 1.034147970695085794e+00 -1.124331782220264531e+00 3.696720442024873932e-01 6.695845911047162424e-01 7.452173539111034417e-01 3.458184102243687663e-01 -9.699690948749642994e-01 2.444501868615890638e-01 6.670320773748010801e-01 -3.420619982570590190e-01 -2.141057032020534656e-01 9.173876707773280792e-01 -1.548176541866529199e+00 -1.518725906874300202e+00 6.156487624234623784e-02 -1.386968421971291221e+00 1.445897307928455611e+00 1.636725079989781451e+00 1.586118429631927951e+00 -8.672070816559026563e-01 2.700658847073766466e+00 -2.040921139732213008e-01
-6.130643924958015800e-01 -2.940964125747322910e-01 -1.199110653835240986e-01 1.335348408822867983e+00 -1.451516499020970130e+00 -5.948646282389565831e-01 1.209481658034972096e+00 -4.713445823680595392e-01 -1.138718034873110518e+00 -5.846079481675762329e-02 4.094264478999626311e-01 1.072535745564218573e-01 -7.963894120843619806e-01 1.212233193248135388e+00 1.175160170636250889e+00 3.592963306941238666e-01 2.201162359710588046e+00 -6.117715125919394037e-01 -3.380417605693901706e-01 1.143871886796043791e+00 5.784809419451685253e-01 4.560502966180106643e-01 -1.075410183027989408e+00 1.835636665671403600e+00 -1.169820378950384931e+00 1.279302386525801583e-01 1.382922778044124890e+00 -9.338368829036859387e-01 9.527934923063544614e-01 -8.048491301953158983e-01
1.075414078785898564e+00 -1.164696613829415694e+00 1.747233077740154572e+00 1.400431337952606548e+00 1.724052423051089800e-01 -6.516907131080033055e-01 -2.084564769617983440e-02 5.936222294542182754e-01 9.871319144124586220e-01 -8.918724505472926944e-01 -1.046005162659684240e+00 2.787078360609532623e+00 -3.719776225130456693e-01 -1.811369714198983460e-02 -1.678952076296436724e+00 -8.930487410880498800e-01 -3.648053423605340240e-01 -9.952548498164279778e-01 5.364323289633148029e-02 -1.623699922991739930e+00 -8.154468338184442944e-01 6.615114633551714141e-01 -9.980020998538802202e-01 1.069121086881787308e+00 -4.251048699936009756e-01 -1.946947899790682501e-01 -5.464117997837257823e-01 2.890880311122903112e-01 5.480256257842992529e-01 3.629846395990031782e-01
7.325819909279490671e-01 -7.727358691791847978e-01 1.416867358640687469e+00 5.833349272356382897e-01 -1.965451305364764201e+00 -1.773597020298399163e-01 -2.270082222328602406e-01 -5.484890232282970679e-01 1.012506547937281454e+00 8.508738317766700865e-01 -1.789900364960885559e+00 2.395997618774391991e-01 4.420170647137355857e-01 -1.187069785583182213e+00 -1.356171165546271595e+00 1.120870274427037128e+00 8.912280336933886549e-01 2.163296042115925744e+00 -1.539395775187241799e+00 -5.963820569711384412e-01 -6.296339355824228656e-01 7.666337371873078732e-01 -3.943655953088854860e-01 3.310265536851426660e-01 -1.408027108905976599e+00 -6.923265001808909247e-01 -1.662680223182884109e+00 -8.696173938795617175e-01 8.303434303914686287e-01 9.601856412861040635e-01
7.601747394657590862e-01 1.889993105875186652e+00 7.377434217481143586e-01 1.560505680782055815e-01 -1.221166629579177432e+00 -1.498261550324971603e-01 -2.605741278199784072e-01 -5.060911216105123955e-01 -1.082881224315315416e+00 -2.461602877599765593e-01 -1.352655773443956155e+00 1.544000332741763737e+00 3.575969255165760141e-01 -1.320633634564800096e-01 1.352267568740841419e-01 2.305976937614937938e+00 -1.241793108162299930e+00 8.075380809277513672e-01 2.255855149953693572e-01 -1.322964538064500761e+00 -4.638838113697065224e-01 -2.922706545380361565e+00 -3.306915642730349769e-01 6.678968786090172527e-01 7.315534134353978146e-01 7.717952986522059744e-01 8.295876915889289771e-01 -8.943249669121768886e-01 4.641503466849315473e-01 -6.759900417332511680e-01
-1.335879711232503597e+00 4.205014023910289556e-01 -2.864776592604731942e+00 8.991646092496102805e-02 6.832395032880486108e-01 5.049018838216998845e-02 9.607625212074791810e-01 -4.152884239766883173e-02 -8.571579017087275210e-01 5.608548389070923124e-01 -4.711794042547490791e-01 4.062249087754115640e-01 -5.429150155683459822e-01 6.153965960497246798e-03 7.845478254047417721e-01 6.197312604109295187e-01 -4.173796435690487194e-01 -4.219320316323920544e-02 -2.091435432486191903e+00 6.716986085072285118e-02 2.402783678114571164e-01 -7.978298045821364815e-01 9.178678243403747272e-01 9.946489955774105995e-01 -8.361162318353670964e-02 -1.204838566054047710e+00 7.916355014937485057e-01 -2.185051883853625643e-01 3.237761789085695785e-01 3.046661575030114033e-01
-1.691745556358902336e-01 -1.198099625507867527e+00 -3.170478259151432998e-01 4.111065899879930430e-01 5.234345902495269875e-01 -2.753906214801463470e+00 4.073291851036938138e-01 1.952324299480784564e+00 2.494050434643116709e+00 -1.244573953393328380e-01 7.604530997727961816e-01 -1.018167087203570187e+00 -9.254220131457246978e-01 8.561859490828070962e-01 6.124554128328921765e-01 -7.690547629497960225e-01 -7.677339004418203272e-01 7.452369039099004944e-01 -4.927146425700220100e-01 -2.665324017924657896e-01 1.319226291156834430e+00 -9.996389612489369192e-01 -2.155916851621073160e+00 1.523762303175699717e+00 -9.252820638485328431e-01 6.074404289874665297e-01 -8.965697527002981504e-01 5.761802842054811746e-01 2.025186199503626328e-01 -1.626188411560076930e-01
-6.526993240707730237e-01 -7.890874982835374141e-01 1.137196145905924105e+00 9.114878475659660140e-01 -2.923085648011380377e-01 -7.882269221090038025e-01 -9.628481905681951503e-01 1.690224025886661874e+00 5.542170959590002333e-02 9.521743335170431699e-01 6.188949803226324597e-01 -7.554821809172801439e-01 -5.830097410278486381e-01 7.642244056433947774e-01 8.493307705252979289e-01 2.301098486773088148e+00 1.804355304286342720e+00 -4.565290844697384998e-01 -7.153135945998419232e-02 7.693108060924825908e-01 4.110974788681587277e-01 -6.795058722963749354e-01 5.426798741111271696e-01 2.865919127082820483e-01 6.354551161248275237e-01 6.719252902320702603e-01 7.671959926640624650e-01 1.934057542247439310e-01 -1.471718492067070061e-01 -1.137519422341939368e-01
2.281520348776817642e+00 -5.446957851428473329e-01 3.591716672400072780e-02 -5.905790033260033267e-01 5.989951385724244792e-01 -1.082489156527144114e-01 -1.523806019454195526e-01 1.744817841192439323e+00 -1.239492156049105454e+00 1.307561024699080088e+00 -1.868659223078889819e-01 -2.517965820998154247e-01 -9.717570379693487581e-01 -3.936586039085727129e-01 8.812399240467234662e-01 3.594411290711039264e-01 5.431784217869903980e-02 -3.742900707894619705e-01 3.725030207055118892e-01 -5.135149602901677851e-02 1.609623937186740905e+00 -5.426652581116152285e-03 -7.117100843041314351e-02 1.173313801696611369e+00 -1.565796532524796225e+00 1.486120308352944619e+00 -2.788586626386332368e-01 -1.350903074088652511e+00 4.258478236649846371e-01 -1.249253759323100343e+00
-8.736343102687771367e-01 -1.459479399134963273e+00 -1.234388983590832822e+00 -1.621959948587788247e+00 -6.523698374697126656e-01 -1.267165069820997081e+00 -7.342715983247338762e-01 3.438805275942685147e-01 -3.414259552847318524e-01 -1.548792098318040988e+00 -2.667080425417462930e+00 1.457087721143591197e-01 4.261797491951614322e-03 2.509446786305827848e-01 6.034525532371210615e-02 -1.331347688701612908e+00 -1.541356193585437850e+00 -1.180539781510636432e+00 1.778991008954124986e-01 2.692772287394287201e+00 3.154170368196095864e-01 1.785378666874069264e-01 -1.091646846394123960e-01 2.127089502040835356e+00 -6.627566856967138653e-01 -5.586323380184885501e-01 -5.915793641008216391e-02 1.625415130901390615e-01 -9.747118902599059831e-02 9.725049446047424606e-01
-1.856148395165597639e-02 2.198798961282070419e+00 1.506979409383653046e+00 -6.613189505238629140e-01 -3.854031356867115288e-01 -1.067055594078067937e+00 1.290561477146056957e+00 -4.660429106601256255e-02 -2.656697524205854921e-01 -1.334855532893646446e+00 -2.081221512219783576e-01 -3.788040553014266898e-01 -9.416806363839407279e-01 7.925698848852927858e-01 -1.417535548076186647e+00 3.632956814558923053e-01 -6.110687506306325956e-01 1.465628949378227519e+00 1.301195907436962340e+00 3.563648555816972263e-01 -4.420822367959678645e-01 6.241606449834319337e-01 9.977755270002476307e-01 -1.399961928687195822e+00 -2.283588153331152781e-01 1.765741107832055290e+00 5.177981810541829599e-01 1.066341201528367755e+00 3.987945883222975829e-01 -2.382948166158211034e+00
-7.243780377849639018e-01 8.093786654582533213e-01 -1.119554293596590200e-01 -1.808507757265100269e+00 2.615191646739910558e-01 -1.771843334862587271e-01 -9.492890023455070603e-01 -5.555958851342280846e-01 1.408831399564060671e+00 -9.789779997313148296e-01 6.025708744171544007e-01 4.072432483649402607e-02 1.142761456692890309e+00 7.811328030818349699e-01 -1.234999763404717843e+00 1.052641353111849920e+00 -4.326371562764304013e-01 -6.468407163471440180e-01 -6.272481809270709086e-01 -7.153702858970024947e-02 1.124118753503469820e-01 1.510978135514186582e-01 3.694716655447827791e-01 -4.312700174373897410e-01 1.100974951447736272e-01 -4.451282693939990209e-01 1.452185545774378861e+00 4.627912411786996860e-01 2.366131211424072622e-01 1.660407042577645598e+00
2.174676272439589386e+00 1.397584611094993823e-01 1.486175816492119939e+00 1.285755987128256228e+00 5.247340249438595672e-01 1.112774510646582948e+00 4.550849954631586147e-01 5.697185181167890855e-01 5.053873611517378794e-01 -1.690011614291839992e+00 -3.935675237263410176e-01 7.868880419025399142e-01 -1.516531182207244477e+00 -1.846065846807308231e-01 7.364141989404707767e-01 1.445721976756986882e+00 1.162659900458217654e+00 -6.419607573884843488e-01 -1.991482588162745981e-01 -5.278158916154320757e-01 -2.845673550951960951e-01 8.123689065775917539e-01 -9.829592179728179335e-01 4.190307928963993289e-01 4.025274032851507422e-01 1.298815009961109102e+00 -1.123471574691939256e+00 -4.698454604902840837e-01 1.127840111284656999e+00 -4.592533839744260549e-01
8.016766144109155334e-01 2.819266209222740308e-02 1.104783616644598565e+00 -1.171245331139008305e+00 3.341704775808571753e-02 -2.264417132787778897e+00 -2.243270332358797692e-01 9.112212869590395892e-01 9.868047884012674797e-02 5.067696088769972906e-01 -1.571364498272313781e-01 4.776324737396622222e-01 -1.571167764400656752e+00 -1.368394840537643375e+00 -1.166994012562980965e+00 1.900045809723047485e+00 4.679569396412559812e-02 -7.755913935925424774e-01 -7.159333249216369710e-01 9.572945605059638430e-01 -3.119507700688744500e-01 1.035386198321076145e+00 1.875338986476817738e-01 -4.831108606845382902e-01 -3.055046485547824986e+00 -1.092954401281676924e-01 -1.271161572129603790e-01 -1.046906495342410315e+00 8.748340537188696586e-02 -6.722403194728703291e-01
-7.314835142984198457e-01 -2.887973011423717873e-01 -4.240338847138569456e-01 1.230267289623374172e+00 3.904877496848277452e-01 -3.538527599829949244e-01 5.238643890727771035e-01 5.176219523151924795e-01 1.351236718953464422e+00 5.545795938205502207e-01 -6.314920821125218353e-01 -2.109720816445154856e+00 2.552792884196605772e-01 5.991452184953182103e-01 5.416236042368723913e-01 -3.246936122913300360e-01 -2.227588412213998836e-01 -7.366510643661341833e-03 -1.225378177393162016e+00 -5.552707986161045106e-01 7.347038361615451096e-01 1.527699119591521493e+00 -1.186628945549529135e+00 -3.551678569958906517e-01 7.326815857223620831e-01 -1.279376601478473763e+00 -3.287223546219776860e-01 -1.995221579135098677e+00 -2.357688523581475404e-01 3.650595525049613044e-01
4.365877970987350198e-01 -2.943567942301347218e-01 2.515427981976690597e-01 5.028309470538726567e-01 1.222237009850965395e+00 -4.279735687793430610e-01 4.642866930035004502e-01 -6.117954237791852767e-01 1.624364463224058364e+00 -6.888273616275432110e-01 3.553749463122782282e-01 1.614570022197500787e+00 -1.142221604241409505e+00 -3.752761360043307959e-01 7.391224895376956594e-01 -7.693606607604152048e-01 -7.149323162752350136e-01 1.373470276491438158e+00 -5.174325749139615516e-01 1.750669943744803947e-01 -1.751457458504710463e+00 -8.962139769660121269e-01 -7.138439574599697579e-01 -7.037469388965060524e-02 8.107469606807878038e-02 -1.157188955561678112e+00 1.722566135730640435e-01 1.827527297926154315e+00 -8.606806452761702753e-01 6.635673326245955517e-01
1.189586984246616019e+00 -8.015301758086464945e-01 -4.792476972308984395e-01 -7.906887798078126028e-01 5.203996847768939116e-01 -3.732516832360332493e-01 -7.642574881793371411e-01 -5.572822291722230315e-01 -1.853728097616451354e-01 -3.037570798769648750e-01 -8.368912492350759624e-01 7.894792006447888255e-01 -6.703067890606869694e-01 -6.215165953829469014e-01 -1.113304747761593161e+00 1.243240209826775716e-01 6.769770104168467695e-01 1.423744182366453240e-02 -9.287722482144288305e-01 -1.244716554713446222e+00 -1.117418959228514419e+00 -4.056423788826667431e-01 2.036067212509843571e+00 -8.309596196714799099e-01 1.310791090459332509e+00 4.137650817724988772e-01 9.680110226349724067e-01 1.018022455761215195e+00 -5.432867942355432689e-01 -1.588341429596024978e+00
-1.856218519728726868e+00 9.434801999900113145e-01 1.229188714348476097e+00 1.409855077765665987e+00 -1.064636008845371462e+00 1.164485959146689176e+00 1.838466272846268623e+00 5.403447911628500577e-01 -1.901694989843663031e-01 2.469486008534164945e-02 4.341480517674078388e-01 1.056425614621439468e+00 -3.510560773454662886e-01 6.018918903092721484e-01 1.714812668549987318e-01 1.212897090437754288e+00 1.584605279843928072e-01 -1.860668298994635705e+00 -3.566923274905627328e-01 -6.298802522974917828e-01 2.108281043825204759e-01 -1.131964570295072026e-01 2.731692519989513901e+00 -1.196650395013643342e+00 6.885145549363008710e-02 5.863068435574323584e-02 1.598657216641533596e+00 4.229231555391936292e-01 1.225288396254219592e+00 -5.064874280403450224e-02
-9.964756395015128554e-02 -9.379883290274061425e-01 1.685904297533127316e-01 4.779556502668907414e-01 -2.569667047838293250e-01 -5.465225929194778010e-01 -3.595285309997313106e-01 -2.156341969761716992e+00 7.183227358701638199e-01 -3.987097749357045862e-01 -4.276554030977616772e-01 -1.735802001525616145e+00 3.285560417593982319e-01 8.484661841620276812e-01 3.051593772237006785e-01 -3.205425232077980247e-01 3.369991304920605391e-01 1.253395057901867560e+00 1.209324601221255374e-01 -4.954813934224374106e-01 -2.071949086737540746e+00 -4.614215340600237429e-04 2.678957349443624736e-01 -7.002769968804855027e-01 1.057249267115961677e+00 6.325004617771570192e-01 2.380266697836166956e-02 2.285922604784202117e-01 -6.010654237458096238e-01 2.133170355508533511e-01
-4.087527451486563379e-01 8.833374582172081046e-01 -6.419125495040607365e-01 -5.649479000641934867e-01 3.815232605506603258e-01 6.269457583306119464e-01 -4.623652689103788793e-01 4.445601103060619064e-01 1.340912932491167497e+00 3.503894318515382023e-01 1.794808322839134829e-01 3.183521788146799480e-02 -2.327337304651307281e+00 -7.863756089284579254e-01 -3.818626531210245201e-01 5.456146862618167503e-01 9.109547740021392004e-01 -8.437829630030218020e-01 1.838896712678146361e-01 1.162063697944869523e+00 -1.167872875973887892e+00 -9.350333611600036843e-01 -4.594073347962924769e-01 -1.645840340687402814e-01 -9.726136090477298657e-01 1.799951800623753317e-01 1.592941659461262205e+00 -2.747808064631785951e-01 -1.471307295653314862e+00 4.293722947283781233e-01
-4.129048158706474791e-02 -4.962898087167277872e-01 2.515742946435989627e-02 9.717398333340201422e-01 -5.332120604301806566e-01 -1.211319415622566176e+00 1.354593734838930752e+00 -8.880952889405321349e-01 2.345601333273815980e-01 9.238443397469462415e-01 1.408959910864895637e-01 7.671232175886242288e-01 -7.774125295520485368e-01 -4.494001302530843955e-01 9.904708267826288770e-01 -5.872154733162996409e-01 -7.334609361321650089e-01 -6.286943077487332499e-01 -1.441627762587296857e+00 8.562014086067788465e-01 1.547302749702628377e+00 -5.299559872293122531e-01 -1.018307153012629085e+00 -2.404281983901531028e+00 1.274653040010491623e+00 -4.628227516351236526e-01 -4.225792560023204358e-01 2.652959250069467090e-01 -3.740157561654808629e-03 3.128873381537468634e-01
1.623437916852074947e+00 8.213670659331914203e-01 4.938762014247119470e-01 -7.470738274680941426e-01 -1.579149303129179893e+00 1.771058846376607043e+00 -7.953712225544455894e-01 4.891495678360538446e-01 1.758546491952885038e+00 4.174746065077825086e-01 3.902209776585791601e-01 2.257164343266811812e+00 -2.868640351693312329e-01 -5.957571005500378325e-01 1.088355031360452863e+00 4.288455959245349169e-01 -3.898161259249106197e-02 5.672825541200284816e-01 -1.944512805815851397e+00 -1.527604585988675101e+00 5.482201446621308705e-01 9.062764220286056993e-01 -4.285092359035737042e-01 3.627708926176652637e-01 1.599746028549867916e+00 8.107361448983405050e-02 -2.110552721497216400e+00 -2.085789479556937609e-02 1.029032152645207754e+00 -1.484270399024124609e-01
-1.424325175083708483e+00 -6.179318682992449574e-01 -8.512833956471108632e-01 3.253589678975857269e-01 1.967960501604724133e+00 8.441338361260908307e-02 7.937938826079690147e-01 -2.989149661551973036e-01 -3.542512153427851418e-01 -7.351316311737751130e-01 4.824748924160560670e-01 -1.870096959454270014e+00 -6.863023702127827308e-01 1.200007308842825221e-01 8.508278547374146239e-01 1.122104231435511468e-01 2.647143305261948076e-02 4.365179385130688594e-01 4.221740731581685169e-01 1.010190529431370887e+00 3.337556304923526840e-01 -3.213366346350857161e-01 8.258744224389706901e-01 -1.537864337690336147e-01 -4.501610108380142417e-01 5.554322723234008663e-01 3.174151439184983436e-01 3.049051349991096505e-01 1.310200073118586106e+00 5.089054048249661566e-01
5.854016469368990006e-01 -1.142026900017280688e+00 5.015409213387359566e-01 -2.047490769514884179e-01 -1.363218123979069274e+00 1.550072228774229233e+00 6.726772026469947097e-01 -7.336032594724493094e-01 -4.436658883934130326e-02 1.096516032103703742e+00 -1.363020408069581357e+00 -1.922456267078430370e-01 2.739926783435852609e-01 -1.552980158818345835e+00 1.948240777604134610e+00 9.318090567169231564e-01 7.898128874002047217e-02 4.168384679087832057e-01 6.643095964355195671e-01 1.132092720356413285e+00 4.808378251889247612e-01 1.285862740851114738e+00 -8.487562567387743062e-01 -4.461469024577904147e-02 -1.106429405339398597e+00 1.339774238051212596e-01 2.152286617888781173e-01 1.925479502727214243e+00 -4.506829112437151230e-01 1.148997603938216372e+00
-1.267801712206088283e+00 4.593786401787020579e-01 6.929700471496301750e-01 1.503345585987501343e+00 -2.447767438709909094e-01 1.619695084022383658e-01 1.426462228394023812e+00 1.411966325494434793e+00 -1.320310398653443906e+00 4.644013957857608399e-01 -1.521443510701353086e+00 2.395978111645908459e+00 -1.627595971582831980e-01 2.441788148205353171e+00 9.081634461372403155e-01 1.128884737009507422e+00 -6.218150572868670345e-01 -4.902066476527979777e-01 -8.763093458561721505e-01 -8.924780326814036879e-01 -7.723659600105539647e-02 -1.806223371769002592e-02 -1.486144740754681726e+00 8.805542499540702783e-01 -1.751915234262595433e-01 -1.806356934004108794e+00 -1.017527134582041581e+00 -1.414708388447745824e+00 -9.424352257255977361e-03 4.543904251373126479e-01
1.736579571823119450e-01 -1.058810748472248875e+00 -1.297826120529108174e+00 7.221315684068084773e-01 1.591329250402495343e-01 7.842189697264420056e-01 2.444384912629010420e-01 -3.604739544220109115e-01 1.049605038256433837e-01 1.154828788539190576e+00 2.125647378495721274e+00 1.018372477042859048e+00 1.063717597108385426e+00 1.351703672451802563e+00 -1.181975103579682607e+00 -1.056226639448989646e+00 -8.088473562944500372e-01 -1.597966944747619689e+00 1.190089514490130673e+00 1.832706229768669426e-01 -1.842588838077170443e+00 1.023018684437989823e+00 -9.178455310452793281e-01 5.759021110745872196e-01 -6.060381816262385701e-01 -7.716814965538207893e-01 2.826383748175764765e-01 9.776653791284518613e-01 -2.910800509066924224e-01 2.104531361463514716e-01
2.796856581754930127e-01 1.880885176591324814e+00 7.628959777579701340e-01 -1.755516594713181777e-01 -2.853752870207931780e-01 -1.119002452969545258e+00 1.119278736220037596e+00 4.321001368182587621e-01 1.775957737381117729e+00 -1.210791920051157655e+00 -3.346482854297739423e-02 5.206120465731680497e-02 -7.335254787226946904e-01 9.423884667739423904e-01 -1.058688172509076431e+00 -5.312380120407320661e-01 5.444717773257667925e-01 9.112817142205777987e-01 2.014889654745734629e-02 9.660198770515436850e-01 -1.704651282276055113e+00 -1.572218763630585991e+00 -2.827806653672932380e-01 2.354829657023920220e+00 -1.954050536270424354e+00 -3.806805463787377164e-01 -1.081406433369364706e+00 -3.690041190896069523e-01 6.201731167655611943e-01 7.390892333642902212e-01
8.856339792780831832e-01 -6.773651242545114526e-01 -1.737040949582173144e-01 -1.024965358228689255e-01 -1.237133704511664156e+00 -3.745734435018083230e-01 3.312625124288736678e-01 -4.519477289157963068e-02 7.191702929573580150e-01 1.058043070077559600e+00 -8.739214002784695401e-01 2.099257067614764161e+00 5.306447424578569771e-01 -8.030717079478139064e-01 -8.583028674508180744e-01 1.065776302469456871e+00 1.345867687419714798e-01 4.357330459782219334e-01 1.099231606294123892e-01 -1.628750607541589845e+00 -8.954120650880241783e-01 -5.057963510504074334e-01 -8.188037918533667137e-01 2.363796238186066656e-01 9.585306674050553255e-01 8.879009305911513827e-01 4.864152102193921579e-01 -1.421643016837173867e+00 -7.194047018523672676e-01 1.581400257776124640e-01
3.323370863898517102e-01 -8.433565613426600160e-01 -1.562826670591386247e+00 -2.409146525445610421e-01 -5.365783438287432539e-01 -2.327339453106138378e-01 5.705207824069202793e-01 -1.323811927906322072e+00 -6.154305192540056035e-01 1.693758633008831116e-01 -1.513627327122897714e+00 -2.419351360019950103e-01 -9.900976433856405468e-01 -6.679735572570791868e-01 3.517603091723238151e-01 -6.376044614836379187e-01 2.117685638900697331e-01 2.015379703721389859e+00 -1.470633477270514300e+00 9.628071095248844635e-01 1.111117577045854343e+00 6.202614345270354157e-01 -3.578842436207511635e-01 -1.643673117000157946e+00 1.553896841374870386e+00 -8.863352851735146753e-01 6.880822443260781185e-01 -1.862078495528075583e-01 -7.735590273033070563e-01 8.910439893725826677e-01
4.740310625126256672e-01 -2.569746408351347156e-01 -8.773995172028880019e-01 -2.831952769825933913e-01 -1.160107853121016830e-01 9.268162569058717437e-02 8.821512394559528902e-02 1.423220293329372499e-01 8.036689802925772730e-01 3.018374363512586478e-01 -1.073345507928125331e+00 -1.076085554561966084e+00 -1.609047223144620231e+00 3.625370995773998239e-01 6.671004020319984407e-02 2.415713454601427224e-01 -4.610138797470215155e-01 1.207253075847801949e+00 -9.500099278417409865e-01 -9.770751472279622929e-01 5.716658574123226755e-01 5.081243973132996139e-01 -2.079070561646016446e-01 -7.410263132049013102e-01 -6.828873821301549851e-01 5.531359317224676664e-01 6.534140136730668402e-01 -1.834685652825461880e-02 8.220796096514196849e-01 8.191039163244161481e-01
-5.678410657547934282e-01 3.947487546477547182e-01 3.564557546390553777e-01 1.418197067299388214e+00 -5.259520173350872296e-01 -7.049985345923132085e-01 -8.735395358681644629e-01 9.839480962368112316e-01 -1.243173552861757125e-01 -3.663561378921403322e-01 -1.072625515141343966e+00 7.438208674592566849e-02 -6.773902300048058045e-01 9.261815590106857454e-02 -1.094871089703428169e+00 9.436088164977959325e-01 7.015721702744988075e-01 -1.708198994952301542e+00 5.942750297976970297e-02 -1.598349511303871484e+00 -3.680110925955861756e-01 7.871133990076979448e-01 1.971715880487188377e+00 -6.803369247033975997e-02 -8.207967142293360885e-01 5.285525498991158200e-01 1.006568564584915171e+00 -1.770843785529275516e-01 7.887357334803634101e-01 -2.517942051292500483e-01
7.645146393751190983e-01 -7.103856801826040623e-01 -7.405718155558729254e-01 -5.568406861894734973e-03 -1.521761749214281867e+00 -2.060783075522318875e-01 2.254959660513224051e+00 6.890727058742427413e-01 -6.027250035237281534e-01 1.153548889403464672e+00 9.355216324443182963e-02 -1.288895446158788427e-01 -2.852518387064788552e-01 -7.578013900511638701e-01 -5.583283088923777226e-01 9.227077283688873699e-01 -8.682851491289470536e-01 1.242549753866226681e+00 -6.508271868787749437e-01 -1.908588214897009250e+00 -1.562209253408797516e-01 -1.336062754986971468e+00 -3.953447381047510423e-02 -3.166710579211527321e+00 1.699777095043749853e+00 -4.364713503020787866e-01 7.024619933468814192e-01 -2.514274585955733166e+00 -9.869087426789847628e-01 -1.909713746627738518e+00
-4.076810485601014000e-01 5.251567882383739727e-01 6.995837124713116806e-01 -1.337637069894302977e+00 1.045574988418720430e+00 -3.803008371094053763e-01 3.903788951271720820e-02 -7.118842105835507805e-01 -1.210057704833888081e+00 -1.537848244389320440e+00 -7.882930759119360919e-03 -8.337310913608045881e-01 -1.217992937858306757e+00 -2.504739314816277207e-01 9.454328927306839825e-01 -8.211863328446790122e-01 -4.540550795561171804e-01 -1.322502393579482627e+00 9.866417256825361637e-01 -1.534985944578966421e+00 2.849604659581871147e+00 6.332584870470099325e-01 5.731734028302373218e-01 -2.657233292502236277e-01 1.150428237218432459e+00 4.134802480927092239e-01 -1.180296667180699144e+00 -9.251203399043847475e-02 1.859674412845790936e+00 -2.094940779074966619e-01
1.417307652413558536e-02 1.828503832522127448e+00 -1.598441285448056526e+00 -1.816818296265138466e+00 -1.344721546987195371e+00 2.534619399357643799e-01 1.175603132293500941e-01 -1.041051216396343904e+00 -7.082533443971319453e-01 -3.276471614366801427e-02 1.229140025757404775e+00 4.946064152850648821e-03 -3.947618681104788640e-01 -7.919987506803739530e-01 -4.504557051303849646e-01 3.151609330160069777e-02 -4.735829312271344627e-02 1.122351948634635832e+00 3.112929322964863021e-01 -9.937042929434907190e-01 8.455284741714205188e-01 -1.722326956420999977e+00 9.815811974293873199e-01 1.860802159701129832e-01 3.303882670176644387e-02 -3.383274035577017030e-02 1.136466686772927170e+00 -2.964031463319359849e-01 1.568905309955025196e+00 -1.164748131333041004e+00
-1.787497796487501400e+00 -3.493320350940529728e-01 -1.199831895012746896e+00 -4.238922844617583063e-01 -1.396712683587439496e+00 -5.006642552337207952e-02 -1.887974125434176420e+00 -6.051130013591440315e-01 -2.350991428970825026e-01 -2.196832696050834977e-01 -3.795332755618409659e-01 1.725436480059041044e-01 -6.184535712169522137e-01 -1.071707136123663195e+00 -1.612002584329835342e+00 -4.620809552625271266e-01 1.033401625736691365e+00 8.084527385651429920e-01 -1.420855978774021589e-01 -1.337033590609519429e+00 -7.124754299050041206e-01 5.074651900686295569e-01 1.233010504051286427e+00 -2.127780762055885289e-01 -2.188174048818423589e+00 2.894797747285059175e-02 1.312682989672444123e+00 -1.490705201316389283e+00 -1.861635809591838830e+00 -1.484750004057793005e+00
1.203443385270300592e+00 1.446193988864599822e+00 -3.703461542066254636e-02 2.055097443285262671e+00 -4.865021898387871802e-01 -1.750841770693244981e-01 3.014750089596486049e+00 -1.497798065358955766e+00 -7.539131376156500419e-01 1.967707934566388595e+00 -7.141770790524291090e-01 8.650624533803461524e-01 -7.058019719418683058e-02 1.761763429289317395e+00 4.608777698506511845e-03 5.422941952697452050e-01 5.863698422194285609e-01 4.808102895420311995e-01 -1.158254668607260340e+00 1.285802311758255323e+00 9.769679232050554329e-02 -2.796161672214423910e-01 6.323768429599252450e-01 -3.750381526911854002e-01 2.116863483334215923e-01 8.272365549214899527e-01 8.656449646057269298e-01 -3.772434803644052481e-01 -1.376172899678078210e+00 1.826666022587638549e+00
-3.946465569928956363e-01 1.696242468545946513e+00 -4.840456891093870562e-01 1.629344133995839217e-01 3.099526972000317127e-01 1.122244861818809669e+00 9.278686244952516482e-01 -1.810482518413727870e+00 4.681326865503690482e-01 9.405209362291587771e-01 2.089078327520150491e-01 -3.990821395723383458e-01 9.640119066113562729e-01 -7.328906817865285528e-02 2.501696392707554395e+00 8.942145166376265220e-01 1.073832207304951547e+00 -1.359037065551617740e+00 -5.705081457282077384e-01 1.153801578919450010e+00 3.321633012433113374e-01 -6.378704418785195729e-02 3.234786657732767745e-01 -6.329950895307339120e-01 -9.484303997781532436e-01 -4.844928820316076190e-01 7.360322662320606391e-01 4.665890541515581580e-01 2.365238254350244540e-01 1.864418359539586345e-01
2.183939499798250583e-01 -2.221346539625739316e-02 -9.065324049515868232e-01 1.027289864362649130e+00 -9.109014264117785142e-01 7.789845368459246133e-01 1.956603416087904668e+00 1.404839435323673724e+00 -2.133545848289103708e-01 1.362665743038257715e-01 -1.757085629193306353e+00 1.599810316665541132e-01 -1.359346486058331770e-02 7.224880277117576854e-01 -2.690760538644729749e+00 2.031175923350133417e+00 1.303775851219461046e+00 -7.654618442769705045e-01 -1.624895313832465993e+00 3.526510235114803382e-02 1.123681722081705248e+00 2.473407130465717640e-01 -4.452272572096275249e-01 -8.575927665840153979e-01 7.548920388465027997e-01 -4.008978910430783249e-01 -1.953314942848364266e-01 -5.587638321715810985e-01 3.152602086618803978e-02 4.533734609018218453e-01
1.365191414203122733e+00 -7.743161206056107249e-01 4.100131034436472199e-01 -7.901529815942133217e-01 -1.551278650861319219e+00 3.674131984250866290e-01 5.526771453482284269e-01 9.222029020133238886e-01 7.178413822187353077e-02 2.157923921818365731e-01 6.362064012532510082e-01 -5.037058436365393632e-01 1.033720340462456200e+00 -3.607332371482957489e-01 -3.103294775224248458e-01 2.990926813522705729e-01 -9.464880686422932898e-01 -5.770981728663538979e-01 1.567292876158906667e+00 -8.325488503455461542e-01 -1.249459850455009041e-01 5.456355784769909567e-01 -9.495650200258635987e-02 6.231066398249763827e-01 -4.448002446980880986e-01 6.480545949789248139e-01 -1.873245685180034537e+00 9.235629466107755370e-01 -3.074777111684150466e-01 2.206695641722297818e+00
1.298046762289140066e+00 1.163645369756863612e+00 1.637708062489717786e+00 -5.292417529817676769e-01 -1.953107691996971429e+00 8.162079655464494765e-01 -1.092632310785702554e+00 9.565858751920338632e-01 -6.797658526186936001e-01 -6.143142263035438200e-01 2.038198504374303166e+00 -6.210323251127170679e-02 9.139885610410687367e-01 -7.779836494478046260e-01 -1.002450490305965225e+00 7.838627922813297122e-01 -1.462994083506911291e+00 -7.111476353969766739e-01 -3.554976521163649150e-01 1.308162046980174686e+00 -3.972482954119575527e-01 -5.431199298258205799e-01 6.738711364135001602e-01 -5.014173053206326391e-02 -5.070697319290967675e-01 4.471162041070247950e-01 -7.236934322568252531e-01 2.500871475541293631e-01 -4.024757673000319835e-01 -1.732521049604543728e-01
9.573508365224273620e-01 2.301540387385415665e-01 1.598296381137673139e+00 -5.139462530542715513e-01 -1.147422110953800534e+00 -6.531701169303431032e-01 8.607294260497971861e-02 3.576948494171396375e-01 -1.137630467717296812e+00 5.836499555442610232e-01 -8.115333202776631172e-01 9.618240549421004371e-01 -7.409645045115220707e-01 -8.609512793438437450e-01 1.770642308441828794e+00 -7.532017304774955013e-01 -8.073271589005942550e-02 6.153593512190916881e-01 -5.039856047524388094e-01 2.020163395003185258e-01 -1.471758216243465478e+00 -6.553465978715879992e-01 5.673840451675747909e-01 -1.825777719434159008e-01 7.026866288926832960e-01 -1.070383360466253264e-01 2.569946478315090488e+00 6.359039464416150755e-01 1.229312211193618089e-02 8.179940409572815652e-01
-1.117599736362113738e+00 -2.265411503862146680e-01 7.944533525133739005e-01 1.577911943864331201e+00 8.594539910634217961e-01 -4.540129674656153136e-01 -3.177432312014795701e-01 8.341051097458032082e-01 -1.837924648283782547e+00 -1.244548087855354562e-01 -7.931435408961725608e-01 -3.921060959265521562e-01 2.092965166745448247e-01 1.266881345182313101e+00 -1.651931053575278918e+00 -1.919210515386017210e-02 -4.005655754768459031e-01 -3.089089259861159675e-01 9.449610763810970537e-01 1.868283257167392630e+00 -4.137460643201855137e-01 1.516948800505908412e-01 1.022661181824462640e+00 3.120287852632327441e-01 1.775326320642677924e+00 -3.120459682549509006e-01 2.998960694103045554e-01 -1.963112512454165293e+00 -1.001474827064054107e+00 1.787346875228506216e+00
1.577698576412862375e+00 2.035636859403571641e+00 -9.298962606300985589e-01 1.937966242160029939e-01 -4.128721993512866617e-01 3.723250860657122824e-02 -1.921831400766819964e-01 -2.031551509424618738e-03 5.933784467588693046e-01 -6.470462824107301447e-01 -3.993801018721702678e-01 -6.148366449976880865e-01 4.109496439922970534e-01 -4.740374910439305867e-02 -6.322848979215629495e-01 -3.917593282924012321e-01 -1.364364968886371265e+00 -1.841812312325181722e+00 -3.044578633263106404e-01 -2.858960037762897644e-01 4.775707965242553255e-01 -8.094500611674826374e-01 -6.741253167535971036e-01 1.207783463595696327e+00 -1.986514512514374331e-01 -8.474768091845245044e-01 -6.672962468802285940e-01 -2.027163126683950711e+00 -3.063928733569702967e-01 2.769485045856258099e-01
8.988278602251918992e-01 -6.040907523640776100e-02 5.093659842084427014e-01 7.666836859125871761e-01 -3.712313646718716220e-01 -3.753957309889781047e-01 5.813617451732967512e-01 1.578666635013118436e-01 1.709455184515612958e+00 -1.907396292599803089e-01 -1.917517109753458238e-01 1.854386669007219643e-02 -1.968081005170007947e+00 -3.426500763168947167e-02 1.822581407490736494e+00 6.268488307417935390e-01 -5.323127291030758240e-02 1.916589584951964076e+00 3.695514648347021924e-01 8.427986766551252007e-01 -2.163649870304091005e-01 -1.340052139506365814e+00 8.010443729275332214e-02 1.255891434340956181e+00 4.426502211046356300e-03 -2.297324679885449084e-01 -8.022895402782729279e-01 6.515962013094260818e-01 1.097187644632922066e+00 4.981885661735721560e-01
-6.053514299483903072e-01 1.499109444449823469e-01 4.088304724647865984e-01 -2.198304363218905877e+00 2.035421972456200823e+00 8.666241881939873437e-01 1.356431895465973758e+00 2.820721330655980852e-01 -5.913576113146109398e-02 1.360319656220542184e+00 9.597192601147308544e-01 2.540360441810155301e+00 -3.867119660458321895e-01 1.906275585802728323e-01 -8.635687470139482569e-01 -1.411560656481920750e+00 -9.584707185271903462e-01 -1.318929055386143911e+00 -7.783049462832989374e-01 4.592054622381745999e-01 2.233506939640966249e-01 -2.556304049258841804e+00 -1.034072659489916113e+00 8.195767870985312120e-01 -2.859210299253920895e-01 6.362861358130695866e-01 1.746615196866392328e+00 4.352470127005472755e-01 -1.269209516097908426e-03 -1.072264911640034457e+00
5.049302934746114913e-01 8.859279460072267964e-01 1.417760364392991024e+00 -6.482746733258262228e-01 -2.380547502622888667e-01 1.348424723747514653e+00 -1.768023057828421507e+00 1.294932186853374301e+00 -4.471735932048013368e-02 8.937133392054334990e-01 -9.404150515623959095e-01 1.506627373896774813e+00 -2.472409259002086579e-01 1.093589367103152243e+00 1.090715730590228638e+00 -4.820932484814097196e-01 -8.350466637497498956e-01 1.277473905234158158e+00 6.374377155482582324e-01 2.741194968567264301e+00 2.029853710111851894e-01 1.251713522369426235e+00 1.591703639422624994e-01 5.083136919859544411e-01 -9.016051378803922045e-01 -2.648562243010786355e-01 3.027982726211405073e-01 -5.144386934261807598e-01 -7.633753089582119566e-02 1.097085407954730307e+00
-1.368274132534228471e+00 -1.122539179213974947e+00 1.604112464143107042e-01 1.857957108225536114e-01 -4.443062123413568099e-01 -4.108759862100139215e-01 6.803155059111302139e-01 1.147719880285099636e-01 3.929268310880191031e-03 -1.769219239663558096e-01 -1.199646014430094665e+00 3.650545021618340491e-01 9.117379269770206074e-01 -2.690700018913336322e+00 -5.077482760158633646e-01 1.369986125038943348e+00 -5.255111700966526023e-01 5.721463112189045797e-01 -1.451772605051600440e+00 -6.957517774992352244e-01 -1.891949841364338469e-01 -2.042313709779309816e-01 -1.761634777872014834e-01 -6.185515074508062261e-01 -2.682118967925619657e-01 9.018425039268923582e-01 7.524164947971162531e-01 -1.061272757170587999e+00 -5.189934402370636329e-02 1.092926559706913547e+00
2.857891735845322079e-02 6.562923199825501097e-01 -3.690633619050077141e-01 1.610179837196922925e+00 5.970534459436714902e-01 -2.182248806059361890e+00 -2.752939107400577123e-01 3.007981693346253316e-01 -1.502133250828995292e+00 -8.229511791961406919e-01 1.387548243321603536e+00 1.544284919965589475e-01 1.946947269193602059e+00 5.432348053086158979e-01 -8.168108119708231696e-01 -1.898791361773492503e-01 -5.726996864071518534e-01 -1.146342939505421876e+00 -4.599916310609278858e-01 1.661616195522724659e+00 4.603917038476475487e-01 -1.168396306106032290e+00 1.688517508430585623e-01 3.345940295903459538e-01 5.530663521754065615e-01 -8.707400268349307915e-02 -9.140558396002097519e-01 3.126780929164353351e-01 2.411654114348976141e-01 6.169147074258449770e-01
-3.461714440092877321e-01 7.828746946217185476e-01 8.289496184736275808e-01 6.116410767765620982e-01 -9.021416931239186754e-01 1.570466604172717773e-01 -1.222409765834266970e+00 -4.358818220305603341e-02 9.017418431322420380e-01 -2.344411978514848727e-02 3.323394473640887137e-01 -1.251653143000705792e-01 -8.072790698775660356e-01 -5.208175445565477180e-01 -2.757753289215100767e-01 8.829476295522313833e-01 2.353720065081220447e+00 -2.283938994331360384e+00 1.392487977282258482e-01 -8.306194973608757026e-01 8.334726048459681902e-01 -1.881580321913655762e+00 1.625092829082107171e+00 1.610322748460471409e+00 -5.657626948378131626e-01 -2.165153467692307043e-01 -2.105867422181780135e+00 1.691456049196559119e-01 1.780786174424384416e-01 1.124089802836532925e+00
-3.377600830724005188e-01 -8.398161739941628623e-01 1.390095576569887914e+00 4.407480906514301133e-01 1.611370892921977216e-01 2.574380456087204116e-01 3.467673065697347567e-01 9.265713865021171225e-01 1.370176252281090967e+00 5.297150570960417193e-01 -6.337257694280822307e-01 2.007058050372963476e-01 -5.111693608651592946e-01 -2.208618923856174865e-01 -3.399871394565273097e-01 5.652107701021176211e-01 -7.865640507953518545e-01 1.267042579578926131e-01 -1.297012578272484840e+00 8.569014901063302103e-01 -3.010413310154756439e-01 -3.589580816782009243e-01 -5.880834605448870267e-02 3.559071307137463003e-01 3.018397213095018808e-02 1.176056325058147056e+00 -1.316791351038407942e+00 -2.555923305704195236e-01 -6.393789153322257390e-02 6.739138735131497970e-01
-1.702730931601315278e+00 -1.133389462657708596e-01 -8.378333019060479891e-02 3.102331894255492273e-01 1.774324416531811277e+00 2.859532335011362725e-01 -3.039326073132379014e-01 -2.150391721971237624e-01 -2.380123874606438594e+00 4.925934786555964950e-01 -1.072814679257177994e+00 2.636960933774523674e-01 -7.376512071247375291e-01 -5.889786049608077834e-01 1.726253419722273641e+00 -1.946205134257822378e+00 -9.171560815230280772e-01 1.533594527080453407e+00 -2.278682100642765163e-01 1.204140797770950622e+00 -1.805751053460005862e+00 1.902986335664194062e-01 -1.083754960200151274e+00 1.457462301075945210e-01 -1.497481023318202764e+00 -1.090425724411547614e+00 -5.584700400195236059e-01 -1.966159572660708954e-01 9.420388230786914674e-01 -9.992667867077480448e-01
2.185198315008715642e-01 7.006067425382442870e-01 1.640332796074074340e-01 -4.345207840631760132e-01 1.066850517337727844e+00 1.592515629199233063e+00 4.165555398246011953e-01 -1.211138606995461053e+00 -2.238497764623816888e+00 6.112855319264378640e-01 -4.451978020094209954e-01 8.131985168593669489e-01 1.259577095708597660e+00 6.943473339322684401e-01 -9.332693739516104148e-03 -4.093579087534062189e-01 1.609785717522310033e+00 3.245426868177651025e-01 8.913682234956991912e-02 -2.158761176301337681e+00 -1.086169670947332300e+00 -8.101236378623253298e-01 -1.115049394173809105e+00 -2.932787190567766045e-01 -2.317952219463731978e-01 -5.120881542798058628e-02 7.330623028681837461e-01 7.956286264287244503e-01 -1.043382759712852215e+00 -6.370928572528857803e-01
-8.799676407241922016e-01 -1.089818311783454341e+00 -7.770624505032260876e-01 9.907193446147388727e-01 -7.073231514353355287e-01 1.493732444236806289e+00 4.472640758921657134e-01 -1.710310470761765567e-01 1.164405039770253225e+00 -1.113028249455261021e+00 6.104245383916111489e-01 -9.180603458344893664e-01 -1.313826601358434987e+00 1.005784943966611999e+00 -4.434960277525966110e-01 -2.046182179095838993e+00 3.621939426011041019e-01 -1.485692001182752797e+00 1.100029915634862743e+00 -2.408908060054016698e+00 1.894643478810749959e-01 2.600225713269778693e-01 4.202131226107944650e-01 -1.039624645591530783e+00 1.155681881891411411e+00 1.893336670424714097e+00 2.517347304215145631e-01 -1.443118686372245607e+00 -4.059814695270108631e-01 1.181332980691538026e+00
-9.102962622093195844e-01 1.690511049126858789e-01 5.336057078891099925e-01 2.241491081223628612e+00 -2.240948163918575542e+00 2.167819695354197496e+00 2.758675322751371062e-01 6.153317062596800335e-01 8.931508022404569536e-01 2.240552694992927751e-01 -4.648675589175088607e-01 -7.829548339162272219e-01 9.000951316601285557e-01 -4.910972729121802424e-03 -5.772801239416675001e-01 2.164984821415807392e+00 -8.336822852249023419e-02 7.886302270305090012e-01 1.407719332052398131e-01 1.134676805731607896e+00 8.150108416211661044e-01 -3.887261581738640781e-01 1.287602972396510337e+00 9.736027836406159208e-01 9.003355873749332439e-01 -9.797274274263533672e-03 5.377033491625683448e-01 1.270564132202154806e+00 4.400826087787657603e-01 1.162351666774771530e+00
3.201576868378576135e-01 -1.436831522808750851e-02 8.130562454618530666e-01 3.926400271400769526e-01 -5.485042310994164838e-01 -4.532610989527395273e-01 -2.369359528405302201e-02 2.555580044582221322e-01 -2.393764908176115203e+00 6.805548920112994837e-01 5.313383773622264439e-01 -1.072992131861210119e+00 -1.601623472169854123e+00 9.085729306434289776e-02 -5.541048818771797668e-01 -2.889288012314607523e-01 1.508406706601824743e+00 1.054486757735493274e+00 -9.113560832545947177e-01 1.944627552660833647e+00 -5.554463937685253372e-01 1.187802744068416239e+00 -3.574231216249354470e-01 6.060393739963849669e-01 -2.517623445814413108e-01 1.285117529643257761e+00 8.313751614901017106e-01 7.659917150192939728e-01 2.064010703007972125e-01 -7.431148592819872833e-01
3.995448576351786074e-01 4.103168571985305602e-01 6.710814322286118294e-01 -7.123458633208888946e-01 -1.476176532196792790e+00 -1.647759019561428007e+00 -3.276938277901697560e-01 1.143059365744016675e+00 -1.266622193186244916e+00 2.471754804938340599e-01 1.488568713272729882e-01 4.489272199293669122e-03 -6.649072865531980847e-01 8.915167132100383363e-01 -1.683521519029779423e+00 -3.768938887035787610e-01 1.166532236564188363e+00 2.964857772570141936e-01 3.304526517657750961e-01 -5.253852710526616399e-01 -9.765945109779906597e-01 -1.139809123150103076e+00 -1.029244010513871821e+00 -1.037593760734927262e-01 6.398420620332071485e-01 -6.887209152049439398e-01 1.759190392933536407e+00 -5.811292521392418253e-01 -9.415426267155030393e-01 -3.889230889307265793e-01
1.818975295648671775e+00 8.510173398539070400e-01 9.307888450063458441e-01 -6.527648069688132271e-01 -9.181265666826575744e-01 1.219255809680112934e+00 1.268018307100761133e+00 -1.196609899318938464e+00 -2.105688414821483168e+00 -5.808992967551689368e-01 -1.432425523633647224e-01 1.221066006080755995e-01 -2.939237451105598531e-01 7.486716984425694221e-01 -8.407125093158944740e-01 -4.870526706268940575e-02 -6.949879710813391398e-01 -4.188368115680857762e-01 2.410848459776450681e-01 7.745104804814932908e-01 1.543215910991885542e-01 7.670726619304450711e-02 -1.747641970983341952e+00 -1.150799972190686304e+00 3.036943042158675721e-01 -2.333682515430652860e-01 1.275807213183368927e-01 8.308106124035591344e-01 1.173181401302216154e+00 -9.968346745387577507e-03
6.195019130369230353e-01 -2.833552271432047687e-01 -1.340085060752419066e+00 -7.622566210774327222e-02 -1.592550538642246494e+00 -2.891278487049533386e-01 5.242455642380108305e-01 1.317381131306588626e+00 -1.438635919624110526e+00 -1.392300582152127486e+00 -2.443287711395059070e-01 -3.101891130682021269e-01 1.001814780423966766e+00 1.002736492123431855e+00 -1.484243419728545454e+00 1.456283798192533840e+00 -2.371154878924817688e-01 -2.094635580314558043e-01 -1.487165437412729885e+00 7.635996509207022553e-01 -1.118139192376071067e+00 8.846016754257847170e-01 3.718491841116390306e-01 2.444450148140700829e+00 1.945971473688999920e-01 -5.538838078522538844e-01 -3.145699335729665869e+00 -2.506262168572151450e-01 1.853054295531253726e-01 8.883377744603396797e-01
7.606086445963721188e-01 -5.671098838874178982e-01 4.472128607677750001e-01 -1.453946997741864255e-01 -5.188783855395940892e-01 -2.418553714277274225e-01 8.249692882046046893e-01 1.006035726976445499e+00 -6.276787017686604742e-01 5.117187670354812479e-01 -5.810878220954432960e-01 -1.577375977528236162e-01 5.402932761793716177e-01 1.822876808735025111e+00 3.675297134876197025e-01 -2.104660869292598602e-01 -9.901040355284991268e-01 1.182732637122698272e+00 2.556215415346899889e+00 -1.360847041005044510e-03 1.457004090526287376e-01 4.881275050584168995e-01 -8.524752187047381080e-02 -2.105865810884332279e-01 -1.134531527956326391e+00 -1.906739042160794373e-01 7.399582091420364716e-01 -1.515954630259296332e+00 2.255897908042090005e+00 3.394821000431821889e-01
-1.155040737640673498e+00 1.104849143693720087e-01 -6.945529541377672977e-01 -2.398656948232583408e-01 1.735437746335050768e+00 -2.772343441082662174e+00 2.517297411290187359e+00 -1.956978291053664165e+00 -2.894131975323002148e-01 1.132972431043449024e+00 6.067945984267311132e-01 -6.157851553461300975e-01 3.984243074758342940e-01 2.823878497785981545e-01 6.898925085003091429e-01 1.020368521912159210e+00 1.495968905686614059e-01 5.791176655028533737e-01 -9.826743368515754584e-01 4.565116341162510083e-01 8.438471263532890676e-01 2.111770260431855006e-01 9.813780088992843376e-02 -2.452920697887419899e-01 3.857700860784965546e-01 -4.746187714351421949e-01 -1.762668916764133176e+00 1.230766429077892798e+00 1.953936239182791024e+00 -5.390667271527099791e-02
5.610162492804922074e-01 -5.708256903939497029e-01 -3.114135451487904938e-01 5.422758536155873887e-01 -4.424781661111232833e-01 -1.611269227635790058e+00 1.329817558021901380e+00 4.249077724829654068e-01 -4.121289887105288319e-01 -7.197430974230817347e-01 -7.724279869381868169e-01 8.597789034428712229e-01 -2.926380067763446058e-01 6.699092061293154821e-01 -1.851094578901625765e+00 2.056722210174896093e-01 -5.127010945107505213e-01 -8.595353700066552527e-01 1.222699911132113737e+00 -1.176005566810903957e+00 8.391633709418091502e-01 1.008109796826248961e-01 -8.351169360283211551e-01 -7.657574854476659754e-01 -8.161617279946437042e-01 -6.023440985074555165e-01 -3.084532474075960984e+00 -2.037838501391604495e+00 -3.818929800568627853e-01 -1.110988904654273801e+00
1.294991534200209848e+00 4.847967154771071208e-01 -7.282160927057718114e-01 1.335960248060670708e+00 6.049767920708639668e-01 4.059785225389464514e-01 -7.984245338369161393e-01 -2.086652106621747826e+00 -7.216937003593885125e-01 -8.817472607676734020e-01 5.382982709956386502e-01 1.027156182729162204e+00 2.371684805627342074e-01 1.237194998538957424e+00 -3.234822098512137312e-01 8.181438517509213026e-01 3.596270134052612089e-01 8.436362388994734784e-01 9.584525018311571554e-01 1.234398321928737330e+00 -3.532672006768236561e-01 -5.057106752643738545e-01 1.167844907507558316e+00 -1.144480008475389887e+00 -1.270635487736394564e-01 7.868803515673188365e-01 -6.096181148370961589e-01 -3.841095895461113519e-01 -5.819078341366765716e-01 -2.237556436249992675e+00
9.128486127918806758e-01 -1.696230741079886917e+00 -3.279298816746579193e-01 1.087610679649533507e+00 -1.024073580094896352e+00 -4.733444686193195583e-01 3.735694903332687500e-01 -1.334727474660303281e+00 -3.158328490118487153e-01 -1.239847153195670293e+00 2.445035107993473122e+00 -2.131869607947410594e-01 2.939096356840316115e-01 -1.279597807888537053e+00 -1.374870469959343700e+00 6.015994402712523392e-01 5.952799933340814365e-01 -6.617671113378730263e-01 -1.968931992907352546e+00 -1.508012747937544251e+00 -8.211621856778037465e-01 -3.997168241309527748e-01 1.417729433609748790e+00 -1.341418440049457483e-01 6.087304416914053329e-01 1.725148841975209679e+00 4.148333698781768164e-01 4.311358589820649678e-01 6.211681164173979974e-01 4.489360580999430250e-01
1.583760553774957947e+00 3.561766321974393357e-01 -2.908140913256733739e-01 -5.215161805435492015e-01 -1.875060277516849006e-01 -1.094413398422334316e+00 2.975022883596462719e+00 6.459248038875534670e-01 1.956015144701179001e-02 6.090789453279327192e-01 -4.473632632809524390e-01 1.294357062274791526e+00 -2.794385161698996756e-01 8.085900122515049526e-01 -6.746922680192843913e-01 -1.481074910339581718e+00 -9.433494889465093847e-01 -9.368266728349903261e-01 -8.800177503438642024e-01 -7.433234297645064936e-01 -1.413566359909333436e-01 2.540169699246663360e+00 7.389669659935442503e-02 -3.046464887128216947e+00 4.637489148896750124e-01 -1.482465927567689468e+00 8.945423391913457367e-01 -9.917398262712440182e-01 3.436571703079414064e-01 -1.439374328857210950e+00
3.956532099687759541e-01 -7.894617294371751859e-01 8.622200546205285865e-02 -1.212478924879737407e+00 -7.199998590607119553e-01 2.351312257118546301e-01 1.331682486642415952e+00 -1.054667339186285080e+00 -4.190005187604432524e-01 3.142696981860754746e-01 -2.156665159506244156e-01 -1.255795859176857876e+00 -1.111254688903426713e+00 5.290045260875531064e-01 -9.430647104863765229e-01 5.478873380308849628e-01 8.691396311599810520e-01 1.137294370041931124e+00 2.088681924270202828e+00 -1.000135320282793172e+00 -2.581416260228625581e-01 -4.934080975624492993e-01 6.755914055319873698e-03 -2.745689025302738492e-02 9.103938925106346280e-01 2.359439505624189581e-01 -6.812081558813394555e-02 -1.260101925864587358e+00 -1.295557935730844656e+00 -2.244181133182436394e+00
1.989532788834733334e-01 2.922576524762506289e-01 -5.662149418292137248e-01 5.578977979819755850e-01 7.292890453922059590e-01 -3.690039617974366082e-01 1.069727923210929355e+00 7.495772797963615730e-01 4.934748327606772733e-01 -2.480451388238036070e-01 -1.500456352598630028e-01 4.386214540148388741e-01 -1.382889532658168941e+00 -1.150866656997591608e+00 2.133374584472514379e-01 8.350699245320601927e-01 -7.366005010082992133e-01 -3.284328072797437770e-01 2.689420891604587527e-01 4.788298145071536727e-01 -8.706233296263308219e-01 6.009206838977166482e-02 2.457034115402346952e+00 -1.183685545627844116e+00 7.142542836400158635e-01 3.620066084620737756e-01 8.171286253126384957e-02 1.530648557150236622e+00 4.526966612863750350e-01 -1.963880967562464663e-02
1.338757504409751720e+00 5.965232238201142456e-01 1.152245292145218869e+00 5.300107413673755818e-01 -2.800263624715202404e-01 -1.383100561508743054e+00 2.818156803283831113e+00 6.570365746230819592e-01 8.794601431255203439e-01 -3.557285722042446974e-01 2.654993443247895546e-01 -5.231946613864509876e-01 6.686208431470010982e-01 -6.427887157822324005e-01 -1.300715346344088363e+00 3.555544549503245055e-01 6.772464144153016452e-01 2.551811970385712419e-02 -8.014135941263746954e-01 -7.770364856381310747e-02 3.624676551960633042e-02 7.031443702348304514e-01 2.587256396509219347e-01 8.152636615828640076e-01 -1.070483005452806502e+00 5.691809607328277565e-01 -1.157322206650520879e+00 -1.339578022916034505e-01 1.535411226316123479e-01 1.416235202305141438e+00
5.082350263286707914e-01 7.947142634840806963e-01 -3.973437535247394958e-01 -1.485612156723530551e-02 -2.030811252002999723e+00 -2.411206722047553042e-01 9.091901854126731575e-01 -2.875633678985651809e-01 -1.410248161703420822e+00 -6.722568543476219183e-02 -9.307636300219288561e-01 2.389794252995304791e-01 -5.993650413699490587e-01 -8.002604264743229390e-01 -1.756665666112737112e+00 2.736710366974611786e-01 8.059512981346179661e-01 3.325245184122707087e-01 1.126794198402663705e+00 -3.243660700665713659e-01 -6.129564639456508424e-01 -3.836398012568694171e-01 1.710665461752129413e-01 -4.783371327617246815e-01 -3.718171790482510120e-01 -6.465863502949059649e-02 5.901426875787152415e-01 1.468700600478070939e+00 1.423513162711290470e+00 1.015236288816319332e+00
2.122747028842183692e+00 7.760068425097234046e-01 6.973732747318903136e-02 2.032780616375282623e-01 6.670436628795178846e-01 6.018658341298565029e-01 4.710093755136588456e-01 -1.508979472350846729e+00 2.461420354550079015e+00 -6.357999176770414707e-01 9.834960004774658815e-01 -5.149722923550838216e-02 8.165929619778631299e-01 1.498382742556699510e-01 2.743652540008076901e-01 -2.869087823620382061e-01 8.717280388579157213e-01 -3.099337127874737252e-01 1.210845168949595596e+00 -5.836712536629981019e-01 3.551302674244412039e-01 1.010717124856176097e-01 2.105265793874928626e+00 1.043416018366071896e+00 3.751936979679387218e-01 -3.365428580181398233e-01 1.305081066765882536e+00 -1.375083477224350315e-01 1.670453829660561995e+00 1.446646861938929884e+00
-2.150702376693212514e+00 -3.034245894104297681e-01 1.261687604004340102e-01 -4.994514504423793744e-01 -2.821884702249295440e-01 6.170815350018270945e-02 4.362551207271428977e-01 4.266363718360168256e-01 -1.629207844318156795e-01 1.637875428923436516e+00 1.882911944535260451e-01 1.159408202825323420e+00 -2.424234144257284007e-01 6.821906203285938997e-01 2.143643958571673558e+00 -1.657858183217011838e+00 -1.616276051720817453e+00 1.326132341154539152e+00 -7.558949169447517491e-01 -7.591989546073526496e-01 1.219966932957609052e+00 -7.732679513135398697e-01 8.343805660027995286e-01 -7.024276799597425347e-01 -3.985740215961596222e-01 8.784913355238926913e-02 -5.401724973885524417e-01 2.646060268605747445e-02 -1.107078158053165895e+00 -2.993660880903364907e-01
1.237469497589844369e+00 5.210392769090879672e-02 3.666246722921989720e-01 -1.623693149647724987e-01 4.187044108157157440e-01 -2.740075420237801929e-01 -1.119274801445043627e-01 -1.599256671965604948e+00 6.920973608726385118e-01 5.958570158967972930e-01 -1.067171688943168162e+00 -8.228785909256236542e-01 -2.323775925573929868e-01 -2.149576854421074990e-01 -4.402290978363914559e-02 5.988109737370742591e-01 -8.086974332825351830e-01 2.349644489216883847e-01 -2.624394454129189702e-01 1.916837551811731766e+00 -2.829207376432252286e+00 -8.983982897749138719e-01 2.410144629602892566e-02 1.323228984979503975e-01 5.270433014246161951e-02 -1.985277844814441195e-01 -1.662923306871528784e+00 1.557057830740166571e+00 -1.347783061640231539e+00 1.488097553550221441e+00
-3.449469288973671527e-02 9.734958426327162684e-01 -8.426003634311352020e-01 -3.538499641682019137e-01 -9.977458987354056452e-01 -2.000224057579646164e+00 -9.744581926204428646e-01 1.194862022070450003e+00 2.856004572657599994e-01 -1.232842334334375511e+00 -1.111221587101598740e-01 9.552241142419248821e-01 2.774910568958310009e+00 1.192534221800587158e-01 -8.832230514999441784e-01 6.042196900286537220e-01 5.845587133894738496e-01 -3.627635687346140725e-01 -1.057943029744935259e+00 2.847880061817988431e-02 -1.923103706110916300e-01 1.591390700050797191e+00 -7.234500800987366809e-01 -5.418426017651490900e-01 1.107820177507990445e-01 7.120186607460162742e-01 1.204101070496989973e-01 2.371339963429293374e-01 -7.653422381839375399e-01 6.027043320988432207e-01
-1.039127079744828652e+00 5.309756612018583927e-02 1.575720862478400264e+00 -1.700601387235321171e+00 -6.922868439460578838e-01 -1.491731216523371151e+00 1.518363524510487061e-01 4.737215595276980662e-01 1.849541018376755774e+00 1.049280361729497679e+00 -8.144483715303135751e-01 2.595870173362054834e-01 2.502009130223520117e+00 4.760985899058687298e-01 8.411495947681879581e-01 -3.463889361156071156e-01 -7.147999053759243049e-01 -8.404481400135549798e-03 1.250832115320048843e-01 1.686710373399870067e+00 8.023241542196978271e-01 -1.051210994289727418e+00 -8.635897816442702490e-01 -7.737201104987396771e-01 4.657740839973391056e-01 -5.475836286017801147e-01 3.714636114173853199e-01 1.281783058833900757e-01 4.596067101498382823e-01 -3.221125296517461933e-01
1.315455606343191697e+00 -5.364686496837003382e-01 3.472794878035187494e-01 2.380172561281277688e-01 -3.992922086182147945e-01 1.158165961138166722e+00 -1.610576169078242970e+00 4.303797677223171192e-01 6.398664209149842463e-01 -8.713230889603355012e-01 -1.957433010983896104e-01 1.074099402940987602e+00 -8.545474437049432881e-01 7.836002253605998114e-01 -2.589382552703288765e-01 -5.797547535923699424e-01 -2.572801257491351690e-01 -1.817215398252644665e+00 5.035637040058422720e-01 1.315308721283551807e-01 3.510158268740106169e-01 1.361505322572159893e-01 6.145423449313707209e-01 -1.936965958118958886e+00 -1.199800316722064109e+00 1.243326855582929241e-01 -4.421434556160594997e-01 -4.432159433409073312e-02 2.081496808239194252e+00 5.457766651011831671e-01
2.553390836201631653e-01 4.724957730899757014e-01 4.862721538058600856e-01 -2.974501108184759990e-01 -1.334904360069890883e+00 1.188537272875636319e-01 8.391684773118792684e-01 6.346160979755987031e-01 -8.640627981085213793e-01 -4.719989616191020976e-01 3.153717892745727669e-01 9.013173519791918276e-01 2.751788322845681312e-01 3.981258427259571353e-01 1.318375234100564564e+00 4.116845185142132824e-01 -2.174605903256791872e-01 1.007893133355514115e+00 4.976013954285753438e-01 1.458154974175640328e+00 1.301781465152775930e-01 1.099700417852347067e+00 3.115123168788604957e-01 1.491222252280061333e+00 -5.951441475881962262e-01 -4.831080130651471682e-01 7.490486699928233794e-01 -6.508537922988731905e-01 -4.236626755634496644e-01 1.158182423755972801e+00
-3.272268323122752842e-01 7.828522921059264394e-01 -1.418780196431124629e+00 -5.649569472154675198e-01 1.129323303571321713e+00 2.933981836138607052e-02 -8.440980675438426450e-01 1.378769224221450207e+00 1.583640584175492749e-01 2.367538642418746786e+00 5.420407460728143834e-02 -8.289673784463638118e-01 6.376812204564654696e-01 -1.186701754260986341e+00 5.198777385192661082e-01 -2.312171235254441459e+00 5.839826495941080609e-01 9.584350955852672937e-01 -3.607698680283440429e-01 -4.654566667801752766e-01 7.255416266246728085e-01 5.442619777763665345e-01 -2.261781862593293280e+00 1.806465029098841768e+00 -6.543044375001334512e-01 4.302011100448489556e-01 4.241586183376753333e-02 4.877026304808217416e-01 3.259008896355902740e-01 -1.751816778517498174e-01
4.609299121134142752e-01 3.891308430493959358e-01 2.222076199666697338e+00 -5.742006074011384298e-01 1.410436118560036034e+00 -5.667972930686998589e-01 -2.819822353211744459e-01 -3.417723770625967772e-01 -6.726543732150127575e-01 -4.734020555363075977e-01 4.166620072231635441e-01 -5.118784053882270701e-02 9.602230814217247445e-01 -1.636616685769360646e-01 -2.421156576068415334e-01 -4.111264469595989346e-01 -3.462502306335653590e-01 2.176195351672602918e+00 1.937502787470520016e-01 -1.014618199614957694e+00 2.010798523311120578e-01 -2.817119563558189710e-01 9.204517359424455036e-02 1.035901643790270832e+00 9.690456590267022829e-02 9.397808088271955018e-01 -6.999174889839955283e-01 -5.575445221850191535e-01 1.424176438887137408e+00 -6.981272780231655428e-01
-2.598697964431438967e-01 1.287809452311192426e-01 8.292676019993043823e-01 1.010979341900083650e+00 -1.975936510454979755e-01 3.709725029100340299e-01 6.968080518473628157e-04 -2.224657251804584845e+00 -7.613660522590250945e-01 -1.535563346834577958e+00 7.648587745993803422e-01 -4.458856460619418649e-01 2.024674541596931387e-01 2.491222582677348196e-01 -2.401999476249379040e+00 -9.823241371251680842e-01 -1.347640106046925357e-01 5.928346732027108823e-01 -2.710015200032679372e-01 8.247236837275219168e-01 -1.884983578674414018e-01 3.283493840189979363e-01 8.637121665611167121e-01 6.192853303652671171e-01 -1.229073947927391552e+00 8.714168828174207598e-03 -1.533862863317117853e+00 2.356376436778593320e-01 -3.161112821012251328e-01 1.479412238943771163e+00
-6.133073039248830849e-01 -1.829253117003775797e+00 1.468973812641575005e+00 -1.285175873880847863e+00 3.990594663769055916e-01 -5.796265178428647857e-01 9.878679426182884749e-01 6.097877597684520090e-01 -1.214072649965086903e+00 4.238898354772778210e-01 4.873505553864489193e-02 4.230198275082754089e-02 3.697221543595229920e-01 1.293254285974687390e+00 4.406770828410278007e-01 -1.560182814261453998e+00 9.417583530723961927e-01 -1.522422540771141142e-01 -1.767830278075367689e-01 8.863699662266630863e-01 -8.708131106680920830e-01 -4.956250319489816092e-01 -7.683798933820413790e-01 7.631032561366911660e-01 -1.567259029371018131e-01 -5.140936826747478650e-01 -7.273498773265616446e-01 -9.756124875590573842e-01 -2.514919402913254332e-01 -1.365173530784794531e+00
1.156440945051132818e+00 1.075419298462949369e+00 -2.763329350508326177e-01 -2.759864500700542345e-01 1.418706710132735527e+00 -7.214449938647381488e-01 -7.975934272128903935e-01 2.603783366515265985e-01 4.388976688733826625e-01 -1.824034975134458003e+00 7.829415667640255982e-01 -7.377138370857413419e-01 -9.901232698677766564e-01 -1.281889055544424894e+00 1.242026017524850978e+00 1.895389073272501168e+00 1.456551371598503453e+00 1.228531828599042502e-01 2.032069891353143198e-01 5.746064239529099504e-01 -2.064973933525883432e+00 -1.901628254658484174e+00 1.528635463036490894e+00 9.004316434670684988e-01 8.963980277132546082e-01 2.041945711046343259e+00 -2.303093817782725025e-02 -1.113473059451460578e+00 -1.050256640675880204e+00 -1.905618711350299366e+00
2.802779923935905804e-01 -8.635091571387158993e-01 1.844357381006113128e+00 6.932554250420051023e-01 7.506203807772350578e-02 7.652593509361172996e-01 1.269627603447240460e+00 4.334540890821453329e-01 -1.670153842713208325e+00 8.601628896155244508e-01 -7.005842188824890071e-02 5.237204094049766612e-01 -1.510976205285045504e+00 -2.300629270892905198e-01 2.433284949518561113e+00 7.094766184950558330e-01 1.510099217145090655e+00 4.851849084333407780e-01 3.471361374086849860e-01 9.256020886762507116e-01 1.136934592069099192e+00 4.557709853574669068e-01 -6.114237019092084724e-01 -5.866545667878363401e-01 1.020641970370518958e+00 -1.193996097384723676e+00 1.021707349054368885e+00 -6.552624304148733092e-01 5.832248701619132669e-01 1.133739741142811175e+00
-1.157746252412098636e-01 -6.929055954139117235e-01 2.027032560920188242e+00 -5.711492740285678549e-01 -1.054435083024525266e+00 -3.862225348840535588e-01 3.776041903972355285e-01 -1.082135248567286795e-01 6.691875710302912506e-01 -6.003788572890342845e-01 2.003301443784142322e+00 1.477531457711552587e+00 -1.311900563573549450e+00 3.809536320701572554e-01 -2.426301027848222769e-01 -7.751764166323387162e-01 -9.350406380506731674e-01 -1.321114543374504180e+00 -4.334585457305596412e-01 -6.083326192377139785e-01 1.147291968059916734e+00 -1.430589937789950028e-01 -3.245597012831094585e-02 -4.894930391202175213e-01 -2.801113673884533806e-01 1.056003191241183137e+00 5.051842982641486790e-01 8.231912688356395336e-01 6.598231029120998903e-01 2.954530750621643942e-01
-4.241435787490016041e-01 -2.202223166917351149e-01 3.871385855850426050e-01 1.757183166981799882e+00 8.188631668208220526e-01 -8.873475449428297468e-01 -1.153655489318426541e+00 -9.519768472442254048e-02 5.154837822334954467e-01 1.333117927493739696e+00 -1.442073828888784937e-01 7.544422740721580256e-01 1.950367498850519299e+00 6.865791417242682604e-01 -9.840853071586337375e-01 -1.006076424847669237e+00 -9.024850798239577587e-01 -9.626404081467649920e-01 -6.304464235321641241e-02 -2.036728123913838506e-01 -4.226262479598301147e-01 -2.770105044911900793e-01 -1.067579541816117361e+00 4.758073589625458899e-01 3.841442774505804403e-01 2.596142055790798264e-01 3.596701168151027472e-01 8.450492410066032800e-01 1.131255616086961346e+00 9.025905003087942857e-01
2.127976260334853098e+00 4.720840388089153628e-01 -1.358846580888096955e+00 1.335720970245755534e+00 -2.894630240462399140e-01 3.672117419852571202e-02 1.625296497049515954e-01 -4.324092172837102344e-01 8.555082088693799491e-01 6.747086138993450000e-01 7.610315182962108516e-01 2.045050970498936138e+00 -5.168078957491387682e-01 -1.514102951949354743e-02 6.646713944007269781e-01 -9.033442925713632832e-01 1.114364474755883370e-02 5.105629399400135604e-01 -3.605204081567864871e-01 2.558214158000237104e-01 -1.638337459777084781e+00 -9.815320427611698983e-01 -1.056019768868784237e+00 -6.064704233875558570e-01 -1.138080631544067245e+00 3.860475338754735475e+00 -9.045730385515434735e-01 8.166456924714659005e-01 -1.322914075713920723e-01 1.966221323693072287e-01
-1.254668199221260050e+00 -1.055222906412617956e+00 1.357557121107295428e+00 8.653041788553739178e-02 -2.785510417624855961e+00 -5.679093285671376057e-01 1.719860947085469549e+00 3.151762789940962262e-01 -1.478446804661388558e+00 -1.968015637858871125e+00 1.753079150121187535e+00 1.833862624316855150e-01 8.096620176808346780e-01 -5.468202069189098680e-01 -1.746319519649905061e+00 9.488600545587332347e-01 -2.864064234780053120e+00 2.553594147393535962e+00 5.799285633154521724e-01 1.951728234656910921e-01 -1.039731016722607926e+00 -5.166899405837318549e-01 1.227684944047632509e+00 -1.946280292684921809e-01 -6.878914825623401175e-01 1.195810398164165178e-01 1.360120513893026961e-01 -4.235066142411662016e-01 1.500803391212512050e+00 6.810253914801565056e-01
7.395556182371603171e-01 -7.628721054583819106e-01 3.435964685286932441e-01 5.234923163949264241e-02 -1.384722426082370950e+00 -1.519898989492599162e+00 -2.669744437132555159e+00 -9.563024144613265776e-01 2.544078451273405414e-02 -1.131108328815988662e+00 -9.666379066945219867e-01 1.338653958519212983e+00 1.662519836037477661e-01 -5.283381832128231093e-01 -2.422438821348940619e-01 -2.418948256445179190e+00 -5.918262924904987843e-01 -4.896824886995477244e-01 -7.651729549890627646e-02 3.008754258750471755e-01 -3.057629474928714175e-01 3.089385017011360146e-01 1.350238168853175935e+00 7.614983757425758046e-03 -3.600732828776428418e-01 9.811200684646331771e-01 1.011623932830415962e+00 -5.400091560962929638e-01 -1.807072567615132172e-02 -4.998992666146340191e-01
-6.547434914339710366e-01 1.324250790709221859e-01 -6.975153145979405833e-01 -1.310992799503539086e+00 -1.414080797629781339e+00 7.651190837887744678e-01 -1.177561988637643720e-01 1.909197512061852342e-01 -1.231604608489727415e+00 -1.190872079492812374e-01 1.068181314904036006e+00 1.557185056956308156e+00 1.410020041274319347e+00 6.525409906596115750e-01 1.667390920004931110e-01 1.775830666388251267e+00 -6.222194857249147004e-01 1.254729116219339913e+00 1.477348294042546861e+00 1.978951995073988890e+00 -1.104330162995354359e+00 1.057469189948569976e+00 5.438167296527639527e-01 1.786948894464161774e-01 1.010684508304169615e-01 4.207279193105734061e-01 2.645850934656998610e-01 -2.990558544147204345e-01 -7.309218366526860633e-01 -1.551378544957259686e+00
2.972167217300956121e-01 6.588418216666906968e-01 2.761453786380897224e+00 -6.438329037628298668e-02 -1.692028154949291263e+00 5.907129632855298018e-01 -1.402783222557972831e+00 1.764673742929988021e-01 1.824087410354940042e+00 -1.351819942215674031e+00 1.331144935211525437e+00 1.101167501003771226e-01 1.072218321939166330e+00 -1.702656500589434962e+00 -1.008209804412694810e+00 -9.156717978229839128e-01 1.304764837214854312e-01 -1.737433013496241685e+00 -1.903568671932798773e-01 6.206637704935678013e-01 -1.148446749138837486e+00 2.526923080765012819e-01 -8.864347409998869498e-01 3.229888226534875784e-02 -6.149362072047173111e-01 -1.557246354751443018e+00 -8.734420033023100605e-02 7.533365426489189165e-01 9.776762236166686160e-01 1.974806331965047068e+00
-1.622821360125526802e+00 -1.260430775943591986e+00 1.253605602218520743e-01 8.224769256206706514e-01 7.612595682812011155e-01 -3.608920900105751922e-02 8.567181139858771610e-01 -2.232361818802868658e+00 -3.194015754784395034e-01 -1.850387565357069830e+00 4.754407512449974060e-01 -1.097351598392814820e+00 2.779196234401895560e-01 6.102974332707156169e-01 -4.753830940174014197e-01 5.969246688686669078e-01 -1.571803630557232045e+00 1.467570350546122171e+00 1.074121538859057923e+00 1.884415036183059167e+00 2.121567959072923060e+00 4.574067097664322734e-01 -3.207744409465913549e-01 -4.816030115956854846e-02 1.955077225595708734e+00 -2.694792239354275587e-01 -1.653821597894691020e-01 -1.213716520163631518e+00 4.346513721608550318e-01 -6.788209965412673741e-01
-2.364039618633964057e+00 -6.179096251803481987e-01 1.236152577907449812e+00 -1.479952641349966402e+00 -7.212392903527689580e-02 4.271121052365066117e-01 1.894806366892952398e-01 -1.230668514281467951e+00 -1.206400997589197832e+00 -3.586331405467363398e-01 -2.598344371323899171e+00 -1.899808617291517177e+00 -7.588964097056800640e-01 -2.483707750055304531e-01 -1.317890096243858222e+00 9.772382400792285484e-01 -4.157359605951339576e-01 1.368950649352023818e+00 1.573650615471671399e+00 -3.420721172438441204e-01 -9.367053716907697281e-01 1.548495190219381090e+00 -5.725572121258748481e-01 -1.317722467193661817e+00 -7.944565221457873250e-01 6.898546925250147455e-01 -1.519303882702990105e+00 2.991910748272499920e-01 7.017795705978049359e-01 -6.792686806535683242e-02
