-2.395524056199414442e+00 -8.389681538975037878e-01 -3.097887139274378421e-01 9.511672011107933367e-01 1.564133584757833040e-01 -8.668128779730827072e-01 -8.501888743096774892e-01 2.860797797981699531e-01 2.821500706598337183e-01 3.225772411773398241e-01 -7.967235385722059027e-01 -6.754293633745184211e-02 4.558817848611553813e-01 -6.264242709907169582e-01 9.104747580822152020e-02 1.857917349032659482e+00 -8.147657829557043430e-01 3.763696467937645285e-02 1.919723419066776238e+00 1.221816654845829797e+00 -5.883168179730944303e-01 -8.067888564920960848e-01 -7.108092808886478098e-01 -5.063342595423543369e-01 -2.572282937348692178e-01 1.539727155887546273e+00 -4.122374419138281898e-02 -1.311551574732930714e+00 9.573891979789411755e-02 1.008428604696020692e+00
1.736784614195832077e+00 -9.985940359630108842e-01 -4.919453739695874850e-01 1.408393732674998899e+00 -5.483391474948386968e-01 -4.590185314660299998e-01 -5.644666610569153420e-01 1.041105616138666701e+00 -2.212372239362876969e-01 -4.927041465120343688e-01 4.890832695819435916e-01 -1.226905417884741833e+00 1.673859426830085706e+00 -8.643026197461124438e-01 1.611828455931263671e+00 1.152731707434215602e+00 -3.301857181678338193e-01 -1.682710279418618615e+00 1.455047563660768761e-01 1.529154894685484045e+00 1.616579083155849306e+00 9.303541481130632729e-01 -1.283840058609081458e+00 -9.736917225942344212e-01 -1.611032495623232752e-01 1.245741176133089434e+00 -1.480415443014292620e+00 5.304319255927271159e-01 -1.149970104397426862e+00 7.016183474835188116e-01
-1.104250584710973149e+00 1.549440122121311214e+00 -7.097982612599860186e-01 8.590815633140347352e-01 2.125595660898760730e+00 1.445109685496649865e+00 -3.963416109980646973e-01 -6.075256972828669833e-01 -1.789178595055118226e+00 -1.206527972196641763e+00 -2.953862118196393105e-01 -5.155483620892817864e-01 9.653163093010340701e-01 -3.434555137832246974e-01 -3.837479381830480318e-01 5.749171760783819973e-01 -1.500208323156719536e-02 -1.862871327026184742e+00 2.357778569868256291e+00 -1.535972937310804864e+00 -1.963117855422607638e+00 1.821639663910484375e+00 1.108490448575713216e+00 1.584397817008539544e+00 5.533511489632896296e-01 -3.443539367952306307e-01 -3.704369624624950785e-01 -3.890154104741714858e-01 -4.091575356284526954e-01 5.567034417959192405e-01
6.762596948323860158e-01 -4.809502364705393052e-01 -7.200159346596057830e-01 -8.396876019839699667e-01 -1.011772731846877660e+00 -5.875912760330099793e-01 1.312992822185779229e-01 9.731716971521062742e-01 7.472586813334098910e-01 -5.826579919899209370e-02 -2.492126673273201698e-01 2.028768222660417120e+00 -1.585040987649248834e+00 -4.425297387630282020e-01 -3.655839070225827547e-01 2.307041499540479074e-02 6.484067573003401419e-01 2.104319300011404437e+00 -1.058521854998512035e+00 -1.029271461420533162e+00 -4.278004350174813286e-01 -2.188412914709466417e+00 1.907557149163112142e-01 1.463555764627486599e+00 -5.050549651433771103e-01 8.129591062317682582e-01 -3.512106275684737655e-01 -4.408600734084198725e-01 1.351651170218001047e-02 -1.211106263543430206e+00
-1.539922463299889133e+00 4.029453795625479590e-02 4.974666196253320627e-01 1.319880100709196757e-01 5.671368009784426567e-01 1.636495724882156111e+00 -7.110746501229480154e-01 3.094661102392703977e-01 9.029734043979481539e-01 -8.971367312644398240e-01 2.071566304375520584e-01 -1.105574581791044821e-02 6.394921869132748071e-01 8.660784579953507700e-01 -1.331954001480331939e+00 -1.470388739262598721e+00 -5.394272204073191634e-01 8.152710354959447070e-01 3.130227290444531629e-01 7.750707576897249151e-02 -6.582274967047341274e-01 -1.972991439952326564e-01 -5.332418805987230170e-01 2.348273960133635541e+00 -3.488049807204232633e-01 1.433596231834871060e-01 -4.674954905177608477e-01 -4.098306097172204066e-01 -2.343678020583273014e-01 -3.329866211295703232e-02
-1.063716106524316585e+00 1.005644840702622167e+00 -4.682518468161815384e-01 -9.719303569347063909e-02 -2.119138324120426464e+00 1.086502542216919442e+00 -6.820759330204735349e-01 -1.885094444405376768e+00 -1.649764306634679267e-01 -3.115283860933384941e-01 1.498293425179727523e+00 -6.666446875822978901e-01 -4.858619360131167797e-01 -8.718876095915091273e-01 -2.156713231651645302e+00 -7.718345780546468360e-01 7.475659095564567425e-01 1.046323860025860863e+00 7.313683728669044815e-01 -3.313911392419253144e-01 6.200873328617241276e-01 1.019575480637490150e+00 1.340464624698818996e+00 2.230470176061823129e-01 -7.804530822147449920e-02 -5.651314756098023695e-01 8.521746874360104362e-01 -4.378292727713868349e-01 -1.769675737584256725e-01 7.833668475931141462e-01
-3.381776387923762228e-01 -5.414564744217770231e-01 7.016473391473585508e-01 -7.281447875285479432e-02 -8.093325273208784587e-02 6.343764191897665050e-01 -1.154011720187942958e+00 2.106943894462777467e-01 1.243755894762716085e+00 9.098418844438458386e-01 -1.039613533681726099e-01 -8.103349388583667157e-01 2.144328430568309130e-01 4.682984161998662159e-02 1.069158291698212027e-01 -1.839672130360123337e+00 -1.229001732799197555e+00 -1.262514430664907650e+00 1.558958618684963549e+00 -1.089202696432568285e+00 -1.175311060784688610e+00 -5.667580348525099732e-01 6.730879615260568771e-01 1.413262317997604267e+00 -9.838314723986336663e-01 -1.096739599119167741e+00 1.051779827398593214e+00 6.941251702868805884e-01 -2.048671378328081605e-01 -8.576545947409507376e-01
1.352765501635713630e+00 -3.483208789666250582e-01 1.562036441715724255e-01 1.175821020619116863e+00 3.762053001850002576e-01 -4.755668015354388989e-01 1.357536983317517931e+00 -1.468672673202670920e+00 3.075422829934461033e-01 -3.081202767326978176e-01 1.646595567529179557e-02 1.066457017586559530e+00 -1.110754568473105941e+00 -4.936742804487548875e-01 4.856874444542306213e-01 1.107440153516449755e+00 -1.539052040688785983e+00 8.243318212540000633e-01 -1.718422997900778793e+00 1.106173176817917936e+00 1.104436606737358550e+00 -9.414377149634380881e-01 1.937076799143303996e+00 1.348502854757086089e+00 1.255648029613924521e+00 -7.155077570242308616e-01 6.876226953403673514e-01 -1.137968026885816553e+00 1.481682178755115764e+00 2.851964545835848353e-01
2.937027992189449321e-01 -2.382242269469767582e-01 -2.418279184819057459e+00 -1.816872855207909421e+00 -1.868212569314667837e+00 -1.405764953269099005e+00 -5.676782271858717976e-01 -6.778280680577928319e-01 -1.475136560648476314e+00 -1.827477802577555654e-01 -9.435856431398526034e-01 8.843615064376122437e-01 -1.734482053431091186e+00 -1.875668088245788123e+00 -1.031580978041824581e+00 2.674858061138211118e-01 -5.517768054382317100e-01 2.832486974964734117e-01 2.166575807786136565e+00 1.638769007280976409e+00 -1.241750590817992217e+00 5.982978326024878113e-01 -8.155419646154736801e-01 2.079354823445848766e+00 -2.540329450491020657e-01 1.539185277003170871e+00 -1.701265239293562326e+00 -8.818336966851259007e-02 7.741005314715656560e-01 -1.132153183774150307e+00
2.060675989196249169e+00 9.478290640759431396e-01 -1.007968318789695061e+00 1.085450093353261591e+00 -1.396927426205508249e+00 -6.954549941883602093e-01 -6.188113204647057719e-01 -9.904784814361738965e-01 7.174798124533415811e-01 -4.284267459807751810e-01 9.901509960983404524e-01 -1.033125648079471492e+00 2.863171096735181442e-02 3.353425742141734056e-01 -3.058450107610064320e-02 9.102088391000749956e-01 -5.868339317007539302e-01 -1.149382215186729450e+00 7.975788516324068267e-01 2.043678881138377146e-01 -1.394713473153106620e-01 -6.784056824453150725e-01 5.448089771529629477e-01 1.348756392643190027e-01 1.042481195594347598e+00 -1.807512760008239239e+00 2.235531657938320815e-01 6.392766223225835320e-01 7.618564298459292727e-01 -3.163307277747712254e-01
9.261227784061781820e-01 2.454827686197378345e-01 -5.737982238052619088e-01 5.058699832776318572e-02 3.297644529646882594e-01 2.025014992046374029e+00 -3.829417349865269632e-02 -1.353631750480508877e+00 -4.737743409614544876e-01 -4.078860079224202462e-01 -4.280631889212495045e-01 1.432523988540920445e+00 -7.306028003554073669e-01 -1.247680810312207234e+00 1.265761451739475740e+00 1.598769301131320320e-01 -9.838629594299366787e-02 -8.064204742606142506e-01 -4.433900051847019519e-01 1.472643854480689130e-01 -1.268006426399530540e+00 -8.415619477697821038e-01 4.433237515852634925e-01 1.014866708231717762e+00 1.212008867334621431e+00 -1.704181133352180022e-01 4.209206745262220051e-01 -4.306963075423031473e-01 -1.083357491117403898e-01 1.113654275403991312e+00
2.008139578796887814e-01 2.386082276000716096e+00 1.636108770190466188e+00 -1.570364806539368718e+00 -5.446885476608570587e-01 -4.606878117145295909e-02 6.107962133448142927e-03 1.812755770411719203e+00 -6.953249497366675858e-01 6.527230636928537111e-01 -3.013873844217710207e+00 -2.681919284528355707e-01 -2.331158692311465219e-01 -1.389281198740514922e+00 1.865941757748612595e-01 -1.826360328467742322e+00 -7.413428019569060501e-01 1.514619491266384066e-01 1.911118389442634014e+00 -2.184758244992784704e+00 -3.185991788945078951e-01 1.004580051505174598e+00 -2.237737599130084298e+00 -9.298415074317780693e-01 1.393456602665953170e+00 -2.100226366249626497e-01 -6.133349644439417547e-01 -1.868880798947820665e+00 9.913375606589196476e-01 4.808645563277856305e-01
-7.610648431685761439e-01 -1.495815910273345040e+00 2.092510667461738583e-01 -3.259216241601572972e-01 -1.212421915375586412e+00 -6.241826231920756252e-01 -2.132762939103413302e+00 -6.026634261653985858e-01 -5.490580402565045093e-01 -2.707784348319082213e+00 -8.195309778654167321e-01 -4.932564680178740980e-04 7.232883194748011002e-01 4.170657199613369420e-02 -1.496482363937406690e-01 1.622143672414287252e+00 -5.161876546756383188e-02 -1.605121376855065674e-01 -1.280363854711215499e+00 -4.811473491058550489e-01 -5.989988366303209411e-01 2.720291303963733309e-01 -8.800446709544255119e-01 -8.417677560834959660e-01 2.022165184952386119e-02 5.734307787931219869e-02 3.713529793925860467e-01 -9.070587703442392069e-01 -8.913198763547601489e-02 -9.376081618007909846e-01
-7.876181201045868718e-01 -3.732156476946065227e-01 -1.806869591726550928e+00 1.237366192696298883e+00 3.901171867718503661e-01 1.062964345185554604e+00 2.886400885542017014e-01 -1.977276143147605192e-01 5.672830248278081244e-01 9.232716250790072854e-01 1.193214565882588563e+00 -1.413767880729496218e-01 -1.193028565657724555e-01 -9.103012529568363931e-01 -3.248712382634128763e-03 1.010676382437701859e+00 9.995087203984713842e-01 -1.175018001615555585e+00 2.065164149228868595e+00 1.259841228386241685e+00 -1.620318095780052259e-01 2.392117512521463873e-01 9.359582613735241419e-02 -2.370818122026607522e-01 4.660724856984536091e-01 -8.497902810094870585e-02 5.404113531060209530e-01 2.120110912448395890e+00 4.003315358231811505e-01 -1.384250379865720471e-01
5.426043835625367073e-01 8.714273084484714937e-01 9.544593442889014456e-01 3.602077177059823110e-01 1.182251197527180553e+00 1.045683117791962990e+00 -7.123246955054393648e-02 -9.998892392139401286e-01 1.239038408569889338e+00 1.033490763552158687e-01 6.295818308566214494e-02 -9.809826004749953865e-02 -1.461022039478424572e-01 1.248260195400047401e+00 1.082305322544345527e+00 6.918369928452550166e-02 -8.745253756927069411e-01 -7.415328470232500635e-01 -4.247670665129962941e+00 -1.644662240279178844e+00 -1.103409512547614879e+00 -2.519207420237165040e-01 1.329638219345373296e+00 -1.717966619418854091e+00 -7.469154146068097688e-01 6.433935910989005968e-01 9.343777964929719793e-02 2.909111868926512745e-01 -1.122436365529700497e+00 -6.297524482044801752e-01
8.495024680188624222e-01 2.781416368054336896e-01 -7.439135775406893192e-01 -1.344404678267311359e-01 1.656654461850234572e+00 -2.679036284733838855e-02 1.013380983458894047e+00 1.755692003656443401e+00 -2.316584806609267855e-01 9.552692752510431040e-01 7.055824828256718195e-01 -1.384528870109820176e+00 9.081340776597159881e-01 -4.283418372812067831e-01 1.911101611326662675e-01 -7.184526081875602932e-01 6.643843918193313991e-01 -7.343667752030579032e-02 3.774264724822350425e-01 1.337178912790618901e-01 -6.558589201379630973e-01 -9.082531468364238858e-01 7.524589197213248370e-01 -1.998455575906300796e-02 -1.578711268820973013e+00 -1.492638063366407808e+00 -2.596402490289790102e-02 1.097981119044526332e+00 7.664916099058908250e-01 -9.224856205225256955e-01
-5.590173373517736133e-01 -1.146098341122431079e-02 -4.879529100343472092e-01 1.839238972344166889e+00 6.270555716863203122e-01 1.285474780055373190e+00 9.496679161641770062e-01 -8.209362022337940434e-01 1.217949336467709420e+00 5.248752354028744793e-02 6.879406459123191264e-02 8.160608520850292091e-01 -3.030826943061161183e-01 1.635261879084487058e+00 -2.242698419357361139e+00 -1.125936551737214547e-01 1.043807100450634406e+00 -1.119580865579285822e+00 -4.623483474944705129e-01 -2.784390486832545308e-01 -1.251021391456787202e-01 9.538660061981942828e-01 1.324182012685934717e+00 -1.807065684416615303e+00 2.018128713033013888e+00 -1.486872032771548335e+00 8.628764016557016747e-01 1.469356476704052339e+00 5.641772109720031292e-01 9.866400025377538574e-01
5.413966636705679347e-01 -4.490184341480991936e-02 -2.583127526794438023e+00 -2.035744531524234513e-01 -9.598546296684292711e-01 -1.656238629817098573e+00 -7.575068905244489725e-01 -9.032347880869122658e-01 -3.249691836545731682e-01 9.776330437606470802e-01 8.260908525624173215e-01 -4.466526178541873615e-01 -7.993592349798790408e-01 -2.318295542259038999e-01 2.663038968445692323e-01 2.000102375284117162e+00 -7.224734711517460939e-02 -9.564348283748125290e-01 1.149892730260096280e-01 -1.320642783352097005e-01 4.969523264898469406e-01 1.186389186907810922e+00 7.371701507760496375e-01 4.192942869002957984e-02 -8.044829607482271161e-01 1.811731720177647276e+00 -2.843464747344606747e-01 5.079357675105737879e-01 -1.053120704837068544e+00 1.080058730334563455e+00
-8.834399944409206951e-01 -3.940368885227264473e-01 -5.555753785627327579e-01 -9.687076921624713233e-01 5.046946148409313659e-01 -4.909869097803084420e-02 3.409142469075664428e-01 -4.756073400879711754e-01 1.656765212158357037e-01 5.749289534890789782e-02 3.372388554032396124e-02 1.987803916978269525e+00 1.389511930607046253e+00 -3.244887919450079039e-01 -9.160929528191201765e-01 -8.895853545680137975e-01 -8.117963255921394339e-01 -7.877431011635262215e-02 -2.080896136000903729e-02 -8.844952473360059853e-02 1.093976235988525669e+00 1.795704223391953791e+00 8.200110780758138596e-01 -1.097157157253062065e+00 1.575715189145578954e+00 -1.550855801121050481e-01 1.349822270879515174e-01 -3.631578274379166915e-01 -1.568244899453572039e+00 -3.907836539848362767e-01
1.694141135424914957e+00 1.346921775018314893e+00 -9.446710563525084758e-02 6.775616036129459285e-01 -4.789331386617345920e-01 1.175030040523287855e+00 1.012239158213400492e+00 -1.021020917486781393e-01 -1.482441379067264364e+00 -2.411532287810888020e-01 -6.470829277551136682e-01 -6.523887084608980258e-01 5.497016485131567265e-01 -8.664074832798674963e-01 -3.840993961940676604e-02 -1.380426265887697013e-01 3.710334837786608553e-01 6.403350833314491730e-01 -9.001066756735834895e-01 -7.152527329508697740e-01 6.074746354633213663e-01 1.025189757679627389e+00 1.014179414312018412e+00 5.909515596259899972e-01 3.361074945327532371e-01 2.724830353196605603e-02 -8.461050993093024442e-01 1.750931070761008734e-01 -4.406067866374797047e-03 7.540320587555545684e-01
-8.923585373459150261e-02 -5.189594943295603446e-01 -7.845553766382348249e-01 7.059984721527090556e-01 2.785632997641765973e-01 9.409421090486739248e-01 3.701593811117817046e-01 -2.217644720611551712e+00 1.456960313913684413e+00 6.414510725125810442e-01 7.745522566030669243e-01 -1.663305608522950507e+00 -9.377218516185941155e-01 1.042122416767199189e+00 -1.333958503069097468e+00 1.621358150435826817e-01 5.790952855852139480e-01 -7.730287033571970889e-01 -1.055322684394975008e+00 8.119609914643779458e-01 2.908406519241938382e-01 1.421939817761129321e+00 -3.830478998188565076e-01 -3.745833929605025259e-01 -3.360166376067241778e-01 5.176256997591432985e-01 5.155286398572447304e-01 -7.732208261517424797e-01 8.980905218842464288e-01 -7.681992866146735155e-01
7.452095450176685065e-02 -5.524115563218175984e-01 3.267511856666607817e-01 2.074985915178444162e-01 9.807214287806867992e-01 2.656105935928578798e-01 2.027491857897642635e+00 2.461129366546498110e-01 -4.753613286491011891e-01 4.545028487916196180e-01 1.119390664478822961e+00 -4.758021939717346771e-01 -1.312696743982480818e+00 -2.336626460229010438e-01 -1.392490133276013786e+00 -6.409213309760349864e-01 4.129051617424372433e-01 1.706238370925976078e+00 -4.491683048527547739e-01 1.923960405457291856e+00 -4.118819688763644682e-02 7.531494441692416775e-01 1.266643241384192820e+00 9.888574111424291990e-01 -2.931151638875570953e-01 2.285848876026823906e-01 6.940726711236752111e-01 -6.618735491595727494e-01 -5.840090878500278082e-01 -1.132779295212912096e+00
-8.179544365020139374e-01 -1.578430366769426163e+00 9.428962426359638327e-01 -2.563908812813025517e-01 8.120361050366650124e-01 4.844875750290098537e-01 -1.846114956934138129e-01 -4.933579984230341831e-01 -4.851888023661820037e-01 -2.914869495753446560e-01 -5.356944131764307393e-01 -1.707203148069218746e-01 -1.523618389466054213e+00 -8.535646477309375424e-01 2.053198476999607003e+00 -1.273387479105143709e-02 4.365104753195566539e-02 9.741209455361922176e-01 1.364782961098975012e+00 1.020556421768763267e+00 -4.460701180041825031e-01 8.748492740176748439e-02 -1.810112475964984480e-01 3.752489452625684674e-01 -9.674143683826994522e-01 -1.842184915452686811e+00 1.215559799010466957e+00 -1.535491765694767974e+00 -7.937322163872883030e-01 -5.387338584220323634e-01
1.481147162756307201e-01 -2.088905467805450389e+00 6.975571322721099143e-01 -7.705867451759947917e-01 4.012708088261440209e-01 -5.247692590884825981e-01 7.824502999198400255e-02 -1.838143890082274273e-02 5.810979740111681391e-01 6.181463638489517048e-02 5.830403557083978505e-01 1.263253336840558294e+00 -1.349903515852867164e+00 -1.510537904648365570e+00 -3.246148593725867726e-01 1.350083546488899805e-02 -2.565413413610640458e-01 -4.277170359566733748e-01 -1.875236575996025890e+00 -1.580679846712848891e+00 -2.918007203575775921e-01 -6.843528756222065912e-01 -5.713011661341262787e-02 9.204183016640654635e-02 -7.095602903479634183e-01 -3.442372664373641311e-01 7.000745510948059858e-01 2.982599795298243706e+00 -8.321566121330560284e-01 -8.518909000598872128e-01
-2.977558653688182067e-01 -9.039209159834515894e-01 1.162735716590430846e+00 2.764204949380651977e-01 -1.133493520290825840e+00 7.389822774897824020e-01 9.266993510744772067e-01 -7.341124514198840156e-01 9.582189774565325058e-01 -1.460678526388707432e+00 -2.678469618456750731e-02 9.178710271157697331e-02 -8.318915610439792108e-01 -4.134001962328850976e-01 -1.135207246276533466e+00 6.677759056452023945e-01 -9.429924079874022480e-01 -8.213417437249621589e-01 -1.862127046458889879e-01 -3.246546810872636413e-01 -1.139760026484309297e+00 -6.780115664430045319e-01 -2.118827832870406325e-01 8.611309929577655176e-01 -2.147210533802884402e+00 -7.064254197411067304e-01 2.770412202837865823e-02 -1.299365647667243495e+00 -3.253132263424766135e-01 -2.689768242478492777e+00
-6.814429100732205535e-02 5.289331536918806531e-01 3.262973772219295715e-02 5.894108100392500549e-02 -4.233551074224562449e-01 -6.076909028263830503e-01 -2.168592565968120445e-01 5.224878363106266743e-01 1.268050182356318147e-02 3.139923879596597245e-01 -1.834842880194442472e-01 1.241147543218529714e+00 2.145601922313770116e-01 2.521054082366840365e+00 -3.002776061114637018e-01 -6.445751280272149497e-01 -5.990537607093067429e-02 1.157468722553851803e+00 -1.200049063499575519e+00 -7.640990181574524032e-01 -3.433775615873856379e-01 3.277460950400826745e-01 -6.419165053621189720e-01 1.585120055531092087e-01 1.347047688924441489e-01 -1.514768866025566485e+00 1.367246467857120118e+00 -7.633616697093121850e-01 5.923869649279137617e-01 -7.713225511578654103e-01
-1.819672621989468775e-01 1.830021481894650026e-01 -2.425048239459980937e-01 9.923317254764119077e-01 2.508839396642113528e-01 -1.744999840506907374e+00 3.098678729172228974e-01 7.930898163288017111e-01 -8.592111493142955414e-01 4.680484595487295896e-01 -2.686654800741207438e+00 -1.782488131775105566e+00 4.379648089380948073e-01 2.495600451472089476e-01 -1.069684507661879391e-01 -2.023320660714084340e+00 8.569724641454625758e-01 -1.254518502157094373e+00 -1.081039836035348367e+00 -1.419774878231430115e+00 1.154718474467334666e+00 -2.695579576345079165e+00 2.052901581718582946e+00 1.031011703654472589e+00 -1.366736222885239327e+00 -2.492231186102583373e-01 -1.016488744297129543e+00 -1.216433469596783778e+00 7.726213377814789007e-01 -1.062503651889064482e+00
-1.218753926252110320e+00 1.202338985115512238e-01 -6.374412955939934289e-01 -1.176964192407137455e+00 1.255719618732642706e+00 -2.627787503827969218e+00 1.939842471482123437e-02 7.697924122882692233e-01 1.110675171174039466e+00 -1.155805673053547755e+00 1.943519517368822724e-01 1.671110185013467309e+00 1.521216479116045128e-01 1.572530462885583624e+00 9.712622645287322110e-01 -8.495448816559196814e-01 1.060872511818422348e+00 -2.171830823153343692e-01 5.804421451493422257e-01 -5.399600043395502702e-01 -3.005924240864845109e-01 1.697785142486286369e-01 -1.066074875882999651e+00 7.055047026799156074e-01 1.135907372263923909e+00 -2.355557525161214028e-01 6.565193912473239468e-01 -3.917921583430600818e-01 -1.134184643289990746e-01 -5.714300184186623666e-01
1.135069822871859202e+00 6.598697119012009171e-01 1.651443904757607939e-01 2.171603703480714742e+00 1.058944365122205244e+00 -5.104862652038369975e-01 -6.563247119094042237e-01 -3.069110833910415614e-01 1.144926702657284467e+00 5.109469809514645133e-01 6.360883545555012786e-01 2.590897096788821741e-01 -3.174186321862331739e-01 -1.075293014978476069e+00 -2.554702872246720213e-01 -1.115685699609997306e+00 1.011003191585023275e+00 -3.998053265373666676e-01 1.839645652852289204e-01 -9.478836386674921455e-01 5.275780696045946350e-01 -9.144655982447469356e-02 -1.598616133295341024e+00 4.379677243198824010e-01 -4.630392996854753029e-01 1.392912676777464109e-01 6.224041921793352361e-02 -8.056650346145517450e-01 -7.339828093068043735e-01 2.442256572857391672e-01
8.334662226784761430e-01 1.337106013789171488e+00 4.053571100019507933e-01 -4.837039015392210484e-01 8.330927250108620397e-02 -1.199533276957716943e+00 8.950246936345075399e-01 2.400757595048583215e-02 7.945679387949480255e-01 1.283960792213910462e+00 5.923810931069115604e-01 -1.422784975030761512e+00 -5.476633973922234028e-02 1.572032947448657625e+00 -1.240588694414101134e+00 1.367825392997948919e+00 3.193751711975806873e-01 -5.398177670930552896e-01 2.536546730147996587e-01 -2.719123977714555385e-01 2.163247208110855579e-01 7.523506682384182298e-01 1.507564482832870478e+00 -1.190472791971150524e-01 -7.017254688426393106e-01 -5.073677504481362011e-01 1.041661323799572436e+00 -1.763859629579676458e+00 -1.741402464175868969e+00 -1.166752693961117249e+00
-8.451926569324488270e-01 -4.672074853520033488e-01 -3.925591853448406332e-01 -1.372550435897359922e+00 2.123991565889488398e-01 -2.374512143542776288e-01 -6.729121495074575909e-01 -1.187103265963630916e+00 -4.420504155929487755e-01 7.311174753840768981e-01 -2.225263797711392599e-01 -8.709666671091899071e-01 -5.977423029354945738e-01 2.220728440105456114e-01 -9.172323740052927832e-01 -2.639404461451507755e-01 -8.647320357313989514e-02 -8.917263512950753812e-01 1.521699471246874324e+00 1.153735251308969367e+00 -1.522844272291318024e+00 2.450993122018263470e+00 3.545844595911450958e-01 -1.520547657916972439e-01 -1.549075651841113288e+00 7.809954547343730402e-01 1.034340123386234156e+00 -1.758113974869789375e-01 -3.750128439395364333e-02 1.964039151174502784e+00
2.023338724717555770e-01 -1.166436927808702118e+00 1.466715417192086868e+00 -9.414013674226766604e-01 1.148655539617147170e+00 1.601066596402091147e+00 -8.409214369747076701e-01 1.001834264504095184e+00 2.747052558011102708e-01 -9.170002412532546332e-01 -1.475425740431389743e+00 6.272255733890547136e-01 -1.531027417175734096e+00 -1.892704653913208634e+00 -9.848354523855084031e-01 8.983984973483566394e-01 -8.072225405816241262e-01 5.469183970283552076e-01 1.752377564982847913e+00 -7.077245083698803507e-02 -8.793575111167095670e-01 -5.434263608764557940e-01 1.007270722535833718e+00 -1.235511320209939784e-01 -4.151772048260403136e-01 -1.532654079434887295e+00 1.623660171243478390e-01 3.133829454424427174e-01 -1.581317925611713804e+00 -3.909931764599404169e-01
7.450968715750845572e-02 9.161762610769086379e-01 2.410535558857214988e-01 -1.736390296618391726e+00 -3.027103661651213695e-01 3.539515170867859606e-01 -7.212113798153026167e-02 7.906733837252633013e-01 8.268440450376941531e-01 -5.496955195779911207e-01 8.083053727880436246e-03 7.004371099805051237e-01 1.316638099902180725e+00 -6.862598240489342638e-02 1.242909390334740793e+00 -1.346090773238373395e-01 -7.242812118829621282e-01 -7.210995185579246458e-01 7.020129575757713125e-01 -1.628436784576788587e-01 8.920415678389585767e-02 9.138957948869722014e-02 -1.555270660844265462e+00 3.459797641400512158e-01 -5.097424592966659507e-01 -1.096478272218106786e+00 6.683878211184323126e-01 -8.289105232010532953e-01 1.005991529830703723e-01 1.714785433006717597e+00
-7.562520332994229211e-01 -5.227205595110400171e-01 6.484386770309955028e-02 4.536522552709904010e-01 1.427462255950417092e+00 5.391822999867328103e-02 -1.148782642942122040e-01 -2.230218560593880961e-01 -1.025094595154256050e+00 1.070621550482325546e+00 6.288357910182013066e-01 4.307862979848937068e-01 1.891206908015171662e-01 1.516989670209350383e+00 -3.816788976435685210e-02 -5.669233614594740844e-01 7.106457317186209988e-02 2.083366709312561849e-01 1.344194797178364986e+00 2.265512130533897384e-01 1.923871026392122596e+00 2.419580048763899427e+00 -9.507280935427854240e-01 3.410657985731656294e-02 2.732573968309214285e-01 -2.675752019363562551e-01 3.947687919013517233e-01 2.306017906433445397e+00 1.401847484895946405e-01 -2.548886512726941778e+00
1.473011870150610525e+00 -1.250690538456528667e-01 -5.755394580876922461e-01 1.095910010488332809e+00 -1.751457585016962692e+00 2.746366233056224404e-01 -2.808377905963854282e+00 -1.194434466357842783e+00 1.074223888161290885e+00 -1.258743658655184783e+00 4.847048896496896631e-01 5.678605809616437128e-01 7.652094771630633119e-01 -7.337979769053660783e-01 -5.133564570722572995e-01 -7.397851101433888799e-01 1.013821973936952947e+00 9.124062618913553191e-01 -1.012165247445979466e+00 3.446646662800839644e-01 -1.169467402475157902e+00 -5.020397373816309905e-01 -1.976269480731297490e+00 -1.781439342340636334e-01 1.268532386877458729e+00 -7.811752205653211822e-01 1.012956001215699287e+00 1.597443277718534116e+00 1.392019117609307299e+00 1.407462026644600739e+00
2.028615825461466127e+00 1.330097939371139626e+00 7.722522866555026066e-01 1.118845661651078072e-01 -7.765987837896351498e-02 1.857503971559371081e+00 -9.220706934343763095e-01 4.900014553235011727e-02 -1.338444959598171780e+00 -1.371069365526512485e+00 -7.483035220362522777e-01 -7.678601214372388073e-02 1.169504289799229158e+00 1.068336263799108066e+00 -3.278861693121727927e-01 -1.286778301094775978e+00 1.299911428071689246e+00 6.611530034712734816e-01 -1.162773612880329210e+00 -2.723776144272456179e-01 -8.513625597057609962e-02 6.448904912187296279e-02 2.277570872663527424e-01 -5.407978666216135544e-01 4.281363973471333240e-01 3.536645106267088390e-01 1.295281781914680019e+00 -1.104421582336158753e-01 1.680107094593842332e+00 -4.436327100874133678e-02
9.805254718668828806e-01 -5.347897857876515379e-03 -2.804702492198278291e-03 -9.264442364363083271e-02 -1.877967651385278325e+00 -5.839204250548035713e-01 5.086317537341856765e-01 2.513213428125063431e-01 -7.760954224286809033e-01 -1.045671777880493147e+00 -1.608888224413304036e+00 5.465452273623999657e-01 1.454532988142060168e-01 3.407613938310639634e-01 -2.149572490544823467e+00 9.124920177066799809e-01 -4.582841688175023909e-01 1.644126349387253105e+00 -5.405978858008867460e-01 -4.433120756306507815e-01 -7.668176943037455784e-01 -4.562184194479259047e-01 8.495851610661040443e-01 8.616991706007852692e-01 -1.535149956051213405e+00 1.659513762384904889e-01 1.216391430297734333e+00 -1.053138224340093076e+00 6.438242280654188354e-01 1.120581846432755074e-01
-2.333468180363834854e+00 3.038015500604085428e-01 4.088566153872040254e-01 -5.604305564045332540e-03 -7.384828036948257735e-01 1.099861247697724087e+00 -1.110809830885178817e+00 5.900170069151547958e-01 1.482870203118906438e-01 -6.900627032024242435e-01 -1.196859429873420588e-01 7.684816856083642733e-01 2.722371957041690993e-01 -4.372029616413700137e-01 1.088310111013079062e+00 3.503074293629665492e-01 -3.464753910385857116e-01 -5.646075208644836252e-01 8.222717503291725460e-01 -1.971119529495832579e+00 5.697288181141590968e-01 -6.556449832009666467e-01 3.385908666162908420e-01 -1.457731903199575241e+00 6.786467241070176515e-01 -7.537067797086861587e-01 -1.079476711597822991e+00 2.503982145604101817e+00 -8.968243111392335543e-01 2.750417985892347761e-01
1.068077808356344249e+00 1.304099607240257752e+00 -2.226846663228558842e+00 7.029249670088657531e-01 3.409069329930718983e-01 -2.533352859169587523e-01 6.356304724743008228e-01 -1.625382121754643583e+00 -1.813561431330939777e-01 3.192354011827389648e-01 1.450801487061944839e-01 4.154824332672027998e-01 -8.049333290414094344e-02 6.104627146149068651e-01 -7.670178705961485655e-01 -9.866462252196993576e-01 -9.720664318941052429e-02 1.103781753256146247e+00 1.191597951418549642e-02 -3.099905785952158932e-01 1.263205408163710519e+00 -1.796562530125364945e-02 -5.746411628232257485e-01 5.295554537756044233e-01 -6.546700946626452522e-01 -1.756385104060072810e-01 -2.337565758141777916e+00 -2.741677528771757633e-01 -9.467032873376129976e-01 1.725925429585886406e-01
1.818045629310831579e+00 -2.044763814907268329e-01 -4.198884214232823098e-01 2.064844334044438234e+00 6.467999803848910600e-01 1.397102579453130211e+00 -1.216678438279087615e+00 -9.162437313912322745e-01 1.206595013201143887e-02 7.401405405444692054e-01 2.705982488086979276e-01 6.573221513659792681e-01 5.020005380195214917e-01 8.120618210666432635e-01 6.327888548789989409e-01 6.209660759183290857e-01 1.678994848990856381e+00 -2.201796873807509769e+00 5.923040768387837218e-01 -1.386702867185027221e+00 6.260052857455931097e-01 -4.575064522042949777e-01 -8.561154429332118454e-01 1.115102868332411123e+00 1.560961218007936024e-01 -7.543207171736440175e-01 -4.730961431719003102e-02 2.857873115863003299e-01 1.527568247508052535e+00 4.332654920075230121e-01
-1.967303571820407049e+00 -4.789186675243578550e-01 -5.303740470144374664e-01 1.233111093710000716e+00 -2.088334130619495521e-01 5.171729032035733420e-01 7.945852888988556018e-01 1.088599039801521062e+00 1.928274735501721349e+00 1.334746451394217548e+00 2.046333028334061499e+00 2.041702388642801402e+00 -8.142247963978835879e-01 1.313913067728842421e+00 2.519106428659493302e-01 3.076167624526006117e-01 1.465859421607925483e+00 7.210845822576117392e-01 -1.243338729560627076e+00 -8.057131074839712914e-01 5.276134131089783574e-01 1.135882915963394080e+00 1.698276462446361990e+00 -4.127079773345840863e-01 1.522465202039600118e+00 -1.301492703412055363e+00 5.814416943002288507e-01 -6.431138203833813849e-01 -2.426444092349328008e-02 1.529922961098379667e-03
-1.992258213363203578e-01 -2.732906977288561134e-01 -2.515909857339785338e-01 1.334525538815664936e+00 -2.180954385973933318e-01 -1.605623301079799115e+00 1.145141230432559359e-01 1.377805072936244823e-01 6.355715981233920342e-01 8.699954805704536165e-01 -5.694301027111634550e-01 9.220411516993236578e-01 7.946785453039413305e-01 1.081738235834694695e-01 -7.780066548355423217e-01 3.697679337081276607e-01 -1.859363055481766169e+00 -2.222508237408478415e-01 1.591873685296665064e+00 -2.815798837145575342e-02 -4.032683928713782784e-01 -1.050978605713156711e+00 1.748114995067673760e+00 -2.525377863226876407e+00 3.856443089311397121e-01 2.527208573586836149e+00 -2.419151792274934210e-01 3.391946875068311829e-01 4.597825829431347877e-01 9.328572527189969987e-01
-6.159680057811239839e-01 -2.412699995213068160e-01 4.207612115518997720e-01 -1.025987053146443402e-02 -2.207364451559938323e-01 1.270294992754442132e-01 -1.704585532021372085e+00 -5.777658499866842323e-01 -8.400716633799495958e-02 -1.845442008299253089e+00 -6.154006318568645550e-01 1.711353693887255778e+00 1.316400916643269303e+00 1.435922283660830689e-01 -1.079922093883945722e-01 -1.533761133609824467e+00 1.153616542333012918e+00 -5.189903078651765256e-01 -4.966988041494008188e-01 6.690570121782805080e-01 -8.926045171308809312e-02 1.225815215517497947e+00 1.029219352018098332e+00 -7.894067927722060452e-01 -1.161910703286603397e+00 7.465508612584398351e-01 2.517956272994656963e+00 5.396662548051984754e-01 -4.498807760276802847e-01 -6.080840541419523237e-01
-6.647093424938629175e-03 -5.269412126216568293e-01 -5.027882872707315487e-01 2.542888504232062585e-01 4.400783372994321874e-01 6.628607202456360259e-01 -1.421631605604069648e+00 -9.144437941856451424e-01 -3.682837041741518491e-01 7.613283390804296280e-01 -9.012033209827045033e-01 -9.977480803365609829e-02 -1.294036461324240550e+00 -2.961364949146060521e+00 -7.386782219393127624e-01 -8.166755685854830693e-01 1.271905314106195894e-01 8.607413740679314973e-01 1.277673921396698553e+00 -1.057809657410784698e+00 4.244622344237975464e-01 -1.130806781842583542e+00 7.660359759875891017e-01 5.840016394354965446e-01 7.605496001647847892e-01 -1.470500966022254330e+00 -6.804516659165502079e-02 1.258728091982153630e-01 -6.832943930986645764e-01 4.165913912027413568e-01
-1.150366482142538976e-01 -9.775883762803839749e-01 -1.267976941961638904e+00 3.421062295044625667e-01 -2.302612562964043430e-01 -1.345033276328834848e+00 -4.017347656243909215e-01 -3.848109763431880048e-01 -1.919862834566818111e-01 2.204035643329447236e+00 3.230177699322079321e-01 -5.146663594137986658e-02 -2.130470220253647184e+00 4.156236802313468259e-01 -4.236425416577462716e-02 6.024698209844295826e-01 -2.268741962656539712e-01 7.653221049666349973e-01 -1.595185202874350172e-01 -1.554292004306743191e+00 8.809270480112957324e-01 -1.368006040861001527e+00 4.213832943562804134e-01 6.303461213042815814e-01 1.049793756168639902e-01 -6.808073297638186361e-01 -1.686850440887621483e+00 -1.040026832638612619e+00 -3.748277759382647178e-01 5.623804877790149481e-01
-1.033495740288339793e+00 -1.095445398471084131e+00 -2.718657914318677316e-01 -9.165206872144373573e-01 -8.806523609323710922e-01 1.245558866367943107e+00 -1.260973313244119876e+00 1.647563131027140193e-01 4.395696205648060850e-01 1.911544034977861739e-01 1.829362856097164647e+00 -3.294881016191257284e-01 1.887231177608472699e-01 2.441304980837671612e-01 -7.798280055176211034e-01 -1.855166059094740083e+00 -5.157521338125257149e-01 -4.202005652989644346e-01 1.019569448504296094e+00 1.514505937933559254e+00 7.782708376096346692e-01 6.485178280430737852e-01 -1.987104397553057789e-01 3.402753478885414129e-01 8.685123711976902583e-02 3.306625827103686355e-01 -2.116873320608013920e+00 -6.181909141034552801e-01 -1.481409324373144765e+00 -9.214684686485232271e-03
-2.790520869840955043e-01 1.158984414288918297e+00 1.098842325217932014e+00 -8.924466120764069643e-01 -1.031905752753977001e+00 -6.030659350153988463e-01 -2.006860107933607085e-01 -6.297945464206183841e-01 2.400216368034502890e-01 -6.610020232301178078e-02 -9.329275106371045512e-01 -1.075622898040376058e-01 -1.048388881507676285e+00 1.076860466332968391e+00 -1.269555109511750102e+00 -1.203890003144445081e-01 -5.459535371245605173e-01 -1.226558790506591334e+00 1.193813570144222513e+00 -4.227182458776411744e-01 1.143243987696420882e+00 -1.151120811987704551e+00 -1.137536035671332518e-01 -1.585618282233230758e+00 -2.207498794092042360e-01 -1.586972211511608888e-01 4.757546187508888691e-01 -1.871842851224521931e-01 -6.340519898504300977e-01 -1.432061268765135287e+00
9.107603369273317151e-01 -1.032600543628801049e+00 1.370646947261785709e+00 1.495330804475204500e+00 -4.095066574705705231e-01 8.747164516737135909e-01 -1.326429115616759358e+00 -4.431926735968838016e-01 -2.969306236423908119e-01 -2.743346304188207796e+00 2.712638522449325670e-02 2.260392412281483215e-02 -1.091776777144048832e-01 -2.224605927638752867e+00 -8.642525476429549491e-02 1.535183653168476159e+00 1.043085815057157167e-01 -3.285045926651438131e-01 9.351073705541934665e-04 2.687507910183164483e-01 -7.249355771557660644e-01 8.967381173468677025e-01 3.777106755656240433e-01 7.371411302443710012e-01 -6.057312785388716536e-01 -1.391959723679669692e+00 -6.805095387804680485e-01 9.550931105829002510e-02 -1.576696820408641786e+00 -1.776128633185168060e-01
9.067442701487877788e-01 -5.240241598393907685e-01 -3.890475727663648686e-01 -1.203158100284606347e+00 -1.413901789395787811e-01 2.378160037876329014e+00 5.485575814016591112e-01 9.055927204466855951e-01 1.509185440084956087e-01 -3.256515971024702694e-01 -6.292697503922763946e-01 1.097847981533802475e+00 5.403001847515650491e-01 -1.794471382858605857e+00 -2.494792856005012827e-01 -6.033184914755544692e-02 3.754722639989668265e-01 -2.850183923131842101e-01 -5.633205549815747393e-01 9.019779083230254901e-01 1.935985788958474452e-01 9.059058647362633332e-01 -1.638720381042491070e+00 -1.518529610805275709e+00 1.584254638605780141e-01 1.027593149718974697e-01 -1.329051549841862689e+00 -2.165221597884151361e+00 -9.294624153132355904e-01 8.367794236941625829e-01
9.042796629854612522e-01 -4.178216789460760250e-01 -8.745174584779847882e-01 -1.178009578279439085e+00 3.703539189807346643e-01 -1.486681310096859665e+00 -5.048728758488510993e-01 -1.083539761212970909e+00 8.620714678886274296e-01 1.752475918029745339e+00 8.326782433360561120e-01 -1.905614963527160477e-01 1.724796603551902729e-01 -2.794189018658588264e-01 -5.701676383340960053e-01 1.963466216207214288e+00 -4.303738712703448210e-01 -8.545332135047908340e-01 -1.635770671180213132e+00 1.241007899544539633e-01 1.777725066992423275e-01 -1.099607022802091411e-01 -6.320070910034921718e-01 4.358644606374164621e-01 1.350645328152682900e+00 -1.517755263009370248e+00 -2.053548395725854347e-01 1.720937495733306788e+00 7.824865659443830390e-01 1.302767416932525846e+00
1.100400849827027239e+00 2.483911053986307543e-02 9.099802435009480828e-01 5.018411090857516355e-01 3.164031274405910144e-01 -5.074971506859048825e-02 5.280880310117211929e-01 8.347696814308173119e-01 4.199060974829578186e-01 -4.657033633007713336e-01 -1.644283046424004580e+00 -6.466015230515453904e-01 9.629142496326655865e-01 1.357299069729224206e-01 -3.879247164354793220e-02 1.926147454891215638e+00 -5.659448260914743539e-02 -1.493117873542493701e+00 -1.030469273489646342e+00 -1.693423675089020586e+00 3.160422214369910110e-01 1.726461723710003282e+00 1.978449239487762024e-01 2.237033743296043542e-01 3.861381393608289136e-01 -4.193862590940553581e-01 -4.990043078651491548e-01 -1.914456577345167609e+00 -2.408177254053832650e-01 -9.391162043292589079e-02
2.313233453588732780e-01 -8.833109839580253198e-01 1.211788819024227193e+00 -2.690890621134576777e-01 7.153549685315977458e-01 -2.494595486157188624e+00 -1.507938483872049984e+00 1.895543094696654496e+00 1.205362864334547979e+00 -1.589292682511967758e+00 -1.176050606278156607e+00 1.193237551161288046e+00 -3.224694873516215088e-01 -1.136794032151590805e+00 1.146299187757094523e-01 -3.556299554105885052e-01 -4.867769266858444910e-01 3.821968866398772202e-01 -1.275987305700725605e+00 2.141903414886428436e+00 -8.072621685747366493e-01 -2.977590250746144918e-01 -8.622152818315619305e-01 -1.997525304296943416e+00 -9.824179052316415681e-03 1.467342149803377405e+00 -6.004684779947192519e-01 -2.368626156081135858e-01 -8.481196095726921680e-01 -2.864598926740872242e-01
-6.834632633795670320e-02 -2.949184778003521301e-01 -2.107172746714726375e-01 -2.469117337494940445e-01 -1.332594629190060553e+00 1.480582074977848217e+00 -4.915449137282206123e-03 -3.006957468404752309e-01 -8.217421097637338523e-01 -8.793035008379004314e-01 4.381767233688858565e-01 7.409021196872608295e-01 6.167816208680337864e-01 1.177907535572644049e+00 -1.034631348012151203e-01 -4.052255900263215804e-01 -8.044798753066527697e-01 -8.296091325798303773e-01 1.171723898080381687e+00 -1.243265577089718368e-02 -6.937360385348084746e-01 -1.178938291917064118e+00 -4.888941282467608729e-01 -2.145480181993591196e-01 -2.155211093296620639e+00 -3.285520088113907389e-01 -7.536778690927510294e-01 1.865976690245716885e+00 -5.609564661476044156e-01 -4.712328272436749343e-01
5.596715072417515202e-01 -1.841933386949335949e-01 -3.217622903700424475e-01 5.943118208476337871e-01 -5.087463921561790059e-01 6.157598388275140611e-01 -8.514682106864142064e-01 -2.482081665607155652e-01 -1.166688077099829801e+00 2.488898505674234096e-01 9.235922355434852404e-01 1.174180048179344293e+00 -4.602505127358392789e-01 5.906118757632751182e-01 3.233818797691828117e-01 1.572058424740433669e+00 -5.009041734320310857e-01 2.922245061017142431e-01 -1.191584841312884668e+00 2.349859545971964447e+00 -6.704239485561170886e-01 -2.115699707134838015e+00 1.684306903833771685e+00 -7.926359869286061510e-01 -3.842220248792144188e-01 -9.404482909338132135e-01 -1.087887449526986350e+00 -8.440376649931508046e-01 -2.268268971583765392e+00 -4.093686274978383111e-01
-5.668277712688785108e-01 -8.277125690662809690e-03 -1.562886113854291825e-01 9.172903038553106292e-01 4.803050070682405304e-01 -1.203665574325037069e+00 -3.177393511631205203e-01 -9.174754611255991898e-01 1.408482425136881044e+00 -1.529887693481437827e+00 9.383799666521601690e-01 6.721138278697531554e-01 2.752520640330015089e-01 1.047145246847200895e+00 -7.917908321654857362e-01 -1.200305598250544170e+00 5.592120824277598823e-01 -4.128870004999681265e-01 -5.623403998999438880e-01 1.871064549843376723e-01 5.557745039610417770e-02 -1.703081042120363486e-01 5.342882985527156459e-01 -7.656093088002139391e-01 -8.214326671366871668e-01 -7.076099480223313476e-01 -2.098175043657976926e-02 -1.537830599665344966e+00 -2.727914327250093862e-01 1.342513692432565631e-01
-1.633040201718211959e+00 5.400781892428189179e-01 3.870007835963987786e-01 3.271344414115591182e-01 -1.006733745414414516e+00 8.416057486540082788e-01 -2.578787139013953844e-01 -6.731366359938810717e-01 1.806843887138765314e+00 -1.447484739811989440e+00 -1.358617718896621085e+00 -4.550352673966139294e-01 6.881799525387600758e-01 -1.023164094617328157e+00 -1.023738158268695075e+00 4.020716936343623482e-01 -1.950960740725324882e+00 -2.114865441100659549e-01 -6.106156974470633436e-01 2.599048661203807176e-01 1.541385885300971204e+00 5.207502540118057466e-01 1.376749580808352968e+00 1.275401464125021755e+00 1.255898436605778601e+00 9.102351093762603984e-01 9.977819621829648877e-01 -4.672992795157039914e-01 -3.688103529430197813e-01 -4.558522358620411552e-01
-2.473206324121624555e-01 -1.449514312289233997e+00 8.050906495778924477e-01 -4.497106578085244832e-01 3.021894952375462351e-01 1.536751271085007586e-01 -1.542321713298343999e+00 -2.395787274704657410e-01 -1.028807669100571115e-01 -8.019096209001560505e-01 -1.454776353708110204e+00 -3.987179760828177821e-01 -5.791432963515652510e-01 1.316541744901604138e+00 7.747142474482088259e-01 2.173612579362618202e+00 -7.136869152634237601e-01 8.108430021958757949e-01 -1.069980073205501592e+00 9.592650384009946407e-01 -1.241763085668295519e+00 3.216822365010973267e-02 2.030408934206172633e-01 -5.457571619320030765e-01 -1.710642451361093608e+00 6.565273741483105274e-01 7.264109569329271210e-01 7.502484099246549132e-01 -3.535530242761155545e-02 8.237779914343369425e-01
5.348809956453490777e-01 4.385137227697130657e-01 -4.736369738574839339e-01 1.194373356309916145e+00 5.690211882329739845e-01 -5.959113798362397629e-01 -1.070742806414119563e+00 -7.789441912406834811e-01 7.683620712378427253e-01 8.277749403310470655e-02 7.609783982234242794e-01 1.134462464162707546e-01 -1.361022116167163176e-01 6.988325590156596601e-01 -1.462294309142099458e+00 -5.480385438828456746e-01 -1.356844556764275067e+00 -2.437963973963510056e-01 -2.274924228246636149e-01 3.953540344956651409e-01 -3.659792768794757345e-01 1.548756258616140524e+00 7.002286519478924109e-01 -5.577946468415442283e-01 -9.442355826179356371e-02 -1.755812509935313903e+00 -2.236377192672934111e+00 1.370226548023608937e-01 1.190438282608100806e+00 3.216017207320878701e-01
1.671262105296815736e+00 -3.981545576494349703e-01 -1.249236691876908001e+00 5.261131081668295462e-01 -7.433200498373494503e-01 2.385231898836047415e-01 5.770462444315144213e-01 -8.284883510655193239e-01 -4.924411034270380627e-01 -6.745979950824747551e-01 -1.257818246435964626e+00 4.976219643720264929e-01 6.896440051522590986e-01 -2.035502508588070414e-01 1.470966803000119283e+00 -6.072701546435342879e-01 3.180628871076675024e-01 -1.281323141869851412e+00 8.043948922152298620e-01 1.509072338817071479e+00 -1.024108990409692499e+00 1.161253214604243134e+00 -3.871389928489001320e-01 -1.402271067788394943e+00 3.609382330602086686e-01 -9.904888569709762169e-01 -5.010929727424406899e-01 -4.481863514094639456e-01 -7.853368424692979133e-01 -1.174759222523854341e+00
1.251177968139143948e+00 8.112719923941423827e-01 1.144694238007412990e+00 5.716171895353155952e-01 -3.113884509437334080e-01 -1.660840763487986482e+00 1.262856013144538769e+00 6.677475874957440605e-02 1.082496984321047240e+00 1.901630479275124089e-02 4.804348521215342366e-02 -3.725570142152610509e-01 -2.624695459590918323e-01 -2.684255332892491672e-02 8.075809554858229822e-01 -6.039710499873894856e-01 5.081311920506969004e-01 8.440436290898045701e-02 5.826325130655339857e-01 1.311301710608118176e-01 1.384550838224044567e+00 1.622177316980854656e+00 -8.604453595534619081e-01 -2.563221038839061383e-01 4.751578800038072647e-01 -5.727354723024236094e-01 -2.327708316941803912e-01 -5.826917638176501990e-01 1.660751600844405651e-01 -1.469559181506508772e+00
-7.530998809020942319e-01 5.241221469333243732e-01 8.399071896164402862e-01 -1.119176258706700455e+00 1.206942968722256593e-01 5.758632900855588099e-01 -5.582629226661494082e-01 -2.790925941720838743e-01 -7.532945218115226771e-01 -7.096066980544174507e-01 -1.568811868027981671e+00 -1.474214043436019306e-01 -1.342414903593259323e+00 8.595271470905699873e-01 1.880299195446801352e+00 6.656734285599384959e-01 7.479278828597890616e-02 -1.020356729283490749e+00 -4.429380243755360325e-01 8.830828086896522766e-01 3.266604289896709035e-01 1.131987058032428717e-01 1.470142780135393235e+00 -8.334713461426050962e-01 -1.202714817519294765e+00 -5.261001764252358492e-02 -5.536878730248704361e-01 1.838784534398402615e+00 -1.235297381940421435e-01 8.729217777767704911e-01
7.198678267941865938e-01 7.594755948900782094e-01 -9.240769511233141165e-01 -5.656266656774330270e-01 5.429830690979547264e-02 -1.312345008381056388e+00 1.096897125444501464e+00 -1.767833068538409574e-02 -2.606267924006339332e+00 -7.887030554147849148e-01 1.450176787651514809e+00 -6.736937551378828770e-01 -3.054738298829806076e-01 -2.079566145458502380e+00 3.767088487743842085e-01 5.175918899744232915e-01 -7.945230950865564967e-01 -3.241290698778953594e-01 -1.248794553826713560e+00 3.673936531653593462e+00 -7.394121031018187074e-01 -1.920323443258301177e+00 -1.090582272049670287e+00 5.389977501199799681e-01 -1.956806564608552235e-01 -1.362688097766236117e+00 -1.128789258674556484e+00 -9.193884808913458384e-01 -9.952192680784660572e-01 2.231626655339340459e-01
-1.791317688262076491e+00 1.840391448240087158e+00 -7.832122723989493052e-01 -4.357633307902980535e-01 4.711172267055616647e-01 -1.321520586775078998e-01 -7.277973378214619427e-01 -3.100522194781475949e-01 -1.215374616208653308e-01 7.174232631361789903e-01 3.404615654949096903e-01 1.795623787495255752e-01 -6.716842113259154923e-01 1.018570755652559168e+00 1.815841136751710883e+00 8.603960849735799998e-01 1.335641426905792573e-01 -1.030737722286934610e-01 -8.335130332234139683e-01 -4.091087545997978414e-01 7.611809177367466761e-01 1.063730157216364880e+00 -1.433870991957930663e+00 1.469352828155272850e-01 1.276619069195484624e+00 -1.804582055834405230e+00 -5.768668982861434591e-01 -1.017464809474430076e+00 -5.860252572863360321e-01 8.140568123860590921e-01
-1.869951927104086309e+00 2.528523703931903621e-01 4.805044836276399223e-01 -1.656658927143121574e+00 -2.924235458472554949e-01 -8.629447145803292862e-01 -5.546629361228605504e-01 -1.742602866367768677e-01 -4.175624137051577034e-02 1.082999904063078445e+00 1.123194801950337274e+00 5.093385785512138941e-01 -5.262180236287131718e-01 9.607109947420263696e-01 1.345563906780381735e+00 2.293457153459304079e-02 1.868035497928112854e+00 -4.323234066279278420e-01 2.065310652590056417e+00 4.478977952480361346e-01 3.385173025733100721e-02 -9.190957166472029094e-01 2.254677612606999504e-01 4.799843871682480945e-01 2.107419223767389438e-01 1.576639794392848293e+00 1.811449612407766419e-01 -1.906653425418289860e-01 -1.927329227892767560e-01 -1.609675605490740624e+00
1.317948486101811589e+00 -7.115971451266135395e-01 -6.784055205162559110e-01 2.920660729221121521e+00 5.503418723875087570e-01 5.369915148545358896e-01 -1.728141467291612443e+00 -1.175263461678562743e-03 -2.425208958705614704e-01 6.895274266735142987e-01 -6.013157604563483805e-01 2.388872217049877941e-02 -1.679495114702694025e-01 1.441358178738507467e+00 -3.285718235773019136e-01 5.959513103618961916e-01 7.037268224970411046e-01 1.154949942401595431e+00 1.003235107922162417e+00 -9.803094515417131172e-01 2.411090982530561255e-01 -1.693823459797457742e-01 -1.166050735852573128e+00 5.910341823361110469e-01 -3.771608843408266187e-01 8.640206873100364504e-01 2.829984735797091977e-01 -1.536588129109557554e+00 -5.668895355631689004e-01 4.072089305293896122e-01
-1.301982531781139762e+00 1.978611999073886851e+00 -1.109938836751050761e+00 3.031231602308338546e-01 -2.621240195157727854e-02 2.659302161044477947e-02 6.619016346996736688e-01 3.852673292615069744e-01 8.955685575865347525e-01 -1.650306763008263233e-01 7.154181938011554553e-01 -3.277192873788940530e-01 7.250146865335596047e-01 -1.962903507531128744e+00 3.039206454616100728e-01 7.627811865309500616e-01 -9.060614873734665897e-01 1.072355714420630157e+00 -4.229170815482555246e-01 5.173979188324254741e-01 -1.200875186203709477e+00 7.679743801517354695e-01 -8.667015624638254589e-01 -8.051182668758437577e-01 -2.741511386521327531e-01 1.082090290808607635e+00 -2.730290390955082636e+00 -4.435173311573903376e-01 -2.547425472588273010e+00 -6.366724334631176374e-01
-7.724798683418729883e-01 -8.459615263346242919e-01 -1.790088018814508963e+00 2.220977484621751152e-01 -1.388365660474400798e+00 -2.843848293885998246e-01 -2.240416966661498144e-01 -3.149975540933611651e-01 -1.107621858076305532e+00 1.805108057988460413e+00 1.417827202544410525e+00 1.117839598198436590e+00 -2.018619653329179808e+00 2.142367803166191909e+00 -9.159989563160282622e-02 7.210169600548388402e-01 -3.865614651280276926e-01 1.907164782867247152e-02 -1.184509005771103990e-01 1.293897240399760395e+00 -1.783385258451995581e+00 2.200913343920496423e-01 1.536898080669728550e+00 -5.916011566738390570e-01 -4.310705653050881936e-01 5.494210478559552469e-01 3.229672675033625207e-01 9.298343821763035422e-01 -3.007676713447817729e-01 -1.095008820072162603e+00
4.442104101271803773e-01 8.839534238988194792e-01 -2.658095369214616976e+00 7.365947349364545538e-01 -3.176991917987085357e-01 -4.105297065837676951e-01 -9.471283775264133231e-01 -5.380370696494813920e-01 -6.841821617159177249e-01 -7.692399190138151654e-01 -1.341302083189688021e+00 -1.086242418253698494e+00 7.412141080766954104e-01 -2.322216403302881371e-01 -2.165225281689153292e+00 -3.296600685736920111e-01 2.606057544636238288e-01 -5.811707969809493113e-02 -7.093384731633807228e-01 -4.955005868539667513e-01 3.545615960168582714e-01 -1.188470273109403230e+00 -5.100556447229488422e-01 4.052266723264855708e-01 4.877711901828744867e-02 1.237684065953824873e-02 6.568762337234311799e-01 -1.050552897809510777e-01 2.922747957283349796e-01 -8.583377388936461183e-02
8.838302919690368409e-01 -2.623858151776745085e-01 -1.059454075864769029e+00 4.677578565025350965e-01 9.653835642969917918e-01 -7.213544421874709123e-01 5.569198839246887189e-01 -5.664445545492372558e-01 1.079007566911340588e+00 -1.117317977628129677e+00 2.975379544440590052e-01 -3.083118195191360544e-01 -8.366509355003100279e-02 2.319648657079671938e+00 -3.646525287557174644e-01 -1.375477971902359542e+00 3.624513125162847071e-01 6.340266739483134684e-01 1.276302071421163253e+00 -2.514783470421236289e-01 -3.385945827625548299e-01 1.591559625687755108e+00 7.238556638515805108e-01 1.992471458708239551e-01 -1.893899645953504240e+00 -6.763412769833501703e-02 -2.091608684644338467e+00 8.436862851031899924e-01 9.061434202718592068e-02 -1.296998380325906919e-01
1.711743134294163138e+00 1.262066951464446973e-01 -6.197697102483842313e-01 -1.252685332002377194e+00 -2.015764039065189195e+00 1.026480233930368691e+00 1.752019041217826034e+00 1.254295979672713113e+00 1.369687925803853568e-01 6.399547007111453523e-01 7.620320582239895613e-01 -8.757695116732705509e-01 1.036393113393359267e+00 6.066723465700248896e-01 -1.517991158769619098e+00 -4.724837295860626757e-02 2.122759826273861616e+00 7.957761781014118796e-01 -9.877277438959731759e-01 -4.812689964019827293e-01 1.087415644962830830e-01 -1.080911117918197606e+00 -8.920887346443294730e-01 2.204498013981195104e-01 -7.623549528356990956e-01 -5.069173857638697989e-01 -1.424765385500496861e-01 8.891959315122268670e-01 1.890093404734803695e+00 -4.028567262636946755e-01
-6.460414625429216073e-01 -2.294683872025468752e+00 -1.265155483994414132e+00 -1.210381137554537689e+00 -2.901569375188045030e-01 5.273471867458756623e-01 -1.960679491339297975e+00 -1.306861036021783606e+00 -5.953171315539609321e-01 7.303192763444348312e-01 6.716166778206681398e-01 -4.575055089468455516e-01 -1.437663734326859233e+00 -1.028787312431173495e+00 1.603971121601994065e+00 -1.329360719870758434e+00 1.367533437487951531e+00 8.649162669814381976e-01 -3.691767721314836992e-01 3.161791594959351692e-01 3.464220457232965872e-02 -5.155726758600899240e-01 6.525357211089042320e-01 1.490784843023323925e-01 1.909142884715959998e-01 1.964339640997919911e+00 -2.679732241242391289e-03 -3.064954650219770538e-01 5.975749254899824781e-01 -1.599155560506038687e-01
4.546917287060051605e-01 -8.366069785333419828e-01 -2.178161689487024821e-01 -2.859306035583099592e-01 3.830805288197623726e-02 2.947626562865783284e-01 7.089521519017711881e-01 8.534689088704175974e-01 8.332386003119843787e-01 -4.730754440634303282e-01 -9.756734407092114703e-01 -1.821899894344703785e+00 -1.254995351582907981e+00 1.823525299136951716e+00 -1.382045017972727496e+00 1.213975495849936692e+00 -9.342388114997268733e-01 -2.479869314121105006e+00 2.276395227830574075e-01 -6.678582449740597671e-01 1.679475490540114579e+00 -8.633913541016201565e-01 8.157016993277551586e-01 1.650295436539274130e-01 -6.558708705948316231e-01 -1.134900168156607991e+00 -6.614401098114723876e-01 4.774865421784111469e-02 -5.773249607351700341e-01 -6.490825321882529586e-01
-4.242806249766415405e-01 1.241258774483227967e+00 -1.875731353068455176e+00 -1.292148286004624724e+00 4.484964139263361016e-01 -2.188823083637583822e-01 1.491209417473426946e-01 8.715804298707916509e-01 1.649165624813104136e+00 1.327012416630867664e+00 -4.791246870341755448e-01 2.526935555123525079e-01 9.833515016815603804e-01 -1.297683976434957476e+00 1.071326242204188262e+00 6.846789608983192554e-01 1.136883982533334558e+00 3.071525752168893231e-01 2.231136450760550505e-01 -2.177071291501637251e+00 1.599985414970892306e+00 1.937005365265668022e+00 -1.555961272305338428e+00 -1.891153524394829200e+00 1.063157108683341123e+00 -1.022203731600240584e+00 1.459559726552538406e-01 -1.771652730863328307e+00 1.175890530547469615e+00 1.734828597403427652e+00
1.663861359322248712e-01 -1.176471951099563873e-01 -5.883747968922345972e-01 -1.071852864735760802e+00 1.962795844788566724e+00 -2.314809361426865275e-01 -1.297672915587093412e+00 -1.319637773842605277e+00 1.008006333381454622e+00 7.314569038180178673e-01 4.790027043671355247e-03 -1.553988268639864057e+00 6.553094860699387736e-01 -7.254257063264697436e-01 1.102034162159381270e-01 1.552053160976623880e-01 2.390120384561444239e-02 -8.267209043663721335e-01 1.657921105293408137e-01 -1.885069362908333990e-01 -1.055433411458073234e+00 4.812230683227812222e-01 1.485260309078384910e+00 6.415674780679360145e-01 -3.121474955628923409e-01 -3.887990226656542481e-01 2.911198386534643023e-01 6.356138431141356016e-01 -4.182361652940318475e-01 -8.179823916486149704e-01
-9.094917215797816423e-01 3.730643078761887166e-01 -2.268299659117398448e-01 -7.628870545191317187e-02 1.287916060480962965e+00 -2.068865005645264876e+00 6.176353323852075139e-01 -3.886202495996051720e-01 8.339762022611449388e-02 -2.008334090901105817e+00 -2.743694876298068408e-01 -9.607379377534158715e-01 -1.480077227313247590e-01 -7.892306729916698238e-01 -2.056676527267550236e-01 6.939302103366066232e-01 4.894152223773636790e-01 -2.873608853131385393e-02 7.595251437891089585e-01 5.937508575457086518e-02 -2.091816458303963344e+00 -2.983517261921022068e-01 -8.802652602283075334e-01 -5.159423738674913384e-02 -2.325607771050719474e-01 8.404345121172390742e-01 9.600858609191654791e-01 -5.825790309126576139e-01 5.640392902359983029e-01 -7.965456615017280084e-02
1.065194388538568626e+00 -1.817241399858590123e+00 1.631758167158927852e+00 1.312536119621843467e+00 5.205177367687978673e-01 -6.347613332438873934e-01 2.713361930921855958e-01 -1.061218026207752692e-02 -5.493048009206805693e-01 8.430724036349319661e-01 1.047394666428600241e+00 3.031338770141394634e-01 9.302545931253304312e-01 9.869858087335405816e-01 1.031867641139505576e-01 3.782397180065910081e-01 1.204933672341838458e+00 1.380906941066530058e-01 -1.691168376628912728e+00 -1.140882971144858149e-01 1.014036392238428341e+00 -3.595994154584050140e-01 6.744001048761995021e-01 1.301850892032945017e+00 5.725573422551043512e-01 1.663485797170539460e+00 1.399489956222240483e+00 -1.679150019699809482e+00 5.866987547069074660e-01 3.325687226551480302e-01
-4.704301252055287930e-01 -3.642362300708657519e-01 1.352699650207737081e-01 1.976147131807672042e-01 -9.504755959139142840e-01 9.203669838550799787e-01 -2.619335720334764472e-01 -1.179860529437925409e+00 -4.913582000465716582e-01 1.798906767191863709e+00 9.262821240106670073e-01 5.354784730060313525e-01 1.344014387251952769e+00 3.759487110392779607e-01 -1.374567461861518902e-01 8.321261329555649233e-01 -8.394427335428874537e-01 -3.348247409619486276e-02 3.472282115386177703e-01 -6.566430526843802795e-01 -1.131526265861666491e+00 -1.781062899723395709e+00 -7.351010939042366132e-01 1.067401564349733878e+00 9.964821042397040696e-01 1.215435028749305146e-01 -2.361943297633218031e-01 -1.039694233286804659e+00 -3.788682578434743875e-01 7.345842382727720832e-01
1.078074293302333286e+00 -3.626962029604169913e-01 -5.034901513106933013e-01 7.216348519871993439e-01 -1.504062680487232573e+00 -2.944782166140567578e-02 1.636452422952598684e-01 -2.698459810218845623e-01 5.877670437895486932e-01 2.338920306566253104e-01 8.251100213122503080e-01 -1.732837751821608263e+00 1.265866444271787350e-01 1.729734294034929454e-01 -9.426306571997730144e-01 1.543831083817026828e+00 6.728638756539359056e-01 -4.936888750072734172e-02 -4.445047857364075594e-01 -6.445803876901924356e-01 1.301473136587902202e+00 1.140830448578395773e+00 7.617421530469287161e-01 -1.215020189434862230e+00 -1.743664182555421549e+00 -6.459063822837671776e-01 -3.069929817063581923e-01 2.562796642494409305e-01 -1.867459067431229469e+00 -2.610943171804430474e+00
-3.243358280868018917e-01 2.207020233177190982e-01 -2.607369734737186917e+00 -6.255378088682269633e-01 6.738569561839929944e-01 -6.151880072672645250e-01 4.246684366781035558e-01 -2.089950107577674687e-01 -1.916498798670410286e+00 1.412860522877509295e-01 -3.091212474676905964e-01 1.645970327694399771e+00 8.603711868027055232e-01 -1.007168423520786948e+00 -2.219434553996842696e-01 4.698601602610069095e-01 9.570472839246517704e-01 2.734402732612872811e-01 -9.756253008313268138e-01 1.004920221667897406e+00 4.749187811922485070e-01 -1.066124816357342686e+00 2.774875934106877828e+00 -2.083018629243322747e-02 1.040977194934074479e+00 1.024505711803531893e+00 -3.467627425685285147e-02 5.670790302553802009e-01 -8.468941539032713850e-01 -7.493061441509041298e-01
-3.599170566233980129e-01 2.320799804790517396e+00 -2.598674560947989987e-01 5.774532146245952013e-01 4.865149929834461373e-02 2.280338803815264159e-01 3.692778261695397468e-01 1.124614163386959520e+00 3.176182007820508857e-01 -7.200034289168760759e-02 -2.034345691862913530e-01 1.156835837553602392e-01 -3.645634240781117641e-01 -3.132471869032207756e+00 -1.962517388128565798e+00 9.672984495581464781e-01 -7.755620519149490910e-01 7.585910193663362167e-01 -1.941513615158266537e-01 -3.364795269874572892e+00 -7.386876351237972593e-02 -2.237943991642752817e+00 -6.110989105881023953e-01 1.196449565701709628e-01 -3.458200543299697061e-01 -1.495609542821542570e+00 -4.297077003706665788e-01 2.482065677291641848e+00 1.588326733830089488e+00 -8.849222914267683704e-01
-8.409755671779280961e-01 5.329840893124301315e-01 -1.447859654118476502e+00 1.548348701497002766e+00 4.146128664544502240e-01 1.329962118844046914e+00 1.204102603528518500e-01 -2.406358006372394165e+00 2.245574962461201807e+00 -6.064733946215348226e-01 -1.405501385550741444e-01 -3.980945160506872416e-01 1.512063769081675835e+00 3.806810967000057166e-01 -1.079482755231089941e+00 -7.770619699970181538e-01 -1.559936726565524845e+00 -1.214802171784731682e-01 3.131014025113290078e-01 -2.452798775356457572e-01 -1.282649847307152369e-01 -1.825064789451317893e+00 6.587318099669735305e-02 -1.283964781934776145e+00 -7.477382975581454982e-02 -1.017866088436852667e+00 7.349306632305250275e-01 -4.856728809321328999e-01 -2.114657370519956170e-01 -7.942025465539751528e-01
3.052051362555144309e-01 -2.736987960633431527e+00 5.886308879510832037e-01 -1.652667676744358771e-01 8.148108613071032291e-01 1.168429938089395465e-01 -1.500556817337170390e+00 1.015493447874639132e+00 -6.711348434987467713e-03 -4.897267930197742869e-01 7.578140671199250500e-01 -2.892499144638433606e+00 6.390472567945024718e-01 -5.991294751761168103e-01 1.616939382516922930e+00 -1.390875693366903920e-01 1.762330511986438308e+00 7.848834033288322187e-01 -2.052677287480279666e+00 2.252152936444350717e-01 -1.472140891532261353e+00 5.794191744055355864e-01 -6.042248267234573422e-01 -5.302544961193438322e-01 2.224550558200173167e-01 8.666436355463567054e-01 -5.225842235318843843e-01 -3.873762844642316683e-01 2.039110429189380236e-01 -1.057983629421015204e+00
1.460430503282504011e+00 2.079918492046044509e-01 9.978294688103044319e-01 3.316551392614168203e-01 -7.368066399215261741e-01 2.765076483896450332e-01 1.058610466263669059e+00 4.894254334083896762e-01 6.295020009331911970e-01 -1.043920061576618874e+00 -9.689957505287212502e-02 -1.012599110165257388e+00 1.415843237117282438e-01 -3.116625743931477288e+00 -1.123814113950013072e+00 5.778526783274328532e-02 -7.557199408085026882e-01 -1.000307364882049299e+00 4.829430819893453658e-02 1.965994475623421972e-02 -1.230477946565549929e-01 6.517814550153896436e-01 -1.094629658212746826e+00 2.399056204965643424e+00 9.979272460536900424e-02 -6.085843762280204183e-01 -1.385389286238551954e+00 1.085965873782951396e+00 4.842781229185117997e-01 -2.759418325539745975e+00
5.094596011335023045e-01 7.028972028394938620e-01 -4.754503407107273372e-01 1.174626472816101108e+00 -8.581185806746179923e-01 -1.852027911263118554e-01 -1.975863929762808335e-01 2.148364861288080407e-01 -1.126127883270919394e+00 1.748246532742684600e+00 -9.484552490754136755e-01 -9.836328691373499300e-01 -5.796555980182119816e-01 -7.838324956263956755e-01 5.259682661214344357e-01 -1.518061645899693689e-02 -3.805013633264507644e-02 -8.116904191717884132e-01 1.257188371378272995e+00 -7.471463510261356911e-01 2.308444682787985924e-01 8.780531429867727278e-01 1.505583509943137388e+00 -7.856385834126243806e-01 -3.703842990851601291e-01 1.047916259060098332e+00 -2.897029466415163568e-01 1.230847948744853010e-01 -1.647219576571548272e+00 1.422568640255634786e-01
-4.459340426952563274e-01 1.956524472246213286e-01 1.732307687544755101e-02 -5.705694770702360863e-01 1.314330787103139997e+00 -4.354621049885223361e-01 3.834558144402589464e-01 5.843901916916403039e-01 1.545108610264464444e+00 -2.824663017452069269e-01 -4.228480965119161272e-01 9.904158230596641355e-01 -9.862293804560655630e-01 -1.794780438231875497e-01 -8.055865036569950233e-01 -3.503237317378839477e-01 1.136880737442639067e+00 -2.042152794847034714e-01 -9.107621473766055464e-01 5.367017507814613175e-01 6.683048267288738131e-01 -1.063810119064742432e+00 -1.038275710216800984e+00 6.686276033703555943e-02 -1.201696815131592544e+00 -1.219737253154535184e+00 -4.198186755623486421e-01 -7.744860653182093768e-02 6.593333586882037523e-01 -3.616877112355338375e-01
4.325960107189495418e-01 5.163667338264722462e-01 -1.285024898852575870e+00 7.695464805558918098e-01 -2.035036169828625674e+00 1.857251932395836524e+00 1.564062652539196518e-01 1.111491536533405593e-02 5.028786749388882704e-01 2.469239669327387421e-01 -1.417822975172197353e+00 -1.090151089050088951e+00 -1.825130812303232541e-01 -2.407467330665201022e+00 -4.725416400019157200e-03 -1.996044100979016966e-01 1.212269161847028043e+00 -1.946000324305791618e-01 8.261551688864985366e-01 -2.157919934280974061e+00 -3.914266081039203260e-01 -1.527216620610244213e+00 2.004634059387979880e-02 -5.242404785899241748e-01 -1.329754164205906530e+00 2.314902001015006483e-01 2.109218474820468148e-01 6.625770144554070651e-01 -8.079223401362995993e-01 1.397449736925970631e+00
-7.613104144736926315e-01 -8.524248092725492665e-01 -9.999200873392107003e-02 2.627204877491053359e-01 8.307202914393156945e-01 -9.380414600340768461e-01 -4.725508378681234078e-01 -6.319193301835717147e-01 1.202922278503592457e+00 -1.002193221208963259e+00 -1.100062095138340856e+00 1.192930568443212769e+00 7.127660644641942156e-01 3.435736283113739464e-01 5.939785247831481652e-01 -8.409223151003616392e-01 -7.896864918085766405e-01 -1.673812773175501756e-01 -7.033141335497670177e-01 9.299246922796542414e-01 1.155200063229877783e+00 1.376467763829802571e-01 9.140674165872937351e-01 6.031646135169108636e-01 -2.478393718655268252e+00 1.840010213052049592e-01 3.324547049942685462e-01 -4.146175688335109188e-01 -1.276469861715774812e+00 -8.646202669253382211e-01
-2.812786329830136989e-01 7.805836544794818588e-01 -1.338021464465362964e+00 5.040889483281673078e-01 9.867143011788600537e-01 6.081917604043790559e-01 1.342550854858854725e+00 -1.428850031484476535e-01 -8.787936848987548677e-01 -2.461712742916892793e-01 -1.358552282363414854e+00 4.766211650298116109e-01 -1.183809971903841074e+00 -1.220169512879030638e+00 -1.571736642318431798e+00 -6.283327114360660604e-01 2.838458799023158563e-01 1.163890501136928490e+00 -9.334581617593282754e-01 -1.244568200402536157e-01 2.088800107939852602e+00 5.469749473038272303e-01 7.649579403506393538e-01 3.281338660100673876e-01 -1.699082892364535136e+00 -3.818175212281944564e-01 -1.500390312867973641e+00 1.274788697426853634e+00 1.039661294747391551e+00 6.620759495695273111e-01
3.714547076456075070e-01 3.280534161721770370e-01 -6.598292502558465722e-02 -5.518317778882713132e-01 7.822646247866767988e-01 -6.023381289577846021e-01 -2.074282376972340192e+00 -5.416267940912584677e-01 -5.301250579519787287e-01 2.266539186393795813e+00 1.185182988188117736e+00 -1.273887596572677694e+00 -8.387034906782946386e-01 7.760653057583252190e-01 -1.675422636273502519e+00 -3.159258943480180298e-02 8.278111652214424909e-01 -2.461836547027913130e-02 3.547868671038085786e-01 9.667014562098187602e-02 -7.710871176920762737e-01 -6.573923051310989196e-01 -5.180762099309892399e-01 -9.640763765731254209e-02 7.378727478370444848e-01 1.579232693401008136e+00 -5.814485679269583152e-01 2.643008716034140337e-01 7.471023594453677363e-01 -2.576264437339109703e-01
3.714036712969711607e-01 -1.139888019802268726e+00 -2.079237335185881164e-01 1.128038170646110006e+00 -2.214292331288219007e+00 2.185259659907582142e-01 6.931315172902865474e-01 -9.420671305695430542e-01 5.099657682831391092e-01 1.724075803924615569e+00 -2.790553548054079958e-01 -2.984688776422315115e-01 -1.198286619938641717e+00 -3.044541171875296826e-01 3.168879390005551189e-01 -9.139723549535990754e-01 8.852588518139684615e-01 -5.088954567589348832e-01 -1.630106590391147137e+00 -1.914055034148065104e+00 -5.035868927120630278e-01 2.211052002662670102e+00 5.495624534413148243e-01 -7.195183400567035648e-01 -1.357012743907860808e-01 1.039131854739280492e+00 2.333215974094930978e-01 -1.464285483207757033e-01 2.373722122131363965e-01 6.446141230873322359e-01
9.484613046620341548e-01 2.856828088768014751e-01 3.673453343300881468e-01 -1.363491363244009325e+00 -1.041892423099298123e-02 -1.039050800150838949e+00 1.200471216687268416e+00 -5.477392720788343272e-01 -8.708531859458508162e-01 6.222947976685425653e-01 -6.476115086175454616e-02 -1.469256488760000146e+00 4.961638961926357339e-01 9.033320916536252687e-01 2.424097263508553812e+00 7.151520905777719594e-01 4.365873852978874314e-01 9.502299557581813660e-01 1.290452181704783818e+00 -1.687143351348802556e+00 1.738898899020989486e+00 -1.760207839207412195e-01 2.819590922442897218e-01 -1.432846089925269739e+00 9.242658072910084899e-01 -4.478219014352035621e-01 1.853940148100160501e-01 2.565999340934628226e-01 2.874241528275631175e-01 -2.519246670737039784e-01
8.011149409500695207e-01 7.210897172799934918e-01 -4.305750042306403791e-01 4.842002899692507967e-01 2.309573534426126784e+00 -7.438817435599642813e-01 4.222751609617743651e-01 9.317615928543047932e-02 2.726955705352042680e-01 -1.331412086208755730e+00 -4.922786126170811127e-01 -6.991911932472265612e-01 -3.970040371197356421e-01 1.946760086177169446e-01 -2.566518297505050672e+00 -7.054860950361232508e-01 2.143439233639265140e+00 8.865363790892734075e-01 -1.489797321062891200e+00 1.012550157666773254e+00 -2.155484625454626990e-01 -2.042806023632557366e-01 8.093295057326271857e-01 -1.715983170098070332e+00 2.202629127504942552e-01 1.746466694678332210e-01 1.591504851376857044e+00 -3.752590079000042711e-01 -8.392007148188350696e-01 -4.592244776575369891e-01
-1.000160160819060007e+00 4.138182154045431105e-01 -6.610080215599504205e-01 -2.283554325056345868e-01 -2.162103926195930725e-01 -1.371537071950804432e+00 5.638518599960953281e-01 -1.250783217591489693e+00 2.817746309152918016e+00 -9.940275377221331476e-01 -2.019022909984202058e-02 8.647961354135176304e-01 -1.022469824722379128e+00 -7.543139070428007964e-02 -1.785237507517841937e+00 1.909265629509181439e-01 -2.416243666032086013e-01 -1.428658745032340693e+00 4.217442160422178454e-01 2.084857351912832613e+00 6.852541484366527769e-01 3.485944177322949922e-01 1.504347362594017579e+00 2.649825770137717584e-01 1.623575548498945142e+00 1.037369020597166402e+00 -9.967072729572982182e-01 -6.398952579887049463e-01 4.567662627517481977e-01 -4.200763488658517675e-01
1.523549647677484575e+00 6.675781461313345932e-01 -8.230414758623472160e-02 -1.721535445459277183e-02 -6.590360221751285774e-01 1.035661136022617113e+00 6.521340700321592854e-02 1.512761607645372264e+00 -3.224147303178882817e-02 -7.930336790788886647e-01 -2.104349679269121420e+00 2.087315000228455453e-01 8.544954256782385515e-01 3.803794057446872601e-01 -6.385564507247712962e-01 -1.104972555177707871e+00 6.693034270586547541e-01 -3.381827174072141173e-01 1.183340409759400691e+00 2.991871153337414824e-01 1.650295356599757124e+00 5.397619512752388493e-01 1.013459962426531913e+00 -1.831193475869727694e+00 -9.688248241037009656e-01 1.081947816340098179e+00 -4.026754806217621718e-01 8.386338757941242950e-01 -1.374518982858383920e+00 2.089786869239219358e-01
1.018519972533351803e+00 -9.458103882342353552e-01 -1.516502090061477848e+00 -2.325812479877613081e-01 7.520910951123410682e-02 -6.377766484989796369e-01 -1.186936851701859919e+00 6.509781137196952727e-01 2.298589048132128679e-02 4.054417651345236240e-01 2.321092938132336414e-01 1.028246448726898299e+00 -7.617594038676674950e-01 -1.309451614672648034e+00 -3.844356819185559826e-01 6.190536697317553516e-01 -1.064730143823609115e-01 3.004002652701201481e-01 1.163996825335581020e+00 -7.672743230398818559e-01 1.183875512229604424e-02 -1.151265188931557715e+00 1.131815286198422754e+00 9.340631927329970940e-01 4.036937257759629638e-01 -2.213141964633561984e-02 -1.501513129207196595e+00 1.644584506773677957e+00 1.490780732900708561e+00 -2.357293188882504609e+00
-9.160763500036844809e-01 3.597827157893919714e-01 9.724842970496356820e-01 -1.055905057374842526e+00 1.180245978955265729e+00 -8.018199351515505890e-01 -2.265957173971405059e+00 1.154085379964472358e+00 3.821664293223175912e-02 -8.035442256407769879e-01 1.464869879597702429e+00 -2.024381930445969147e+00 7.899744767388903188e-01 7.090968070836339843e-01 -1.799045484221663438e+00 -3.434848455076794371e-01 3.025914561301302208e-01 6.841617284667411703e-01 1.895786350535131781e+00 5.720285777945260941e-01 1.089493075466372751e+00 -5.334163856417023508e-01 -7.323334410771721592e-02 -1.124485212108077281e+00 -2.444834732486944606e-01 -1.236148249123456111e+00 -9.001712301014963558e-01 -4.055705646413936827e-01 6.413647825943367131e-01 -3.286430898058518082e-03
-1.408338970967545123e+00 9.069906246618754109e-01 -8.156520955568692388e-01 9.105793021699749579e-01 5.595801353214947538e-01 -2.910252515012264896e-01 1.679184334213614793e-01 -3.083280662297446795e-02 6.676275824445594420e-01 -1.608789984043574650e+00 -9.688759959632745611e-01 -1.101275454960822103e-01 -1.470776363943157694e+00 8.516438615931881673e-01 -2.399229397534670127e+00 -4.974340815639242686e-01 7.277119332620309022e-02 -9.807306909428612496e-01 -3.195946716243246999e-01 1.374900677521933900e+00 1.918141450173652895e+00 2.051035041113267177e-01 -2.136672667464872610e+00 1.018635584515174664e+00 5.504982422114582663e-01 8.192398589102243278e-01 -2.200644459177222512e+00 1.487515810610910982e+00 -1.761740995220247630e+00 4.697488537813400700e-01
-1.382208681475367351e+00 -1.425955352418411815e-01 8.984485084772928509e-01 9.022119876964009855e-01 -5.433579135975568075e-01 -1.230161457083139176e+00 -3.260463325985995531e-01 -6.282731894330048084e-01 -1.174344444009471911e+00 1.595017011249799443e+00 5.842326445387245881e-01 -1.546549902829213174e-01 -4.296598726698751536e-01 -4.483245594350946384e-01 3.796095805748402330e-01 -1.399375132418739565e+00 -8.916008222626307100e-01 -1.244643640522239414e+00 -5.754941240927825552e-01 5.579105289525553291e-01 2.150747208311699854e+00 -6.720198390719807069e-01 1.503630665069275674e+00 -2.778482846083651370e-01 9.669167902289903249e-02 9.646559650799552132e-02 2.536341938104724747e-01 -1.053700564610128954e+00 -4.750167684458756479e-01 8.308080598287803653e-01
1.208915433290481456e+00 -7.801542368162369678e-01 3.597249754192743953e-01 -8.827001007363233231e-01 1.646027528513288374e+00 -1.044993221231968583e+00 -1.472003523779813694e+00 -3.820794710978430153e-01 8.865229932038505289e-01 -9.599458005012060369e-01 -1.596332671288732019e+00 2.208918034561190291e-01 1.349517076394856741e+00 -8.107807372987002603e-01 -1.861557358921123451e-01 9.864471717206703127e-01 1.314044561103641651e-01 -6.227155364810682547e-01 3.424077328251304286e-01 5.974041570640301613e-01 -5.797756871058716843e-01 -2.900005083370617021e-01 1.385293609783628144e+00 1.845794458530191084e+00 3.864519287264805980e-01 -6.721927232254377715e-01 -9.421890933816005897e-03 -1.217123492907370569e-01 -8.818364911832853315e-01 1.861134917203151051e+00
8.628958192124602800e-02 -1.260851363674648562e+00 1.028991829198846603e-01 2.072033726382001451e+00 7.655524558066396645e-01 -1.271977889329288125e+00 6.017832625319692319e-01 -1.144566686815879697e+00 -8.681730438661653393e-01 -5.796186161880944043e-01 -1.525834425927143467e+00 -1.713821268855992841e+00 3.108815387978433709e+00 -1.310265027371010582e+00 1.368708036420163587e+00 -3.831687320523351481e-01 -4.202437341736182663e-01 1.538153827414814323e+00 -1.229458826685967177e+00 6.910053429509869227e-01 -3.828630870069251180e-01 1.341742597764066458e+00 -2.273583241601306426e+00 -1.917266712832171038e-01 9.438830364934217565e-01 -1.701097907738488235e+00 1.583733528443137084e+00 -6.060524053102737119e-01 4.885447415236902624e-01 1.035556735837276143e+00
6.860952673351795594e-01 9.968281728443273426e-01 2.308286831004438544e-01 5.471448536964551579e-01 -2.518644132642823830e-01 -1.298271845284243220e+00 -1.399295428605212832e-01 8.059341859238181582e-01 -9.831319639086895101e-01 8.799045372520546415e-01 -4.356368939252274197e-01 -6.895457533167860253e-01 -1.533535989646510167e+00 1.193254891600206008e-01 -2.184268977737321205e+00 -4.036388095230912243e-01 -9.028267576847701648e-01 -1.696881565665949942e+00 1.523482937642140156e+00 -4.165474790163511409e-01 -1.293155171750169474e+00 1.008276790558833236e+00 1.774786752781567278e+00 -1.485589168124580750e+00 7.548994436285298981e-01 -1.454483496403821130e+00 -8.462425189857006869e-01 6.098707001385287318e-01 -8.307199807790957014e-01 8.383319848563354215e-01
6.926530176581736642e-01 -5.745868897151669152e-01 8.177677988661861130e-01 1.389007272834500428e+00 -4.994871119543881632e-01 7.526949843301908860e-01 -7.617480054891448971e-01 -4.823728569409863609e-01 -5.727060085956329205e-01 3.857071791716114029e-01 -1.825236209920191310e+00 -1.485257064844502040e+00 6.115396850680511198e-01 8.616375649059907493e-01 2.822996524777241292e-02 1.681031184253777289e-01 9.692894989395622884e-01 -3.736170303126745140e-01 3.072614757863197932e-01 3.373401150806446536e-01 5.127342179771829933e-01 -4.971316103764351069e-01 -2.740993998114621064e-03 -4.216577927257968983e-01 8.448702991242739158e-01 -9.196337170581255771e-01 -1.527116726421316129e+00 -1.868670355695412622e-01 -1.788565020257600058e-01 1.686454164080346541e+00
-9.676225030403182714e-01 -1.455893135453919518e+00 -8.332875267836910016e-01 2.253216788595124170e-02 3.712120163209006396e+00 2.529055793012821574e-01 1.346177568335154007e+00 -1.616683752907230209e+00 -6.317911262590537591e-01 -6.367386384296153112e-01 1.489568240747195516e-01 9.842745545751512282e-01 2.359266546252556385e-01 6.225117054463186195e-01 4.294492065362229827e-01 -1.174724032977138899e+00 -6.283763452473097033e-02 5.204186133289596672e-01 1.916136995044400715e-01 -5.733005656899984315e-01 5.720811935089541445e-01 4.206425574234190501e-01 -1.067532690685866648e+00 9.090879120696471194e-01 2.135264942453865888e+00 3.403768185325109497e-02 4.557246644518599399e-01 -2.819632643567508978e-01 -1.162573396853739949e+00 8.772943499486149932e-01
7.591806515240816511e-01 -5.212157747597951502e-02 -3.555122780048108888e-01 -4.352486318697585954e-01 -1.132468864772855799e+00 -9.845061384071790433e-01 -1.332163122252824350e-01 -8.406579950956069025e-01 9.613935787888957529e-01 -1.213578970106594435e+00 -3.450797337112090912e-01 -8.696031686992980458e-02 -8.728323509062619889e-01 1.842672903324008571e+00 -3.350279336999698043e-01 -2.036192511333947408e-01 9.504594622578276253e-01 1.138975262170835306e-01 -8.235486083087648623e-01 -9.551158533257618766e-01 5.024814522670564276e-01 -7.135489859628991738e-01 -1.226035693244302394e+00 -1.364841619594574951e+00 -2.141961954070468188e+00 6.364467190710210165e-01 -8.297354471409276178e-01 1.158310878191124438e+00 -4.511234599429156389e-01 4.297190404160952104e-01
1.235715481962685214e+00 1.207217782129100248e-01 -1.134116824997041029e+00 -3.040181520303663620e-01 8.542031667766564196e-01 -9.552361729264478019e-01 1.432829862228040430e+00 -3.697534469806065122e-02 9.846657324344556539e-01 -5.615590615821943743e-01 -1.473930848675494287e-01 -9.546785363724598072e-01 8.071745115211804988e-02 1.097151900633406063e+00 2.158670167598801370e+00 8.309183681938851762e-02 1.341537961160396586e+00 3.471484832032643020e-01 -1.953696779922649285e-01 -4.265402525450297522e-01 1.729736457553195716e+00 -1.215649006969044432e+00 1.692145218370785908e+00 2.851546077240866839e-01 -7.370931290584847861e-01 5.107827393190211840e-01 6.031785668810890622e-01 -6.355384226495168765e-01 6.170539376818033883e-01 2.443518542034684327e+00
-1.199666669299662841e-01 -8.851014134001079503e-01 -6.850470121953030622e-01 1.822581831579702105e-01 1.111479798394576113e+00 2.511212490483634707e-01 1.093938252696419866e+00 1.247049558155158611e+00 -2.798496978019242021e-01 -8.045168650661407850e-02 1.545936125817825302e-01 7.872329503785018279e-01 -1.309630342819048554e+00 -2.125433960005269185e+00 -1.841127739791647455e+00 -1.268484260004850928e+00 -4.125353893486968238e-01 -2.716211162901166709e+00 -1.438321370800793586e+00 3.866030703376218680e-01 -1.099604348041174795e+00 -4.118352276259223954e-01 8.447062185537064227e-01 -1.665326615907176400e-01 -3.121503505838724379e+00 -1.027357271530868532e+00 -7.899861769823111890e-02 -1.138388913163487892e+00 1.032588303816247999e+00 -5.174892180983581280e-01
2.950176652440536507e-01 -5.496383956433013029e-01 1.912879201092104187e-01 7.778501670574745619e-01 1.116881278274910239e+00 9.803686450834236954e-01 2.231948324457597443e-01 3.446709286533210514e-01 7.499206527162207703e-01 -9.432301262358318006e-01 -1.502895902279711038e+00 6.954092470128755421e-01 -1.531817918026463277e+00 -6.447469746736218532e-01 8.967546199316826783e-02 3.920047952547744963e-01 5.618861675824399216e-01 -3.146140121982870380e-02 1.550232242696073737e+00 2.145342378582112963e-01 9.343953718400421771e-01 -7.386888090388799011e-01 -2.298110163196858569e+00 -8.629748779890541455e-01 7.317737795577211601e-01 -9.500014757324254377e-01 4.060468948516770538e-01 -6.421053440917372512e-01 1.535487758726558072e+00 -5.375939072619221326e-01
1.268441340931813210e-01 -1.329778810008841905e+00 -1.174118286121502486e+00 -5.632152064222158971e-01 2.188766891448290508e-01 -1.491304729997632028e-01 -1.338290810709114265e+00 9.587879209286037652e-01 1.537063659829282170e+00 1.083956756985403613e-01 4.265335333672885809e-02 2.196995393467768398e+00 7.060291939223442004e-01 -5.189003248893848674e-01 -3.955312434445180936e-02 -1.380812526327386269e-01 5.760971110279128338e-01 -1.472772413875870524e-02 -2.896790685034051349e-01 -7.043641016897483897e-01 -1.186910560467893117e+00 4.298893203582769829e-01 -1.340331556127664359e-01 1.298013288951427535e+00 2.835808953534136867e-01 8.721638735572605217e-02 2.006277384783671014e+00 3.700397753813525759e-01 1.950228876422710256e+00 -5.809952853035025289e-01
-1.442473901397578917e+00 -4.102041839181724825e-01 9.580079324057767520e-01 5.143875380579364387e-02 -2.336501876212321527e+00 1.854939769597266475e+00 -1.740755578226132139e+00 -5.737059019835825113e-01 5.429153556514846324e-01 -5.552280604878598869e-01 -2.511326936468621929e-01 7.671750391779672551e-01 -1.402669605443973393e-02 3.991137586205810162e-01 3.746296353221475472e-01 -2.048478911866062901e+00 -1.375239524764305443e+00 1.372056574710339705e+00 9.718245321991326735e-01 -1.258546676861126867e+00 -9.716395245370832434e-01 -1.895815986083216123e-02 -1.000873171811544449e+00 8.551972671001384363e-01 -2.240453233899170615e-01 -8.201952175441273862e-02 -2.392625070668560061e-01 -7.091570170831208442e-01 1.696965511807800420e+00 -1.540477838057108528e-01
7.892772244133793302e-01 8.761473197466960183e-01 -7.536869702294697326e-01 -6.894140544158033901e-01 -4.184039516731496433e-01 -3.596697267275427712e-01 3.490128396330083871e-01 6.696381366749522002e-01 -9.948226836011712926e-02 1.138910479649536622e+00 4.322644149888614784e-01 1.839444139226884101e+00 -2.278545821765862178e-01 -7.831092534874953826e-01 -4.083250327778025213e-01 -1.404405431354124101e+00 1.415916817833643149e-01 1.854442192400014566e-01 1.597282059837335844e+00 -6.675911829435769995e-01 5.051926331432240458e-01 5.567612701038576750e-01 -1.351440805678070678e+00 -1.326723365794123533e-01 -7.571947749675829176e-01 1.552417184585012377e-01 -1.412321394942706698e+00 -1.263779130753960311e+00 2.109383661773633067e-01 -6.009477422919929923e-01
-2.941487897105530824e-01 -2.261195945652920425e-01 6.693725818742783940e-01 -1.096796769499682259e-02 1.000965538825096868e+00 -1.016681446196100902e+00 -2.888432376626389742e-01 2.550833435337033772e-01 1.160320625487531038e-01 1.076490978788591013e+00 -6.181471675181666736e-01 -1.900236037873854977e+00 -9.423201778647189997e-01 -8.954416303669320287e-01 -1.293560032942648874e+00 -6.820571106884220081e-01 -3.184894915328067566e-01 -4.773756655922180014e-01 9.739142450561207864e-01 9.113327433551625667e-01 1.801299431660695061e-01 2.277133414178015847e-01 9.882250924759121702e-01 -1.465517138031659616e+00 -4.727855291963704576e-01 -6.239202788392491650e-01 3.425962614333476208e-02 3.534417580200769349e-01 -4.292630377903564054e-01 1.221121812733274581e+00
1.890118029917793985e+00 -3.492049921337447294e-01 -1.260154744700836771e+00 -1.592374972085421225e+00 1.529319972720554199e+00 3.864535815499119953e-01 -3.866849824385164003e-01 5.569102149554979730e-01 -2.740188198242510254e-01 -1.020832775807696713e+00 1.509373261018908119e+00 -1.216883659570973553e+00 -5.956367971050339216e-01 1.852793958611199665e+00 -6.767296756691910942e-02 -1.674402618488511463e+00 -1.139105189233012849e+00 -5.223503833625474657e-01 2.296650840049644926e-01 -6.298502925226245885e-02 -6.162817963233293561e-01 -9.895100127563901671e-01 -4.987878820621934883e-01 1.212598583469101765e+00 5.580998600227143891e-01 -1.112470306693107425e+00 -8.577295127174081601e-01 1.928252268579137008e+00 2.503907604491987793e-01 5.833256421906322098e-01
1.254157571494049606e+00 4.402043359873247241e-01 -1.036828721964114131e+00 1.446012143169702169e+00 6.816702883625903875e-02 4.840937297583123855e-01 -7.518637203874097841e-01 -9.645429157230615003e-01 5.697168616814141801e-02 1.428150486822108711e-01 -5.532897446634689187e-01 2.475719764988505656e+00 7.011475727882676701e-01 -8.363792682313857529e-01 9.091154990704758410e-01 6.795421868243487484e-01 2.542723660291721921e-01 -1.366284474405270677e+00 9.814369644433472706e-01 -3.626085736271293936e-01 -1.497952779886642327e+00 3.113483602599015909e-01 1.833221562610883204e+00 9.917133835306375378e-01 5.389945652010553756e-01 -1.219535399497870959e-01 -2.056727562513500362e-01 3.113972663722291978e-01 9.209237689456173381e-01 -1.345040731548945656e+00
-8.746298941492925971e-01 1.436245431414768792e+00 -1.030735218941063236e+00 2.251500019822768595e-01 -1.823324706393761652e+00 4.038172059168439465e-01 9.858141095398105236e-01 -1.022961418067216410e+00 5.202363847878683778e-01 1.079668788692695891e+00 9.000958617827926611e-01 -1.263962965611406197e+00 -1.929525773342380401e-01 -5.745841882742342976e-01 1.179525022192976294e-02 7.716885182326506110e-01 1.136461291855789701e+00 -4.907125845337659831e-01 1.970427402148600959e-01 -1.592455733823000763e+00 1.910663371400783683e-01 1.028366968452886665e+00 -4.687129694608903607e-01 -8.393738538629932355e-01 3.563061629505622219e-01 -2.405183059259454192e-01 1.411472671702671988e+00 4.010588366640059910e-01 -2.104777554300653053e-01 9.759441623597789328e-02
1.375439047827150540e+00 8.991367233658056346e-01 1.967121862570383906e+00 -1.670943961773528885e+00 -1.101137845059234170e-02 5.955937836354542325e-01 -1.467610262830076673e+00 3.276221909933876159e-02 -9.963044926630353071e-02 9.458151757585834263e-01 1.462766230362654074e+00 -3.289627487180016296e-01 -1.300209689890672093e+00 -8.278076723709222318e-01 1.037152363138916122e+00 2.690074311075680846e-01 1.790168590639769963e+00 1.070818820733659832e-01 8.089051981167537653e-01 8.148760776823548158e-01 8.137984829443362100e-01 8.074584622926574140e-02 2.703969141749171246e-01 6.310989384101751698e-01 9.602341069252130490e-01 3.962428164657831875e-01 2.503156386945956324e+00 1.755907090942505189e+00 -5.092349591101521522e-01 -1.485987003237372095e+00
-3.052464296846227332e-01 1.488426256052952867e+00 -3.084811519782647560e-01 -6.403711816911440424e-01 1.900988745918380518e+00 -1.139376542090012601e+00 -5.639348221332187716e-01 6.842256823902719276e-01 -1.476567901708033537e-01 -9.117062340259047826e-01 -5.109735734926427186e-01 7.698734410290630770e-01 -6.666385667577723328e-02 5.552640000168855838e-01 -3.299398447441103666e-01 6.880685109524097287e-01 1.407354684458349103e+00 7.304739656166033823e-01 -6.173695259480277420e-01 -6.654590431404149298e-01 -2.382353648227132914e-01 -1.096265948237242549e+00 -1.022570437026463219e+00 2.447445091871924827e+00 1.275226821573162805e+00 4.716669602425206942e-01 -8.952524679500311056e-01 -4.277602278238636369e-01 -1.288970060557434461e-01 3.583420517499195657e-01
4.372555596656925170e-01 -5.796516743094070057e-01 -9.207360246518944136e-01 -2.327584712086508689e-01 5.982193346428269498e-01 3.680389837614649329e-01 7.679577047402040835e-01 7.679705611951656019e-01 -2.226165067497853922e-01 -4.367029629971618809e-01 7.744461839110272638e-01 -9.296295794198249085e-02 -1.453378005324653666e-01 -8.184205444802102880e-01 -1.714504747840292151e-02 -1.011116036465412177e-01 8.759724724631926529e-01 1.960536521511681840e-01 3.124951032930405395e-02 -1.110539124208073769e+00 -1.413691855024367339e+00 -1.531127318771451362e+00 1.977162917641555051e+00 -4.258647398580698851e-01 -5.750173859970172385e-01 1.924213790294928561e-01 9.153395772240698891e-01 6.119365201872530857e-01 2.179652232884861540e+00 -2.490880421505826448e+00
8.164748819752003506e-01 -2.698148563157953816e-01 -1.238865983326433939e+00 8.307785146523257724e-01 1.645275819967711994e+00 4.106791554500046071e-01 -1.597779527211747652e+00 8.822776797032441110e-01 -7.995474400476729748e-01 2.025904938448996884e-02 -5.628455137843708656e-01 3.077870262541123059e-01 8.289704526043067956e-01 2.399458354802847193e+00 2.430760841761133439e-01 -8.524832727072378935e-01 1.026068229034021312e-01 -1.172749945030717056e+00 2.456645776020948413e-01 4.719323048681777211e-01 -1.202606538711487261e+00 -1.839596631149590100e-01 3.567933916780909875e-01 -1.388256334021945593e+00 2.829429639345214298e+00 5.183684938165838973e-01 4.249181470780759584e-01 -1.000709803858161440e+00 1.035230134236904131e+00 -1.021954349657596905e+00
-1.280736517449285072e+00 -6.126561064514950417e-01 -7.285893009854546021e-01 2.537152559872156155e-01 -1.403272484825675237e+00 -1.109267666089988058e-01 -2.195261881866130693e+00 -1.036626830174165681e+00 1.356723142879206145e+00 -6.307564621650902925e-01 7.108424670085312924e-02 -3.432966657870420435e-01 -1.025264680850038301e+00 -6.634599299438093123e-01 8.352999080792341546e-01 9.222428144123737681e-01 -7.745171472767108378e-01 1.660147921828997619e+00 2.014367026008987871e+00 1.576323925523177127e+00 -6.887432346760467006e-01 1.295297788105964409e+00 -1.224595121845192397e-01 -4.812396001284660052e-01 8.725162392560782687e-02 7.064445561091038384e-01 -5.172919850871416925e-01 6.925935368930145053e-01 -2.937910665777931363e-01 1.252251851851924780e+00
-2.128236917842627474e+00 3.379280492410850489e-01 1.063606187695596672e+00 5.254683523691596747e-01 -1.687513200694650051e+00 1.858406178461399771e-01 1.001308317504768342e+00 7.859478109840393190e-01 -1.402525346174579690e+00 2.673281290385751685e-01 -3.592260424891255410e-02 1.706674164751535328e+00 -6.873880091222327460e-01 1.599738602883255867e+00 -2.274482970218877353e-01 -3.463705380474023654e-01 -1.025606501553493421e+00 -1.712193783708382044e+00 8.285226428324795611e-01 -2.365074735079348428e-02 -1.244571346840582349e+00 -1.989487135844380417e+00 7.082282826040265933e-01 2.986190202061893006e-01 1.208502169493242073e+00 -2.489447888592458913e+00 -3.933002089657066658e-01 -1.242854008358708073e+00 7.555632650667895023e-01 2.613353310536110086e-01
-8.494714691244441562e-01 -9.032631129976013140e-01 -5.343958100643436682e-01 -3.110215943556264295e-01 1.573590197491390175e+00 -4.727928604632597454e-02 5.379862011526458376e-01 -2.056972529033690433e-01 1.169891305230224221e+00 -4.367906821881679114e-01 6.245431165985917410e-01 2.222570275597623435e-01 1.012808478974381199e+00 -3.111281245271832127e-02 -3.923969822408630570e-01 -9.959459142392655673e-02 8.320903685712063291e-01 -6.528869986271541581e-01 1.241146331939082748e+00 2.069401628197561349e-01 -1.140715818338731147e+00 1.641231009741195290e+00 -4.100309806874737339e-01 -7.945472507852232580e-01 2.476805211659567352e-01 -9.407854531693502498e-01 -1.156423662953106390e+00 -9.680186270459313347e-01 1.895542480879260694e+00 1.232823232156542215e+00
2.501639282918301579e-02 -1.079447705477522890e+00 -2.842859669167286940e-01 -4.845973863167081508e-02 1.322510505615454468e+00 -5.095640866557483717e-01 -7.250528425523862230e-01 -1.349909915167687657e+00 4.790548528272271511e-01 -6.856980310931004574e-01 -6.425506154739567266e-02 9.485897619337019249e-01 -1.813524112995276383e+00 -1.876993407587535245e-01 7.682970915574350856e-01 2.770867612854808204e-01 -1.051436195481821878e+00 -2.876709775401832814e-01 -3.568944301082113690e-01 -1.017093835844738725e-01 -1.511663024029349760e-02 2.412202741145359042e+00 -9.311837437571944820e-01 1.852582517408349450e+00 -4.375622086912767106e-01 1.219583948486275687e-01 -2.293320307065261687e+00 1.627099991062491702e+00 7.423017691220785697e-01 8.298388537242175345e-02
-9.184653714062125385e-01 1.937607058241888724e+00 -6.188087041827107226e-01 1.555398005388988411e-02 1.171009443512048609e+00 7.675067631136561763e-01 7.659600264942338921e-01 -1.660879159475537881e-01 -3.242874057826505840e-01 -5.965482192946764545e-02 -1.307453482147832524e+00 1.207675971182502250e+00 -8.170424948540594423e-01 1.359477350518807137e+00 2.004170915312758483e-02 4.529005446588714734e-01 -1.965333196835748142e+00 -1.412151761692340024e+00 -1.638744096721608701e+00 9.264664114704036502e-01 -8.936303586351580508e-01 -6.198314843817555042e-01 3.282246719138489643e-01 7.094855948878487917e-01 3.250044564028261584e-01 1.178201094081378519e+00 4.003850425538169611e-01 -3.322871080153788070e-01 -2.273654499854023403e-01 -2.150564036876300822e+00
-1.995976860516874618e+00 4.266682279124098809e-01 3.677919183301153194e-01 -8.174809328991523849e-02 -2.483014428506236937e-01 -4.644655263913177040e-02 -2.182120368139243372e+00 -1.304471947035992785e-02 5.627486886526857253e-03 -1.151513083766859236e+00 1.598806513028771858e+00 6.278851686590217751e-01 -3.896355124142131809e-01 -9.401115900187186902e-01 -6.746940654276029070e-01 1.251133790292357495e-01 5.237454153644109933e-01 1.880273337029669534e-01 -1.071105819159681394e+00 -8.479903927168408462e-01 5.914432034936548677e-01 -4.350310803830453876e-01 3.900514614817144898e-01 2.036584355243650779e-01 -1.023407961966946444e-01 3.745708424852500773e-03 -1.167129247352542420e-01 8.120952827181868727e-01 3.428123718184277746e-01 1.562261043275861572e-01
1.739744002238700737e+00 -1.546501127291858513e+00 1.266526276024499964e+00 -5.220905744920265601e-01 -7.789659902712472439e-01 -3.468012660452087781e-01 9.930330526972803717e-01 -8.342499635277900172e-01 -7.724004245722201345e-01 1.697696538961074308e+00 6.454427272303576713e-01 -9.408529906327481873e-01 7.572827568147311172e-01 1.030028132138748886e-01 -1.281758433989222956e+00 5.399252390341791052e-01 -5.045335221873457066e-01 8.819580366470574084e-01 1.388994084744719970e+00 -1.663328930265288053e+00 3.648816162022924109e-02 -3.782314865625223121e-01 1.802902053796197723e+00 7.135396519614404243e-01 2.049056212623064435e-02 3.072340970284865858e-01 8.526683725090909993e-01 -7.428482269666416560e-01 1.181611409408152902e+00 -1.097520603334479761e+00
1.801913347817823308e+00 -1.624158759279073772e-01 1.691753900664455301e+00 -1.352262767328688553e-01 -6.736619398377763357e-01 1.463049855296687518e+00 -1.791024603867777953e-01 1.532214900625316512e+00 -1.620975146399853406e+00 -2.662701243285765518e+00 -5.792470199075083759e-01 2.200234116672909745e-01 -1.085325983178258236e+00 -3.354205325781101643e-01 1.079587770828251969e+00 -5.422304597179363750e-01 -6.801092767023254604e-01 -4.592650584474603503e-01 5.195508780604188859e-01 -1.397913416464148462e+00 1.078504633325063189e+00 2.071707197213932261e-01 1.430625849437964892e+00 -3.399115011324132518e-01 -6.451486524753974328e-02 -3.460359088261783511e-01 8.578082612368762572e-01 -5.101657257640684895e-01 2.154424478794341180e-01 -4.679188081172865887e-01
1.315644462521136093e+00 3.860498470386533598e-02 -4.701225753644237559e-01 5.188879907254175805e-01 -8.285478940731323405e-01 3.831850961367218311e-02 -8.924454416453797556e-01 1.645315924236124161e+00 4.130453560986123152e-01 2.751309380560914342e+00 1.116214349960912983e-01 2.270371715883557073e-01 -1.321487258138413834e+00 6.455768894989223350e-01 5.489075678179812234e-01 1.688662450850932917e+00 1.177938444787199890e+00 3.126842929801842419e-01 2.946385822718234349e-01 1.151145139788390281e+00 1.400987665897664158e-01 3.479512120134262143e-01 2.570148635266472636e-01 7.949162418816261289e-01 -6.145585889660853951e-01 1.918318072885171865e+00 1.978108588096298082e+00 -8.491367770488529310e-01 8.946735305664107463e-01 2.143662446386167819e-01
-1.734820815396669325e+00 4.238307973191147715e-01 -2.498938882334015066e+00 -1.305754226312422217e+00 8.913516363986273561e-01 -5.617192183069197320e-01 -1.258324867301615413e+00 -9.621426443798065664e-01 -1.093240424831483759e+00 -7.316902594813258220e-01 6.245979210659950986e-01 -9.478404093690221410e-01 -1.286998336512626517e+00 1.784131993840907260e+00 3.895843666385019333e-01 1.158201948706923279e+00 3.213935890949931040e-01 -6.560013833208985790e-02 -3.865928433556798716e+00 5.288594771484284029e-01 6.200328482229391369e-01 1.041228129632012722e+00 -1.821807375815974517e+00 6.643366897219239731e-02 -3.027221537334218171e-01 1.407967716214112652e+00 6.921336562548188742e-02 -9.061694248590558276e-01 -4.029474288884275501e-01 1.978609903649717117e+00
1.287333816173507062e-01 -1.003749161767367948e+00 -9.515453744327289076e-01 5.609613196652586398e-01 2.902064017716261546e-01 1.245219155410049128e+00 2.352949076736015888e-01 -1.256777679425568062e+00 2.681484595963761763e-01 -2.004795913200327018e+00 9.101584584958000157e-01 -8.100248954713091809e-01 -1.167810126641619928e-01 -1.081138880463904606e+00 1.392757012618759394e+00 8.717845319401948401e-02 -5.899354652255732745e-01 -8.571990628788415112e-01 -3.095262767019952288e-01 1.554481598755258709e+00 9.393362640275493280e-01 6.433744658044361353e-01 2.754672820232263453e-01 -1.529720674867182328e+00 -2.038479723187775150e+00 1.971409754275687820e-01 -7.111954142072298701e-01 1.478896855385997133e-01 -8.793772966109839606e-01 1.711150687044017848e+00
-3.179010900585848010e-01 -1.108894159579997679e-02 -8.961556263755210416e-01 6.449304292215365386e-01 -4.103831168461285345e-02 -1.351333974055575426e+00 2.368139240055890937e-01 1.568688581893848077e+00 8.289698060285760617e-01 -1.150823241106559314e+00 -1.498557652305944066e+00 3.010499501856939153e-01 7.968472682287158770e-01 4.112597811556647498e-01 -1.526517202901999548e+00 -1.595891547352321638e-01 -1.360276649142074579e+00 -1.749241402167293735e+00 1.767616793662312724e-01 8.785184253918415509e-01 -1.084276305032362414e-01 -1.135404286917107264e+00 -1.455126242821444205e+00 -6.345326243171980352e-01 -3.539087142519775631e-01 1.992052505139779717e-02 -9.931575640619099143e-01 1.042281877054303640e+00 -1.076505511004687721e+00 6.496586957914651794e-01
